
\data\
ngram 1=9
ngram 2=14
ngram 3=3

\1-grams:
-1.310575	</s>
-99	<s>	-0.1665459
-0.5746217	a	-0.466771
-0.8668779	b	-0.5162191
-0.7463039	c	-0.561257
-0.7463039	a d	-0.502338
-1.034369	e	-0.3645918
-1.310575	a b g	-0.1665459
-1.310575	h	-0.2151891

\2-grams:
-0.30103	<s> a
-0.544068	a a
-0.3679768	b	0
-0.845098	a c
-0.1249387	b c	-0.2552725
-0.39794	c d
-0.39794	e
-0.69897	d </s>
-0.39794	d a
-0.69897	d h c
-0.4771213	e d
-0.4771213	e g c	-0.1
-0.30103	g a
-0.30103	h d

\3-grams:
-0.1249387	a b c
-0.1249387	a b c d
-0.1760913	b d

\end\
