
\data\
ngram 1=12
ngram 2=19
ngram 3=0

\1-grams:
-1	._|_.	-0.3802112
-1	</s>
-99	<s>	-0.4313638
-15.65356	<unk>
-1	X_|_xx	-0.3802112
-1	Y_|_yy	-0.3802112
-1	b_|_a	-0.3802112
-1	d_|_	-0.3802112
-1	d_|_b	-0.3802112
-1	e_|_	-0.3802112
-1	e_|_b	-0.3802112
-1	noal_|_noal	-0.3802112

\2-grams:
-0.4771213	._|_. </s>
-0.4771213	._|_. noal_|_noal
-0.1760913	<s> b_|_a
-0.4771213	X_|_xx Y_|_yy
-0.4771213	X_|_xx d_|_b
-0.4771213	Y_|_yy ._|_.
-0.4771213	Y_|_yy noal_|_noal
-0.4771213	b_|_a d_|_
-0.4771213	b_|_a e_|_b
-0.4771213	d_|_ e_|_
-0.4771213	d_|_ e_|_b
-0.4771213	d_|_b X_|_xx
-0.4771213	d_|_b Y_|_yy
-0.4771213	e_|_ X_|_xx
-0.4771213	e_|_ d_|_b
-0.4771213	e_|_b d_|_
-0.4771213	e_|_b e_|_
-0.4771213	noal_|_noal ._|_.
-0.4771213	noal_|_noal </s>

\3-grams:

\end\
