
\data\
ngram 1=8
ngram 2=13
ngram 3=18
ngram 4=21
ngram 5=23

\1-grams:
-0.744198	</s>
-99	<s>	-0.301030
-0.925618	a	-0.057992
-0.885323	b	-0.090177
-0.885323	c	-0.149762
-0.744198	d	-0.301030
-0.885323	e	-0.149762
-0.885323	f	-0.182931

\2-grams:
-0.252324	<s> a	-0.102662
-0.943315	a b
-0.621707	a c	-0.102662
-0.532683	b c	-0.271575
-0.597471	c d	-0.271575
-0.586858	c e	-0.102662
-0.501538	d e	-0.102662
-0.501538	d f	-0.102662
-0.600789	e a	-0.102662
-0.663062	e f	-0.102662
-0.613913	f </s>
-0.765395	f a	-0.102662
-0.676837	f b	-0.102662

\3-grams:
-0.522183	<s> a b	-0.124939
-0.532683	a b c	-0.037789
-0.387225	a c d	-0.124939
-0.275782	b c d	-0.037789
-0.680451	b c e	-0.124939
-0.249223	c d e	-0.037789
-0.621990	c d f	-0.124939
-0.417902	c e f	-0.124939
-0.518257	d e a	-0.124939
-0.557885	d e f	-0.124939
-0.460890	d f a	-0.124939
-0.522183	e a b	-0.124939
-0.581317	e f </s>
-0.686815	e f a	-0.124939
-0.626489	e f b	-0.124939
-0.709481	f a b	-0.124939
-0.531798	f a c	-0.124939
-0.354497	f b c	-0.124939

\4-grams:
-0.327923	<s> a b c
-0.313570	a b c d
-0.561215	a b c e
-0.172300	a c d e
-0.287012	b c d e
-0.519675	b c d f
-0.270412	b c e f
-0.442161	c d e a
-0.595673	c d e f
-0.292838	c d f a
-0.393342	c e f a
-0.322977	d e a b
-0.492586	d e f </s>
-0.519642	d e f b
-0.401852	d f a b
-0.327923	e a b c
-0.327508	e f a c
-0.235404	e f b c
-0.327923	f a b c
-0.253760	f a c d
-0.188796	f b c d

\5-grams:
-0.313570	<s> a b c d
-0.287012	a b c d e
-0.519675	a b c d f
-0.270412	a b c e f
-0.595673	a c d e f
-0.442161	b c d e a
-0.595673	b c d e f
-0.292838	b c d f a
-0.393342	b c e f a
-0.322977	c d e a b
-0.492586	c d e f </s>
-0.519642	c d e f b
-0.401852	c d f a b
-0.327508	c e f a c
-0.327923	d e a b c
-0.235404	d e f b c
-0.327923	d f a b c
-0.313570	e a b c d
-0.253760	e f a c d
-0.188796	e f b c d
-0.561215	f a b c e
-0.172300	f a c d e
-0.287012	f b c d e

\end\
