
\data\
ngram 1=8
ngram 2=40
ngram 3=90
ngram 4=95
ngram 5=83

\1-grams:
-0.823909	</s>
-99	<s>	-0.235530
-0.823909	a	-0.116880
-0.823909	b	-0.078105
-0.903090	c	-0.178991
-0.903090	d	-0.143759
-0.823909	e	-0.135581
-0.823909	f	-0.149535

\2-grams:
-0.816021	<s> a	-0.065950
-0.698171	<s> b	-0.143062
-0.948412	<s> c	-0.203309
-1.027134	<s> d	-0.203309
-0.978273	<s> e	-0.107091
-0.605571	<s> f	-0.107091
-0.840482	a </s>
-0.685367	a b	-0.070342
-0.918669	a c	-0.025191
-0.902109	a d	-0.203309
-0.840482	a e	-0.203309
-0.840482	a f	-0.203309
-0.809425	b </s>
-0.809425	b a	-0.107091
-0.872242	b c	-0.203309
-0.887681	b d	-0.070342
-0.822753	b e	-0.203309
-0.822753	b f	-0.203309
-0.874364	c </s>
-0.755523	c a	-0.203309
-0.755523	c b	-0.203309
-0.908743	c d	-0.203309
-0.874364	c e	-0.090164
-0.755523	c f	-0.203309
-0.724251	d </s>
-0.724251	d a	-0.129222
-0.803922	d b	-0.203309
-0.951124	d c	-0.129222
-0.872888	d e	-0.203309
-0.886502	d f	-0.107091
-0.855260	e </s>
-0.855260	e a	-0.129222
-0.870097	e b	-0.129222
-0.736987	e d	-0.143062
-0.695654	e f	-0.129222
-0.727539	f </s>
-0.891288	f a	-0.129222
-0.877525	f b	-0.203309
-0.641355	f c	-0.090164
-0.891288	f e	-0.203309

\3-grams:
-0.606016	<s> a b	-0.064802
-0.711112	<s> a f	-0.064802
-0.729723	<s> b a	-0.064802
-0.825298	<s> b d	-0.064802
-0.737654	<s> b e	-0.064802
-0.737654	<s> b f	-0.064802
-0.345736	<s> c d	-0.064802
-0.515604	<s> d a	-0.064802
-0.571486	<s> d f	-0.064802
-0.692544	<s> e a	-0.064802
-0.549595	<s> e f	-0.064802
-0.831689	<s> f a	-0.064802
-0.822266	<s> f b	-0.088620
-0.618397	<s> f c	-0.064802
-0.788668	<s> f e	-0.064802
-0.942584	a b c
-0.693197	a b e	-0.064802
-0.693197	a b f	-0.064802
-0.899555	a c e	-0.080535
-0.653567	a c f	-0.064802
-0.674464	a d </s>
-0.786393	a d c	-0.064802
-0.751130	a d e	-0.064802
-0.757517	a d f	-0.064802
-0.520492	a e d	-0.064802
-0.504304	a e f	-0.064802
-0.682715	a f b	-0.064802
-0.572497	a f c	-0.064802
-0.688166	a f e	-0.064802
-0.725458	b a c	-0.064802
-0.624444	b a e	-0.064802
-0.567770	b c </s>
-0.578109	b c d	-0.064802
-0.628487	b d </s>
-0.628487	b d a	-0.064802
-1.021466	b d c	-0.080535
-0.673675	b e a	-0.064802
-0.620971	b e d	-0.064802
-0.600665	b e f	-0.064802
-0.616416	b f </s>
-0.688166	b f a	-0.064802
-0.572497	b f c	-0.064802
-0.557012	c a </s>
-0.557012	c a f	-0.064802
-0.546641	c b </s>
-0.551152	c b e	-0.064802
-0.674464	c d </s>
-0.674464	c d a	-0.064802
-0.751130	c d e	-0.064802
-0.757517	c d f	-0.064802
-0.725480	c e </s>
-0.780056	c e b	-0.064802
-0.687739	c e d	-0.080535
-0.516874	c f </s>
-0.572931	c f e	-0.064802
-0.607810	d a b	-0.064802
-0.795872	d a c	-0.064802
-0.697489	d a e	-0.064802
-0.327032	d b </s>
-0.715263	d c </s>
-0.650040	d c a	-0.064802
-0.770518	d c e	-0.088620
-0.566446	d e b	-0.064802
-0.504304	d e f	-0.064802
-0.567106	d f </s>
-0.564808	d f c	-0.088620
-0.697489	e a </s>
-0.607810	e a b	-0.064802
-0.786525	e a d	-0.064802
-0.714169	e b c	-0.064802
-0.778255	e b d	-0.064802
-0.687927	e b f	-0.064802
-0.716498	e d </s>
-0.676748	e d a	-0.064802
-0.726420	e d b	-0.064802
-0.808913	e d c	-0.064802
-0.678783	e f </s>
-0.723894	e f a	-0.064802
-0.579950	e f c	-0.064802
-0.607810	f a b	-0.064802
-0.737508	f a c	-0.064802
-0.786525	f a d	-0.064802
-0.546641	f b a	-0.064802
-0.571843	f b d	-0.064802
-0.736892	f c </s>
-0.701106	f c b	-0.080535
-0.782870	f c e	-0.064802
-0.673675	f e </s>
-0.679730	f e b	-0.064802
-0.620971	f e d	-0.064802

\4-grams:
-0.775673	<s> a b c	-0.010465
-0.612807	<s> a b f	-0.010465
-0.605278	<s> a f b	-0.010465
-0.523135	<s> a f c	-0.010465
-0.521870	<s> b a c	-0.010465
-0.565526	<s> b d a	-0.010465
-0.820186	<s> b d c	-0.010465
-0.462452	<s> b e d	-0.010465
-0.501372	<s> b f a	-0.010465
-0.493642	<s> c d a	-0.010465
-0.558402	<s> d a c	-0.010465
-0.428003	<s> d f c	-0.010465
-0.550027	<s> e a b	-0.010465
-0.677513	<s> e a d	-0.010465
-0.521026	<s> e f a	-0.010465
-0.644060	<s> f a c	-0.010465
-0.677513	<s> f a d	-0.010465
-0.380716	<s> f b a	-0.010465
-0.508574	<s> f c b	-0.010465
-0.496625	<s> f e b	-0.010465
-0.578109	a b c d	-0.010465
-0.450196	a b e f	-0.010465
-0.432821	a b f c	-0.010465
-0.735052	a c e b	-0.010465
-0.532309	a c e d	-0.010465
-0.479752	a c f </s>
-0.523469	a c f e	-0.010465
-0.545576	a d c e	-0.010465
-0.429033	a d e b	-0.010465
-0.428003	a d f c	-0.010465
-0.564855	a e d c	-0.010465
-0.437460	a e f c	-0.010465
-0.432412	a f b d	-0.010465
-0.551871	a f c e	-0.010465
-0.493193	a f e </s>
-0.749921	b a c e	-0.010465
-0.584075	b a c f	-0.010465
-0.399622	b a e d	-0.010465
-0.641147	b c d </s>
-0.701179	b c d e	-0.010465
-0.706075	b c d f	-0.010465
-0.506570	b d a e	-0.010465
-0.510017	b d c a	-0.010465
-0.727889	b d c e	-0.010465
-0.615875	b e a </s>
-0.677513	b e a d	-0.010465
-0.494938	b e d a	-0.010465
-0.496090	b e f </s>
-0.553717	b f a d	-0.010465
-0.551871	b f c e	-0.010465
-0.501372	c a f e	-0.010465
-0.493193	c b e a	-0.010465
-0.454535	c d a b	-0.010465
-0.388997	c d e f	-0.010465
-0.429446	c d f </s>
-0.671953	c e b d	-0.010465
-0.609028	c e b f	-0.010465
-0.548780	c e d </s>
-0.694270	c e d b	-0.010465
-0.462452	c f e d	-0.010465
-0.504183	d a b e	-0.010465
-0.749921	d a c e	-0.010465
-0.584075	d a c f	-0.010465
-0.388997	d a e f	-0.010465
-0.511181	d c a </s>
-0.511181	d c a f	-0.010465
-0.471072	d c e </s>
-0.515748	d e b c	-0.010465
-0.496090	d e f </s>
-0.459838	d f c b	-0.010465
-0.625384	e a b c	-0.010465
-0.599316	e a d </s>
-0.657860	e a d f	-0.010465
-0.429863	e b c </s>
-0.565526	e b d </s>
-0.820186	e b d c	-0.010465
-0.459723	e b f </s>
-0.558402	e d a c	-0.010465
-0.264180	e d b </s>
-0.516345	e d c </s>
-0.454535	e f a b	-0.010465
-0.527996	e f c </s>
-0.625384	f a b c	-0.010465
-0.607009	f a c e	-0.010465
-0.677424	f a d c	-0.010465
-0.653476	f a d e	-0.010465
-0.635654	f b a c	-0.010465
-0.562510	f b a e	-0.010465
-0.656398	f b d c	-0.010465
-0.549510	f c b </s>
-0.447856	f c b e
-0.673167	f c e b	-0.010465
-0.608893	f c e d	-0.010465
-0.549529	f e b d	-0.010465
-0.517017	f e d </s>

\5-grams:
-0.550222	<s> a b c d
-0.415499	<s> a b f c
-0.415115	<s> a f b d
-0.526141	<s> a f c e
-0.555681	<s> b a c f
-0.484294	<s> b d a e
-0.487490	<s> b d c a
-0.473496	<s> b e d a
-0.527839	<s> b f a d
-0.435835	<s> c d a b
-0.704576	<s> d a c e
-0.440792	<s> d f c b
-0.593296	<s> e a b c
-0.622636	<s> e a d f
-0.435835	<s> e f a b
-0.576604	<s> f a c e
-0.618688	<s> f a d e
-0.623813	<s> f b a c
-0.554053	<s> f b a e
-0.429587	<s> f c b e
-0.523987	<s> f e b d
-0.636428	a b c d </s>
-0.694253	a b c d e
-0.698956	a b c d f
-0.474566	a b e f </s>
-0.526141	a b f c e
-0.578441	a c e b f
-0.540900	a c e d </s>
-0.679299	a c e d b
-0.443233	a c f e d
-0.451278	a d c e </s>
-0.492799	a d e b c
-0.440792	a d f c b
-0.493352	a e d c </s>
-0.504128	a e f c </s>
-0.621320	a f b d c
-0.636390	a f c e b
-0.508112	b a c e d
-0.499943	b a c f e
-0.538073	b a e d c
-0.374266	b c d e f
-0.412333	b c d f </s>
-0.374266	b d a e f
-0.504793	b d c a </s>
-0.504793	b d c a f
-0.451278	b d c e </s>
-0.569596	b e a d </s>
-0.532146	b e d a c
-0.640206	b f a d c
-0.578318	b f c e d
-0.471875	c a f e </s>
-0.605003	c b e a </s>
-0.663478	c b e a d
-0.482080	c d a b e
-0.474566	c d e f </s>
-0.538689	c e b d </s>
-0.440684	c e b f </s>
-0.255607	c e d b </s>
-0.493974	c f e d </s>
-0.431777	d a b e f
-0.691473	d a c e b
-0.459369	d a c f </s>
-0.419849	d a e f c
-0.479471	d c a f e
-0.412723	d e b c </s>
-0.541599	d f c b </s>
-0.443717	d f c b e
-0.550222	e a b c d
-0.410978	e a d f c
-0.487490	e b d c a
-0.555681	e d a c f
-0.593296	e f a b c
-0.550222	f a b c d
-0.508112	f a c e d
-0.520347	f a d c e
-0.411944	f a d e b
-0.704576	f b a c e
-0.384285	f b a e d
-0.685142	f b d c e
-0.493193	f c b e a
-0.635301	f c e b d
-0.523297	f c e d </s>
-0.765739	f e b d c

\end\
