
\data\
ngram 1=7
ngram 2=6

\1-grams:
-0.7781513	</s>
-99	<s>	-99
-0.7781513	a	-99
-0.7781513	b	-99
-0.7781513	c	-99
-0.7781513	d	-99
-0.7781513	e	-99

\2-grams:
0	<s> a
0	a b
0	b c
0	c d
0	d e
0	e </s>

\end\
