
\data\
ngram 1=9417
ngram 2=65203
ngram 3=18933

\1-grams:
-2.857704	$	-0.3033612
-3.039876	%	-0.4579858
-4.272236	&amp	-0.4145138
-3.330207	'	-0.1506483
-2.887501	''	-0.6522678
-2.705426	's	-0.1692338
-2.582592	(	-0.2181833
-4.649053	(5)	-0.1222821
-4.419179	(a)	-0.1222821
-4.531762	(b)	-0.1222821
-4.531762	(i)	-0.2435762
-3.011612	)	-0.2963946
-4.531762	*	-0.1222821
-1.458922	,	-0.7388759
-2.580051	--	-0.2380075
-1.442563	.	-1.650109
-3.717932	..	-0.1376698
-4.649053	.223	-0.1222821
-4.649053	.44	-0.1222821
-4.649053	.45	-0.1222821
-4.649053	045	-0.1222821
-4.075202	1	-0.1464603
-4.075202	1,000	-0.1222821
-4.531762	1,200	-0.1222821
-4.531762	1,500	-0.1222821
-4.649053	1,846	-0.1222821
-4.649053	1.10	-0.1222821
-4.649053	1.2	-0.1222821
-4.649053	1.22	-0.1222821
-4.649053	1.25	-0.1222821
-4.649053	1.3	-0.1222821
-4.649053	1.30	-0.1222821
-4.649053	1.4	-0.1222821
-4.649053	1.5	-0.1222821
-4.649053	1.5¢	-0.1222821
-4.649053	1.6	-0.1222821
-4.649053	1/25th	-0.1222821
-3.217857	10	-0.5105715
-4.16264	10,000	-0.1590736
-3.837297	100	-0.1857244
-4.531762	100,000	-0.1222821
-4.649053	101	-0.1222821
-4.649053	109	-0.1222821
-4.649053	109 million	-0.1222821
-4.649053	10th	-0.1222821
-4.649053	10 billion	-0.1222821
-4.075202	11	-0.1777419
-3.793761	112	-0.7184567
-4.649053	113,000	-0.1222821
-4.649053	115	-0.1222821
-4.649053	118	-0.1222821
-4.649053	118.2(2)(n)	-0.1222821
-4.649053	119	-0.1222821
-4.649053	11:06	-0.1222821
-4.649053	11th	-0.1222821
-3.754193	12	-0.1357163
-4.649053	120,000	-0.122282
-4.649053	122	-0.1222821
-4.649053	125th	-0.1222821
-4.649053	128	-0.1222821
-4.649053	12:06	-0.1222821
-4.649053	12:30	-0.1222821
-4.16264	13	-0.1590736
-4.649053	13(5)	-0.1222821
-4.649053	13.2	-0.1222821
-4.419179	130	-0.122282
-4.531762	131,000	-0.1222821
-4.531762	136	-0.1222821
-4.649053	137	-0.1222821
-4.531762	139	-0.1992729
-3.653395	14	-0.3491902
-4.531762	140	-0.1222821
-3.547486	15	-0.3300358
-4.531762	15,000	-0.1222821
-4.649053	15.1	-0.1222821
-4.16264	150	-0.1668213
-4.649053	150,000	-0.1222821
-4.649053	150th	-0.1222821
-4.649053	150 million	-0.1222821
-4.649053	16	-0.1222821
-4.649053	160	-0.1222821
-4.649053	166	-0.1222821
-4.649053	16th	-0.1222821
-4.075202	17	-0.1874027
-4.649053	17(10)	-0.1222821
-4.649053	17(4)	-0.1222821
-4.649053	17(7)	-0.1222821
-4.649053	17(8)	-0.1222821
-4.649053	17.5	-0.1222821
-4.531762	170	-0.1222821
-4.649053	170,000	-0.1222821
-4.649053	178	-0.1222821
-4.649053	178 million	-0.1222821
-3.754193	18	-0.1922264
-4.649053	180	-0.1222821
-4.649053	1800	-0.1222821
-4.649053	184	-0.122282
-4.649053	185	-0.1222821
-4.649053	1850	-0.1222821
-4.531762	1853	-0.2435762
-4.649053	188	-0.1222821
-4.649053	1891	-0.1222821
-4.649053	18th	-0.1222821
-4.075202	19	-0.1222821
-4.419179	1901	-0.2413355
-4.649053	1906	-0.1222821
-4.649053	1909-10	-0.1222821
-4.531762	1910	-0.1222821
-4.531762	1911	-0.1787083
-4.649053	1918	-0.1222821
-4.649053	1920s	-0.1222821
-4.649053	1927	-0.1222821
-4.531762	1928	-0.2435762
-4.531762	1929	-0.1222821
-4.649053	1930s	-0.1222821
-4.649053	1934	-0.1222821
-4.649053	1942	-0.1222821
-4.649053	1946	-0.1222821
-4.531762	1950	-0.1222821
-4.649053	1960	-0.1222821
-4.649053	1962	-0.1222821
-4.649053	1966	-0.122282
-4.649053	197	-0.1222821
-4.531762	1970	-0.1222821
-4.531762	1970s	-0.1222821
-4.649053	1972	-0.1222821
-4.649053	1973	-0.1222821
-4.649053	1974	-0.1222821
-4.649053	1976	-0.1222821
-4.531762	1977	-0.1222821
-4.531762	1979	-0.122282
-4.649053	1980s	-0.1222821
-4.531762	1983	-0.1222821
-4.649053	1985	-0.1222821
-4.531762	1987	-0.2435762
-4.531762	1988	-0.1222821
-4.531762	1990	-0.1222821
-4.649053	1990s	-0.1222821
-4.649053	1991	-0.1222821
-4.531762	1993	-0.1992729
-4.531762	1994	-0.1222821
-4.649053	1994-95	-0.1222821
-4.649053	1995	-0.1222821
-4.272236	1996	-0.1874027
-4.419179	1997	-0.1495794
-4.075202	1998	-0.183509
-4.649053	1998-2002	-0.1222821
-4.16264	1999	-0.1590736
-4.649053	1 million	-0.1222821
-3.754193	2	-0.2168023
-4.272236	2,000	-0.1222821
-4.649053	2,136	-0.1222821
-4.649053	2,386	-0.122282
-4.649053	2.25	-0.1222821
-4.649053	2.3	-0.1222821
-4.649053	2.6 billion	-0.1222821
-4.649053	2.8	-0.1222821
-4.419179	2.9	-0.1222821
-3.240432	20	-0.604234
-4.649053	20,000	-0.122282
-4.649053	20-year	-0.1222821
-4.649053	20-year-old	-0.1222821
-4.16264	200	-0.1222821
-4.649053	200,000	-0.1222821
-3.88569	2000	-0.1874027
-3.940159	2001	-0.2432884
-3.793761	2002	-0.2193676
-4.419179	2002-03	-0.1787083
-3.653395	2003	-0.2618252
-4.272236	2004	-0.3090279
-4.531762	2005	-0.2164557
-4.16264	2006	-0.1222821
-4.531762	2006 census	-0.1222821
-4.272236	2007	-0.3382455
-4.649053	200th	-0.1222821
-4.649053	201	-0.1222821
-4.419179	2010	-0.1992729
-4.531762	2012	-0.1222821
-4.531762	202	-0.1222821
-4.002453	2020	-0.2288945
-4.649053	2025	-0.1222821
-4.649053	2030	-0.1222821
-4.649053	2040	-0.1222821
-4.649053	2045	-0.1222821
-4.649053	205	-0.1222821
-4.419179	2050	-0.1787083
-4.649053	2060	-0.1222821
-4.649053	2098	-0.1222821
-4.649053	20a	-0.1222821
-4.531762	20th	-0.1992728
-4.002453	21	-0.2413355
-4.16264	22	-0.1668213
-4.649053	22,803	-0.1222821
-4.649053	222	-0.1222821
-4.649053	227 million	-0.1222821
-4.649053	22e	-0.1222821
-4.649053	22nd	-0.1222821
-3.940159	23	-0.3228613
-4.272236	23,000	-0.1787083
-4.649053	230	-0.1222821
-3.754193	24	-0.1735092
-4.649053	24(1)	-0.1222821
-4.649053	24-month	-0.1222821
-4.649053	240	-0.1222821
-4.531762	242	-0.1222821
-4.649053	243	-0.1222821
-4.649053	244	-0.1222821
-4.531762	245	-0.1222821
-4.649053	245 million	-0.1222821
-4.531762	247	-0.1222821
-4.531762	249	-0.1222821
-4.649053	24th	-0.1222821
-3.391296	25	-0.5478612
-4.649053	25(4)	-0.1222821
-4.649053	25,000	-0.1222821
-4.649053	25-year	-0.1222821
-4.531762	250	-0.1222821
-4.649053	250 million	-0.1222821
-4.531762	25th	-0.2435762
-4.531762	26	-0.1222821
-4.649053	26,500	-0.1222821
-4.649053	260	-0.1222821
-4.649053	260 million	-0.122282
-4.649053	27	-0.1222821
-4.649053	27,000	-0.1222821
-4.649053	270	-0.1222821
-3.684466	28	-0.3170598
-4.649053	285,000	-0.1222821
-4.16264	29	-0.2164557
-4.649053	2nd	-0.1222821
-3.940159	3	-0.1660689
-4.531762	3(1)	-0.1222821
-4.649053	3(2)	-0.1222821
-4.419179	3,000	-0.1222821
-4.649053	3,000 jobs	-0.1222821
-4.649053	3,001	-0.122282
-4.649053	3,500	-0.1222821
-4.649053	3.25	-0.1222821
-4.649053	3.36	-0.1222821
-4.649053	3.5 million	-0.1222821
-4.649053	3.68	-0.1222821
-4.649053	3.86	-0.1222821
-3.59722	30	-0.3121013
-4.649053	30,000	-0.1222821
-4.649053	30.1	-0.1222821
-4.531762	300	-0.1222821
-4.649053	300,000	-0.1222821
-4.649053	304 million	-0.1222821
-4.649053	30 million	-0.1222821
-4.531762	31	-0.1222821
-4.531762	318	-0.2435762
-4.531762	319	-0.2435762
-4.649053	31s	-0.1222821
-4.649053	32	-0.1222821
-4.649053	325	-0.1222821
-4.272236	33	-0.1222821
-4.649053	34	-0.1222821
-4.649053	34(1)	-0.1222821
-4.272236	35	-0.1668213
-4.419179	350	-0.1992728
-4.531762	36	-0.1222821
-4.649053	36(8)	-0.1222821
-4.649053	3675	-0.1222821
-4.649053	37th	-0.1222821
-4.531762	38	-0.1222821
-4.649053	382	-0.1222821
-4.649053	397	-0.1222821
-4.649053	3:04	-0.1222821
-4.649053	3rd	-0.1222821
-4.649053	3 billion	-0.1222821
-4.649053	3 p.m.	-0.1222821
-4.649053	3¢	-0.1222821
-4.16264	4	-0.2147707
-4.649053	4,000	-0.1222821
-4.649053	4,500 people	-0.1222821
-4.531762	4.3	-0.1222821
-4.649053	4.5	-0.1222821
-4.649053	4.7	-0.1222821
-4.649053	4.9	-0.1222821
-3.717932	40	-0.3020046
-4.649053	40.4	-0.1222821
-4.16264	400	-0.1222821
-4.531762	406	-0.1222821
-4.649053	40th	-0.1222821
-4.531762	41	-0.1222821
-4.649053	414	-0.122282
-4.649053	417	-0.1222821
-4.649053	42.1	-0.1222821
-4.531762	43	-0.2435762
-4.649053	43.2	-0.1222821
-4.649053	430	-0.1222821
-4.419179	44	-0.1992728
-4.531762	443	-0.1222821
-4.419179	45	-0.1787083
-4.649053	45,000	-0.1222821
-4.649053	450 million	-0.1222821
-4.649053	455	-0.1222821
-4.649053	46	-0.1222821
-4.649053	46th	-0.1222821
-4.649053	472	-0.1222821
-4.649053	47th	-0.1222821
-4.531762	48	-0.1222821
-4.649053	487.013	-0.1222821
-4.649053	487.015	-0.1222821
-4.649053	49	-0.1222821
-4.649053	4922	-0.1222821
-4.649053	4th	-0.1222821
-3.717932	5	-0.282403
-4.531762	5,000	-0.1222821
-4.649053	5,398	-0.1222821
-3.793761	50	-0.3580731
-4.075202	50,000	-0.1590736
-4.649053	50-50	-0.1222821
-4.649053	50-year	-0.1222821
-4.419179	500	-0.1222821
-4.649053	500 million	-0.1222821
-4.649053	54	-0.1222821
-4.649053	544,000	-0.1222821
-4.649053	54 million	-0.1222821
-4.531762	55	-0.1222821
-4.531762	56	-0.1222821
-4.649053	5675	-0.1222821
-4.649053	57	-0.1222821
-4.649053	59	-0.1222821
-4.649053	597	-0.1222821
-4.649053	5:24	-0.1222821
-4.419179	5:29	-0.289575
-4.531762	5:30	-0.1222821
-4.649053	5 billion	-0.1222821
-3.88569	6	-0.1985972
-4.649053	6,000	-0.1222821
-4.649053	6.5	-0.1222821
-4.531762	60	-0.1992728
-4.16264	60,000	-0.1668213
-4.531762	600,000	-0.1222821
-4.649053	606	-0.1222821
-4.419179	61	-0.1222821
-4.531762	64	-0.1222821
-4.649053	640	-0.1222821
-4.531762	65	-0.1222821
-4.649053	650	-0.1222821
-4.531762	66	-0.1222821
-4.531762	66.4¢	-0.1222821
-4.649053	68,000	-0.1222821
-4.649053	69	-0.1222821
-4.649053	6:22	-0.1222821
-4.649053	6:24	-0.1222821
-4.649053	6:30	-0.1222821
-4.075202	7	-0.2099322
-4.649053	7%,10	-0.1222821
-4.649053	7.5	-0.1222821
-4.649053	7.5 million	-0.1222821
-4.649053	7.7	-0.1222821
-4.272236	70	-0.2413355
-4.531762	700	-0.1222821
-4.649053	700,000	-0.1222821
-4.649053	71	-0.1222821
-4.531762	72	-0.1222821
-4.531762	74.9¢	-0.1222821
-4.419179	75	-0.1222821
-4.649053	750,000	-0.1222821
-4.649053	75th	-0.1222821
-4.649053	7:09	-0.1222821
-4.649053	7:19	-0.1222821
-4.419179	8	-0.1992728
-4.649053	8.1	-0.1222821
-4.649053	8.7 billion	-0.1222821
-3.940159	80	-0.3670199
-4.272236	80,000	-0.1222821
-4.419179	800	-0.1222821
-4.649053	800,000	-0.1222821
-4.531762	801	-0.1222821
-4.649053	81	-0.1222821
-4.649053	83	-0.1222821
-4.531762	84	-0.1222821
-4.649053	84,000	-0.1222821
-4.531762	85	-0.1222821
-4.649053	850,000	-0.1222821
-4.649053	88 million	-0.1222821
-4.649053	89	-0.1222821
-4.649053	89.4	-0.1222821
-4.649053	8 million	-0.1222821
-4.16264	9	-0.208894
-4.531762	9.95	-0.2435762
-4.531762	9/11	-0.1222821
-4.531762	90	-0.2435762
-4.649053	90,000	-0.1222821
-4.649053	900	-0.1222821
-4.649053	900 hours	-0.122282
-4.649053	91,000	-0.1222821
-3.6244	92	-0.6750438
-4.649053	92-year	-0.1222821
-4.531762	92 years	-0.1222821
-4.649053	93	-0.1222821
-4.649053	95	-0.1222821
-4.419179	96	-0.1222821
-4.649053	96 million	-0.1222821
-4.16264	99	-0.1668213
-4.649053	9:14	-0.1222821
-2.663568	:	-0.4144582
-2.748009	;	-0.3356763
-2.6008	</s>
-99	<s>	-1.111374
-2.29776	?	-1.639244
-4.16264	[	-0.2147707
-4.16264	]	-0.2164557
-3.302609	``	-0.1651925
-2.112289	a	-0.3737665
-4.531762	a.	-0.1222821
-4.16264	a.m.	-0.289575
-4.649053	abbotsford	-0.1222821
-4.531762	abbott	-0.1222821
-4.649053	abhor	-0.1222821
-4.419179	abilities	-0.1992729
-4.002453	ability	-0.2855224
-4.272236	abitibi	-0.1979226
-4.272236	abitibi-témiscamingue	-0.1625781
-3.88569	able	-0.7666963
-4.531762	ablonczy	-0.1992729
-4.649053	abolish	-0.1222821
-4.16264	aboriginal	-0.1590736
-2.555437	about	-0.4136497
-4.649053	about-face	-0.1222821
-4.16264	above	-0.1222821
-4.649053	above-mentioned	-0.1222821
-3.88569	abroad	-0.3740138
-4.649053	absence	-0.1222821
-4.649053	absences	-0.1222821
-4.419179	absent	-0.1222821
-4.419179	absolute	-0.1222821
-3.59722	absolutely	-0.1788785
-4.649053	absorb	-0.1222821
-4.649053	absurd	-0.1222821
-4.649053	abundant	-0.1222821
-3.940159	abuse	-0.177742
-4.649053	abuses	-0.1222821
-4.649053	acadie	-0.1222821
-4.649053	accede	-0.122282
-4.16264	accelerate	-0.2648693
-4.531762	accelerated	-0.1222821
-4.649053	accelerating	-0.1222821
-4.649053	accent	-0.1222821
-3.88569	accept	-0.314488
-3.837297	acceptable	-0.1668213
-4.649053	acceptance	-0.1222821
-4.16264	accepted	-0.1222821
-4.419179	accepting	-0.1222821
-4.649053	accepts	-0.1222821
-3.27666	access	-0.511389
-4.531762	accessible	-0.1222821
-4.419179	accident	-0.1787083
-4.649053	accidents	-0.1222821
-4.649053	acclaimed	-0.1222821
-4.649053	accolades	-0.1222821
-4.649053	accommodate	-0.1222821
-4.649053	accommodation	-0.122282
-4.649053	accommodations	-0.1222821
-4.272236	accompanied	-0.2435762
-4.531762	accompany	-0.1222821
-4.649053	accompanying	-0.1222821
-4.649053	accompli	-0.1222821
-4.531762	accomplish	-0.1222821
-4.649053	accomplished	-0.1222821
-4.649053	accomplishments	-0.1222821
-4.419179	accord	-0.1668213
-4.649053	accordance	-0.1222821
-4.16264	according	-0.5114238
-4.16264	accordingly	-0.270587
-4.649053	accords	-0.1222821
-4.075202	account	-0.1561301
-4.075202	accountability	-0.2228077
-3.940159	accountable	-0.1909298
-4.531762	accountant	-0.1222821
-4.272236	accountants	-0.2164557
-4.649053	accounted	-0.1222821
-4.16264	accounting	-0.1668213
-4.272236	accounts	-0.1979226
-4.649053	accrue	-0.122282
-4.531762	accumulate	-0.1222821
-4.272236	accumulated	-0.1222821
-4.531762	accumulating	-0.2435762
-3.940159	accurate	-0.314488
-4.649053	accurately	-0.1222821
-4.531762	accusations	-0.1222821
-4.272236	accused	-0.1787083
-4.075202	achieve	-0.1590736
-4.272236	achieved	-0.1222821
-4.419179	achievement	-0.1992729
-4.649053	achievements	-0.1222821
-4.649053	achieves	-0.1222821
-4.419179	achieving	-0.1992728
-4.649053	acid	-0.1222821
-4.16264	acknowledge	-0.2228077
-4.649053	acknowledged	-0.1222821
-4.649053	acknowledgement	-0.1222821
-4.531762	acknowledges	-0.2435762
-4.649053	acknowledging	-0.1222821
-4.649053	acknowledgment	-0.1222821
-4.531762	acoa	-0.1222821
-4.649053	acquiescence	-0.1222821
-4.419179	acquired	-0.1222821
-4.649053	acquiring	-0.1222821
-4.649053	acquisition	-0.1222821
-4.649053	acres	-0.1222821
-3.09425	across	-0.7419906
-3.166074	act	-0.4418932
-4.075202	acted	-0.1222821
-4.075202	acting	-0.1590736
-3.793761	action	-0.2442682
-3.793761	actions	-0.1388764
-4.649053	activation	-0.1222821
-3.940159	active	-0.1222821
-4.419179	actively	-0.1222821
-4.649053	activism	-0.1222821
-4.531762	activist	-0.1222821
-3.547486	activities	-0.1901346
-3.754193	activity	-0.2600465
-4.419179	acts	-0.1668213
-3.940159	actual	-0.1376699
-3.27666	actually	-0.1673772
-4.649053	actuarial	-0.1222821
-4.649053	actuary	-0.1222821
-4.649053	ad	-0.1222821
-4.649053	adam	-0.1222821
-4.272236	adams	-0.1787083
-4.649053	adapt	-0.1222821
-3.793761	add	-0.185019
-3.837297	added	-0.183509
-4.649053	addictions	-0.1222821
-4.272236	adding	-0.1787083
-4.531762	addition	-0.1222821
-3.462407	additional	-0.1561301
-4.649053	additionally	-0.1222821
-3.653395	address	-0.2219138
-3.684466	addressed	-0.2281155
-4.272236	addresses	-0.1222821
-4.16264	addressing	-0.2147707
-4.419179	adds	-0.1222821
-3.653395	adequate	-0.1638997
-4.16264	adequately	-0.1222821
-4.649053	adherence	-0.1222821
-4.531762	adjourn	-0.1222821
-4.531762	adjourned	-0.1222821
-4.419179	adjournment	-0.1787083
-4.649053	adjust	-0.1222821
-4.531762	adjustment	-0.1222821
-4.531762	adjustments	-0.1222821
-4.531762	administer	-0.1222821
-4.531762	administered	-0.1222821
-4.531762	administers	-0.2435762
-4.075202	administration	-0.1992729
-4.16264	administrative	-0.1222821
-4.531762	administrator	-0.1992728
-4.419179	administrators	-0.1222821
-4.531762	admirable	-0.1222821
-4.649053	admiration	-0.1222821
-4.649053	admired	-0.1222821
-4.531762	admission	-0.1222821
-3.88569	admit	-0.3825709
-4.531762	admitted	-0.1222821
-4.649053	admitting	-0.1222821
-4.531762	adolescents	-0.2435762
-4.272236	adopt	-0.3382455
-3.88569	adopted	-0.1590736
-4.531762	adopting	-0.1222821
-4.649053	adoption	-0.1222821
-4.649053	adq	-0.1222821
-4.649053	adrienne	-0.1222821
-4.075202	adult	-0.2420811
-4.531762	adults	-0.1222821
-4.272236	advance	-0.1222821
-4.649053	advanced	-0.1222821
-4.531762	advancement	-0.1222821
-4.649053	advances	-0.1222821
-4.649053	advancing	-0.1222821
-3.793761	advantage	-0.2780506
-4.531762	advantageous	-0.1222821
-4.16264	advantages	-0.2147707
-4.649053	adventure	-0.1222821
-4.649053	adverse	-0.1222821
-4.649053	adversely	-0.1222821
-4.531762	advertise	-0.1222821
-4.649053	advertisement	-0.1222821
-4.649053	advertisements	-0.1222821
-4.075202	advertising	-0.1862763
-3.940159	advice	-0.1985972
-4.272236	advise	-0.2413355
-4.16264	advised	-0.1668213
-4.649053	advisement	-0.1222821
-4.649053	advising	-0.1222821
-4.075202	advisory	-0.1590736
-4.649053	advocacy	-0.1222821
-4.531762	advocate	-0.1222821
-4.272236	advocated	-0.1222821
-4.649053	advocates	-0.1222821
-4.649053	advocating	-0.1222821
-4.649053	aerospace	-0.1222821
-4.419179	affair	-0.2164557
-3.793761	affairs	-0.2334979
-3.940159	affect	-0.3522766
-3.684466	affected	-0.2368464
-3.837297	affecting	-0.3040779
-4.272236	affects	-0.1222821
-4.649053	affirmatively	-0.1222821
-4.16264	afford	-0.153623
-4.419179	affordable	-0.1992729
-4.531762	afforded	-0.1222821
-4.649053	affords	-0.1222821
-4.075202	afghanistan	-0.2193677
-4.649053	aficionado	-0.1222821
-4.649053	afloat	-0.1222821
-4.649053	afoot	-0.1222821
-4.531762	afraid	-0.1222821
-4.419179	africa	-0.1222821
-3.004824	after	-0.3148425
-4.531762	afternoon	-0.1222821
-4.531762	afterward	-0.1222821
-4.649053	afterwards	-0.1222821
-3.228998	again	-0.3504647
-3.156419	against	-0.2919858
-3.837297	age	-0.2212975
-4.272236	agencies	-0.1222821
-3.717932	agency	-0.2080641
-4.419179	agenda	-0.1222821
-4.649053	agents	-0.1222821
-4.419179	ages	-0.1222821
-4.419179	aggravated	-0.289575
-4.16264	aggravating	-0.2413355
-4.419179	aging	-0.1992729
-4.531762	agitated	-0.1222821
-3.837297	ago	-0.287315
-3.547486	agree	-0.5285772
-3.571641	agreed	-0.3965569
-4.531762	agreeing	-0.2435762
-3.653395	agreement	-0.3429112
-4.075202	agreements	-0.1222821
-4.272236	agrees	-0.1787083
-4.649053	agri-food	-0.1222821
-4.419179	agricultural	-0.1787083
-4.075202	agriculture	-0.153623
-3.717932	ahead	-0.2863876
-4.649053	ahmad	-0.1222821
-4.075202	aid	-0.1222821
-4.531762	aids	-0.1222821
-4.531762	aim	-0.1222821
-4.531762	aimed	-0.2435762
-4.649053	aims	-0.1222821
-3.59722	air	-0.4380882
-4.649053	airborne	-0.1222821
-4.649053	airbus	-0.1222821
-3.88569	aircraft	-0.1740977
-4.649053	airframe	-0.1222821
-4.649053	airframes	-0.1222821
-4.649053	airlift	-0.1222821
-4.419179	airline	-0.1787083
-4.649053	airlines	-0.1222821
-4.649053	airplane	-0.1222821
-4.419179	airport	-0.1222821
-4.272236	airports	-0.1222821
-4.649053	ajax	-0.1222821
-4.649053	al	-0.1222821
-4.649053	alan	-0.1222821
-4.649053	alarm	-0.1222821
-4.419179	alaska	-0.1222821
-4.531762	alberni	-0.153623
-4.649053	albert	-0.1222821
-3.88569	alberta	-0.3189018
-4.16264	albertans	-0.1668213
-4.649053	albino	-0.1222821
-4.649053	alcock	-0.1222821
-3.793761	alcohol	-0.1388764
-4.649053	alcoholic	-0.1222821
-4.649053	aldershot	-0.1222821
-4.649053	alexa	-0.1222821
-4.649053	alice	-0.1222821
-4.649053	align	-0.122282
-4.649053	alike	-0.1222821
-4.419179	alive	-0.1222821
-2.705426	all	-0.3739409
-4.649053	allan	-0.1222821
-4.531762	allard	-0.1222821
-4.649053	allay	-0.1222821
-4.531762	allegation	-0.1222821
-4.272236	allegations	-0.1222821
-4.531762	alleged	-0.1222821
-4.649053	allegorically	-0.1222821
-4.649053	alleviate	-0.1222821
-4.649053	alleviating	-0.1222821
-4.649053	alley	-0.1222821
-4.419179	alliance	-0.1842209
-4.531762	allies	-0.1590736
-4.531762	allocate	-0.1787083
-4.419179	allocated	-0.289575
-4.649053	allocating	-0.1222821
-4.531762	allocation	-0.2435762
-4.649053	allocations	-0.1222821
-4.649053	allotted	-0.1222821
-3.754193	allow	-0.2162935
-4.531762	allowable	-0.1222821
-4.075202	allowance	-0.1586628
-4.272236	allowances	-0.1668213
-3.88569	allowed	-0.1996893
-4.075202	allowing	-0.1590736
-3.940159	allows	-0.1720642
-4.531762	alluded	-0.2435762
-4.649053	alludes	-0.122282
-4.649053	ally	-0.1222821
-3.547486	almost	-0.1222821
-3.837297	alone	-0.2333593
-3.547486	along	-0.4184909
-4.649053	alouette	-0.1222821
-4.649053	alpha	-0.1222821
-3.359678	already	-0.161296
-3.039876	also	-0.173353
-4.16264	alternative	-0.1590736
-4.531762	alternatives	-0.1222821
-4.531762	alters	-0.1222821
-4.531762	although	-0.1638997
-4.531762	altogether	-0.1222821
-3.462407	always	-0.1709035
-4.075202	am	-0.1301928
-4.649053	am.	-0.1222821
-4.649053	amateur	-0.1222821
-4.649053	amazement	-0.1222821
-4.649053	amazing	-0.1222821
-4.649053	ambassador	-0.1222821
-4.649053	ambassadors	-0.1222821
-4.649053	ambiguities	-0.122282
-4.649053	ambiguity	-0.122282
-4.649053	ambiguous	-0.1222821
-4.16264	amend	-0.177742
-4.16264	amended	-0.1901346
-4.531762	amending	-0.2435762
-3.837297	amendment	-0.1590736
-3.27666	amendments	-0.2958434
-4.272236	amends	-0.2413355
-4.16264	america	-0.1590736
-3.88569	american	-0.1471407
-4.531762	americans	-0.122282
-4.649053	amidst	-0.1222821
-4.531762	ammunition	-0.2435762
-4.531762	amnesty	-0.1222821
-3.653395	among	-0.174276
-3.524603	amount	-0.4706042
-4.531762	amounted	-0.2435762
-3.684466	amounts	-0.2749738
-4.649053	amused	-0.1222821
-2.587716	an	-0.2955154
-4.419179	analyses	-0.1222821
-4.002453	analysis	-0.153623
-4.649053	analysts	-0.1222821
-4.531762	analyze	-0.2435762
-4.531762	analyzed	-0.1222821
-4.649053	analyzing	-0.1222821
-4.531762	ancaster	-0.2435762
-1.623247	and	-0.4006654
-4.419179	and/or	-0.1222821
-4.649053	anders	-0.1222821
-4.16264	anderson	-0.5114238
-4.649053	andrew	-0.1222821
-4.649053	andré	-0.1222821
-4.649053	andtwelve	-0.1222821
-4.531762	andy	-0.1222821
-4.649053	anecdotal	-0.1222821
-4.531762	angle	-0.1222821
-4.272236	animal	-0.1222821
-4.649053	animals	-0.1222821
-4.649053	anita	-0.1222821
-4.531762	anne	-0.1222821
-3.88569	anniversary	-0.305804
-4.531762	announce	-0.1222821
-3.59722	announced	-0.1735092
-4.272236	announcement	-0.1536229
-4.649053	announces	-0.1222821
-4.419179	annual	-0.1222821
-4.531762	annually	-0.1222821
-4.649053	annum	-0.1222821
-4.419179	anomaly	-0.1222821
-3.264246	another	-0.1744148
-3.59722	answer	-0.2705958
-3.837297	answered	-0.1822236
-4.531762	answering	-0.1222821
-4.272236	answers	-0.1668213
-4.649053	antarctic	-0.1222821
-4.649053	anti-ballistic	-0.1222821
-4.649053	anti-depressant	-0.1222821
-4.649053	anti-poverty	-0.1222821
-4.649053	anti-scab	-0.1222821
-4.531762	anti-semitic	-0.1222821
-4.649053	anti-semitism	-0.1222821
-4.649053	anti-terrorist	-0.1222821
-4.649053	anti-tobacco	-0.1222821
-4.649053	antibiotics	-0.122282
-4.649053	anticipate	-0.1222821
-4.531762	anticipated	-0.1222821
-4.649053	antigonish	-0.1222821
-4.531762	antiquated	-0.2435762
-4.531762	anxiety	-0.2435762
-4.649053	anxious	-0.122282
-2.966186	any	-0.1897162
-3.88569	anybody	-0.2855223
-4.649053	anymore	-0.1222821
-3.547486	anyone	-0.2672808
-3.482166	anything	-0.255485
-4.272236	anyway	-0.1787083
-3.837297	anywhere	-0.1901346
-4.531762	apart	-0.1222821
-4.649053	apathy	-0.1222821
-4.649053	apf	-0.1222821
-4.649053	apollo	-0.1222821
-4.649053	apologies	-0.122282
-4.649053	apologist	-0.1222821
-4.531762	apologize	-0.1222821
-4.649053	apoplectic	-0.1222821
-4.649053	apostle	-0.1222821
-4.649053	appalled	-0.1222821
-4.649053	appalling	-0.1222821
-4.419179	apparent	-0.1222821
-4.419179	apparently	-0.1222821
-3.793761	appeal	-0.22342
-4.649053	appealed	-0.122282
-4.649053	appeals	-0.1222821
-4.16264	appear	-0.153623
-4.075202	appeared	-0.2648694
-4.649053	appearing	-0.1222821
-4.075202	appears	-0.2648694
-4.419179	applaud	-0.1222821
-4.649053	applauded	-0.1222821
-4.649053	apples	-0.1222821
-3.940159	applicable	-0.2442682
-4.649053	applicants	-0.1222821
-4.272236	application	-0.153623
-4.531762	applications	-0.1222821
-4.16264	applied	-0.1720643
-4.531762	applies	-0.1222821
-3.837297	apply	-0.2560596
-4.531762	applying	-0.2435762
-4.649053	appoint	-0.1222821
-4.16264	appointed	-0.1874027
-4.649053	appointing	-0.1222821
-4.002453	appreciate	-0.1983722
-4.649053	appreciated	-0.1222821
-4.649053	apprehended	-0.1222821
-4.649053	apprised	-0.1222821
-3.571641	approach	-0.3048275
-4.531762	approached	-0.1222821
-4.649053	approaches	-0.1222821
-4.531762	approaching	-0.1222821
-3.653395	appropriate	-0.1526584
-4.531762	appropriately	-0.1222821
-4.649053	appropriateness	-0.1222821
-3.88569	approval	-0.1668213
-4.649053	approvals	-0.122282
-4.419179	approve	-0.1222821
-4.272236	approved	-0.1590736
-3.653395	approximately	-0.2237609
-4.16264	april	-0.1222821
-4.002453	arar	-0.2433604
-4.531762	arbitrarily	-0.1222821
-4.531762	arbitrary	-0.1222821
-4.649053	archipelago	-0.1222821
-4.419179	archives	-0.1668213
-4.531762	archivist	-0.1222821
-4.419179	archivists	-0.122282
-4.531762	arctic	-0.1787083
-4.649053	ardent	-0.1222821
-2.358693	are	-0.2962038
-3.359678	area	-0.3935624
-3.571641	areas	-0.3444256
-4.649053	argentina	-0.1222821
-4.002453	argue	-0.1712182
-4.531762	argued	-0.2435762
-4.649053	arguing	-0.1222821
-3.940159	argument	-0.1663196
-4.075202	arguments	-0.1222821
-4.649053	arid	-0.1222821
-4.419179	arise	-0.1992728
-4.649053	arisen	-0.1222821
-4.649053	arises	-0.1222821
-4.419179	arising	-0.1992728
-4.531762	arm	-0.2435762
-4.649053	armchair	-0.1222821
-4.272236	armed	-0.3382455
-4.649053	arming	-0.1222821
-4.649053	armour	-0.1222821
-4.272236	armoured	-0.2413355
-4.075202	arms	-0.1874027
-4.16264	army	-0.1402883
-3.102605	around	-0.3756417
-4.419179	arrangement	-0.1222821
-4.002453	arrangements	-0.1862762
-4.649053	arranging	-0.1222821
-4.16264	arrest	-0.1222821
-4.419179	arrested	-0.1222821
-4.531762	arresting	-0.1222821
-4.649053	arrival	-0.1222821
-4.649053	arrivals	-0.1222821
-4.531762	arrive	-0.2435762
-4.531762	arrived	-0.1222821
-4.649053	arriving	-0.1222821
-4.531762	arrogance	-0.1222821
-4.649053	art	-0.1222821
-4.649053	arthritis	-0.1222821
-3.837297	article	-0.2047445
-4.531762	articles	-0.1222821
-4.649053	articulated	-0.1222821
-4.649053	artificially	-0.1222821
-4.649053	artistic	-0.1222821
-4.649053	arts	-0.1222821
-4.649053	artworks	-0.1222821
-2.279634	as	-0.4862654
-4.649053	ascribe	-0.1222821
-4.272236	ashamed	-0.1787083
-4.649053	asian	-0.1222821
-4.002453	aside	-0.1464603
-3.571641	ask	-0.2663438
-3.344692	asked	-0.3087303
-3.793761	asking	-0.2275278
-4.272236	asks	-0.122282
-3.6244	aspect	-0.3367835
-3.793761	aspects	-0.3233109
-4.419179	asper	-0.1495794
-4.649053	assad	-0.1222821
-4.272236	assadourian	-0.1668213
-4.649053	assault	-0.1222821
-4.531762	asselin	-0.1222821
-4.649053	assembled	-0.1222821
-4.531762	assembly	-0.1222821
-4.649053	assent	-0.1222821
-4.649053	assented	-0.122282
-4.16264	assess	-0.2648694
-4.531762	assessed	-0.1222821
-4.649053	assessing	-0.1222821
-4.272236	assessment	-0.1222821
-4.649053	assessments	-0.1222821
-4.649053	asset	-0.1222821
-3.571641	assets	-0.2629758
-4.419179	assigned	-0.1992729
-4.649053	assiniboia	-0.1222821
-4.16264	assist	-0.1922264
-3.59722	assistance	-0.2308859
-4.649053	assistant	-0.122282
-4.419179	assisted	-0.1992729
-4.419179	assisting	-0.1222821
-4.649053	associate	-0.1222821
-3.940159	associated	-0.7155437
-3.837297	association	-0.2123642
-4.419179	associations	-0.1668213
-4.16264	assume	-0.2420811
-4.649053	assumes	-0.1222821
-4.649053	assuming	-0.1222821
-4.649053	assumption	-0.1222821
-4.649053	assurance	-0.1222821
-4.272236	assurances	-0.1787083
-4.419179	assure	-0.1979226
-4.272236	assured	-0.2413355
-4.649053	assuring	-0.1222821
-4.649053	asthma	-0.1222821
-4.649053	astounded	-0.1222821
-4.649053	astounding	-0.122282
-4.649053	astray	-0.1222821
-4.649053	astronauts	-0.1222821
-4.649053	astrophysicist	-0.1222821
-4.649053	asylum	-0.1222821
-2.363281	at	-0.5289943
-4.649053	ate	-0.1222821
-4.649053	athena	-0.1222821
-4.002453	atlantic	-0.2441297
-4.531762	atmosphere	-0.2435762
-4.649053	atmospheric	-0.1222821
-4.649053	atomic	-0.1222821
-4.531762	attached	-0.1222821
-4.649053	attaches	-0.1222821
-4.649053	attaching	-0.1222821
-4.419179	attack	-0.1222821
-4.649053	attacked	-0.1222821
-4.649053	attacking	-0.1222821
-4.075202	attacks	-0.1536229
-4.16264	attempt	-0.5114238
-4.649053	attempted	-0.122282
-4.649053	attempting	-0.122282
-4.272236	attempts	-0.2147707
-4.649053	attend	-0.1222821
-4.649053	attendance	-0.1222821
-4.16264	attended	-0.153623
-4.649053	attending	-0.1222821
-4.649053	attends	-0.1222821
-3.653395	attention	-0.2595283
-4.649053	attentive	-0.1222821
-4.649053	attest	-0.122282
-3.940159	attitude	-0.1720643
-4.649053	attitudes	-0.1222821
-4.272236	attorney	-0.1787083
-4.419179	attract	-0.1222821
-4.649053	attracted	-0.1222821
-4.649053	attractive	-0.1222821
-4.649053	attributed	-0.122282
-4.649053	attributes	-0.122282
-4.649053	attributing	-0.122282
-4.649053	auberge	-0.1222821
-4.531762	auction	-0.1222821
-3.88569	audit	-0.1660689
-4.649053	audited	-0.1222821
-4.419179	auditing	-0.1222821
-3.88569	auditor	-0.3160447
-4.16264	auditors	-0.1668213
-4.649053	audits	-0.1222821
-4.419179	august	-0.1222821
-4.649053	augustine	-0.1222821
-4.649053	aurora	-0.1222821
-4.419179	australia	-0.1668213
-4.531762	australian	-0.1222821
-4.649053	authored	-0.1222821
-3.837297	authorities	-0.1514617
-4.002453	authority	-0.2441297
-4.16264	authorization	-0.122282
-4.649053	authorize	-0.1222821
-4.531762	authorized	-0.1222821
-4.649053	authorizing	-0.1222821
-4.419179	auto	-0.1222821
-4.649053	autographed	-0.1222821
-4.649053	automatically	-0.1222821
-4.649053	automobiles	-0.1222821
-4.649053	automotive	-0.1222821
-4.649053	auxiliary	-0.1222821
-4.649053	availability	-0.1222821
-3.482166	available	-0.3051232
-4.649053	availablemay	-0.1222821
-4.649053	avalanches	-0.1222821
-4.649053	avenue	-0.122282
-4.002453	average	-0.143981
-4.649053	averages	-0.1222821
-4.649053	avionics	-0.1222821
-4.16264	avoid	-0.1720643
-4.419179	avoidable	-0.1222821
-4.649053	avoided	-0.1222821
-4.649053	avoiding	-0.1222821
-4.649053	awaits	-0.1222821
-4.002453	award	-0.1222821
-4.075202	awarded	-0.143981
-4.419179	awards	-0.1222821
-3.6244	aware	-0.5743045
-3.793761	awareness	-0.2831754
-3.482166	away	-0.2859821
-4.649053	awe	-0.1222821
-4.531762	awful	-0.1222821
-4.649053	awfully	-0.1222821
-4.649053	axis	-0.1222821
-4.649053	aylwin	-0.1222821
-4.075202	b.c.	-0.1740977
-4.531762	babs	-0.1222821
-4.649053	baby	-0.1222821
-4.419179	bachand	-0.2895751
-3.102605	back	-0.3668034
-4.649053	backbench	-0.1222821
-4.649053	backbencher	-0.1222821
-4.649053	backbone	-0.1222821
-4.649053	backed	-0.1222821
-4.419179	background	-0.122282
-4.649053	backing	-0.1222821
-4.649053	backlog	-0.1222821
-4.649053	backs	-0.1222821
-3.940159	bad	-0.1495794
-4.531762	badly	-0.1222821
-4.649053	bag	-0.1222821
-4.272236	bagnell	-0.2147707
-4.419179	bagotville	-0.1787083
-4.649053	bahamas	-0.1222821
-4.649053	baie-comeau	-0.1222821
-4.649053	baie-james	-0.1222821
-4.272236	bailey	-0.1590736
-4.649053	baker	-0.1222821
-4.272236	bakopanos	-0.2413355
-3.940159	balance	-0.1885417
-4.531762	balanced	-0.122282
-4.531762	balances	-0.1222821
-4.531762	balancing	-0.1222821
-4.649053	baling	-0.1222821
-4.649053	ball	-0.1222821
-4.649053	ballard	-0.1222821
-4.531762	ballistic	-0.1992729
-4.649053	balloons	-0.122282
-4.649053	ban	-0.1222821
-4.649053	band	-0.1222821
-4.649053	band-aid	-0.1222821
-4.272236	bank	-0.1619008
-4.272236	banking	-0.1787083
-4.272236	bankrupt	-0.1712182
-4.419179	bankruptcies	-0.1222821
-3.6244	bankruptcy	-0.3352247
-4.075202	banks	-0.2315272
-4.649053	banned	-0.1222821
-4.531762	banning	-0.1222821
-4.649053	barachois	-0.1222821
-4.531762	barbados	-0.1222821
-4.649053	barbara	-0.1222821
-4.649053	bargain	-0.1222821
-4.531762	bargaining	-0.1222821
-4.649053	bargains	-0.1222821
-4.649053	barging	-0.1222821
-4.649053	barley	-0.1222821
-4.531762	barnes	-0.2435762
-4.649053	barracks	-0.1222821
-4.649053	barrel	-0.1222821
-4.531762	barrette	-0.1222821
-4.649053	barrier	-0.1222821
-4.649053	barring	-0.1222821
-4.649053	bars	-0.1222821
-4.649053	bas-richelieu	-0.1222821
-3.462407	base	-0.2114497
-3.59722	based	-0.4643356
-3.88569	bases	-0.1668213
-3.88569	basic	-0.1222821
-4.002453	basically	-0.1464602
-4.649053	basics	-0.1222821
-4.649053	basing	-0.1222821
-3.684466	basis	-0.2516791
-4.649053	basques	-0.1222821
-4.649053	bastions	-0.1222821
-4.531762	bat	-0.1222821
-4.649053	batch	-0.1222821
-4.649053	bathrooms	-0.1222821
-4.649053	bathurst	-0.1222821
-4.531762	battalion	-0.1222821
-4.649053	battalions	-0.122282
-4.649053	battered	-0.1222821
-4.531762	battle	-0.1222821
-4.649053	battles	-0.1222821
-4.649053	battling	-0.1222821
-4.649053	bavarian	-0.1222821
-4.16264	bay	-0.1222821
-4.531762	bdc	-0.1222821
-2.919495	be	-0.2662837
-4.419179	beach	-0.1222821
-4.002453	bear	-0.1720643
-4.649053	bearing	-0.1222821
-4.649053	beat	-0.1222821
-4.649053	beatified	-0.1222821
-4.531762	beating	-0.1222821
-4.649053	beaulieu	-0.1222821
-4.649053	beauséjour	-0.1222821
-4.531762	beautiful	-0.1222821
-4.419179	beauty	-0.1222821
-3.837297	became	-0.2117868
-2.557836	because	-0.6780831
-3.6244	become	-0.1635311
-4.002453	becomes	-0.1464602
-4.16264	becoming	-0.153623
-4.649053	bed	-0.1222821
-4.649053	bedrock	-0.1222821
-4.419179	beef	-0.1668213
-4.649053	beefed	-0.1222821
-3.425398	been	-0.1671667
-4.531762	beerenfenger	-0.2435762
-4.649053	beexamined	-0.1222821
-4.649053	befallen	-0.1222821
-2.903204	before	-0.4584561
-4.649053	beforehand	-0.1222821
-4.531762	began	-0.1222821
-4.649053	begging	-0.1222821
-3.940159	begin	-0.1985972
-4.002453	beginning	-0.2054999
-4.649053	begins	-0.122282
-4.649053	begs	-0.1222821
-4.531762	begun	-0.2435762
-4.272236	behalf	-0.1222821
-4.649053	behave	-0.1222821
-4.649053	behaved	-0.1222821
-4.531762	behaves	-0.1222821
-4.531762	behaving	-0.1222821
-3.88569	behaviour	-0.1842209
-3.462407	behind	-0.2758892
-4.649053	behold	-0.1222821
-4.649053	beholden	-0.122282
-4.649053	beijing	-0.1222821
-2.985075	being	-0.188087
-4.649053	beings	-0.1222821
-4.649053	beiseker	-0.1222821
-4.649053	belabour	-0.1222821
-4.531762	belatedly	-0.1222821
-4.649053	beleaguered	-0.1222821
-4.272236	belief	-0.1787083
-4.419179	beliefs	-0.1787083
-3.502867	believe	-0.3264976
-4.649053	believed	-0.1222821
-3.940159	believes	-0.3160447
-4.531762	believing	-0.2435762
-4.649053	belittle	-0.1222821
-4.649053	belledune	-0.1222821
-4.649053	bellemare	-0.1222821
-4.531762	bells	-0.1222821
-4.649053	belonged	-0.122282
-4.531762	belonging	-0.1222821
-4.531762	belongs	-0.2435762
-4.649053	beloved	-0.1222821
-4.272236	below	-0.1979226
-4.649053	belt	-0.1222821
-4.531762	benches	-0.1222821
-4.531762	beneficial	-0.1222821
-4.531762	beneficiaries	-0.1222821
-4.649053	beneficiary	-0.1222821
-3.344692	benefit	-0.2974234
-4.419179	benefited	-0.1787083
-4.531762	benefiting	-0.1222821
-3.217857	benefits	-0.344447
-4.649053	benevolence	-0.1222821
-4.531762	benign	-0.1222821
-4.16264	bennett	-0.1536229
-4.419179	benoit	-0.122282
-4.649053	benoît	-0.1222821
-4.649053	bent	-0.1222821
-4.272236	bergeron	-0.1787083
-4.649053	berlin	-0.1222821
-4.649053	bernard	-0.1222821
-4.649053	berthier	-0.1222821
-4.531762	bertram	-0.2435762
-4.419179	bertrand	-0.2413355
-4.649053	beside	-0.1222821
-3.717932	best	-0.178973
-4.649053	bestowed	-0.1222821
-4.531762	betrayal	-0.2435762
-4.649053	betrayed	-0.1222821
-3.240432	better	-0.2140406
-4.649053	betty	-0.1222821
-3.102605	between	-0.2599108
-4.649053	bev	-0.1222821
-4.649053	beverages	-0.1222821
-4.649053	bevilacqua	-0.1222821
-3.59722	beyond	-0.2440793
-4.649053	bia	-0.1222821
-4.649053	bias	-0.1222821
-4.649053	bid	-0.1222821
-4.649053	bidding	-0.1222821
-4.649053	bids	-0.1222821
-3.940159	big	-0.1416398
-4.649053	biggar	-0.1222821
-4.531762	bigger	-0.1222821
-4.649053	biggest	-0.1222821
-4.531762	bigotry	-0.1222821
-4.419179	bigras	-0.1992729
-4.531762	bike	-0.1222821
-2.87734	bill	-0.3728979
-3.186052	billion	-0.3365842
-4.649053	billion-plus	-0.1222821
-3.793761	billions	-0.3849852
-3.837297	bills	-0.1590736
-4.649053	bill c-37	-0.1222821
-4.649053	bill c-48	-0.1222821
-4.649053	binder	-0.1222821
-4.649053	binding	-0.1222821
-4.419179	binet	-0.1222821
-4.649053	bio-fuels	-0.1222821
-4.16264	biochem	-0.1862763
-4.649053	biological	-0.1222821
-4.649053	biomass	-0.1222821
-4.649053	biometric	-0.1222821
-4.649053	biometrics	-0.122282
-4.531762	biotechnology	-0.1222821
-4.649053	bipolar	-0.1222821
-4.272236	birth	-0.2413355
-4.075202	bit	-0.1416398
-4.531762	bits	-0.1222821
-4.649053	bivouacked	-0.1222821
-4.272236	black	-0.1787083
-4.649053	blacked	-0.1222821
-4.649053	blackest	-0.1222821
-4.649053	blacklisted	-0.1222821
-4.649053	blackmailing	-0.1222821
-4.419179	blackout	-0.1992729
-4.649053	blackstrap	-0.1222821
-4.531762	blaikie	-0.1222821
-4.649053	blainville	-0.1222821
-4.649053	blame	-0.1222821
-4.649053	blameworthy	-0.1222821
-4.649053	blaming	-0.1222821
-4.649053	blanche	-0.122282
-4.649053	blanchette	-0.1222821
-4.649053	blanket	-0.1222821
-4.649053	blatant	-0.1222821
-4.531762	blatantly	-0.1222821
-4.649053	bled	-0.1222821
-4.649053	blessed	-0.1222821
-4.649053	blew	-0.1222821
-3.940159	blind	-0.1922264
-4.075202	blindness	-0.1222821
-4.649053	blink	-0.1222821
-4.649053	blithely	-0.1222821
-4.419179	bloc	-0.130832
-4.531762	block	-0.1222821
-4.531762	blocked	-0.1222821
-4.649053	blocks	-0.1222821
-4.649053	blondin	-0.1222821
-4.649053	blondin-andrew	-0.1222821
-4.419179	blood	-0.1222821
-4.531762	bloom	-0.1222821
-4.649053	blossoming	-0.1222821
-4.419179	blow	-0.289575
-4.649053	blowers	-0.1222821
-4.272236	bmo	-0.2413355
-3.653395	board	-0.1893843
-4.649053	boarding	-0.1222821
-4.531762	boards	-0.1222821
-4.649053	boasts	-0.1222821
-4.649053	bob	-0.1222821
-4.649053	bode	-0.1222821
-4.419179	bodies	-0.1222821
-4.002453	body	-0.1787083
-4.649053	bogeyman	-0.1222821
-4.649053	bogus	-0.1222821
-4.649053	boils	-0.1222821
-4.649053	bold	-0.1222821
-4.272236	bombardier	-0.1222821
-4.649053	bombing	-0.1222821
-4.649053	bonavista	-0.1222821
-4.649053	bonds	-0.1222821
-4.649053	bone	-0.1222821
-4.649053	bones	-0.1222821
-4.419179	bonin	-0.1787083
-4.531762	bonnie	-0.1222821
-4.531762	bonuses	-0.1222821
-4.649053	bonwick	-0.1222821
-4.272236	book	-0.1787083
-4.531762	books	-0.1668213
-4.419179	boondoggles	-0.1222821
-4.649053	boost	-0.1222821
-4.649053	borden	-0.1222821
-3.793761	border	-0.153623
-4.419179	borders	-0.1787083
-4.649053	borja	-0.1222821
-4.419179	born	-0.1222821
-4.531762	borne	-0.1222821
-4.419179	borotsik	-0.1222821
-4.419179	bosnia	-0.1668213
-4.649053	bosnians	-0.1222821
-3.375199	both	-0.2235041
-4.649053	bother	-0.122282
-4.531762	bothers	-0.2435762
-4.649053	bottle	-0.1222821
-4.531762	bottom	-0.1668213
-4.272236	boudria	-0.1590736
-4.419179	bought	-0.1222821
-4.649053	bound	-0.1222821
-4.531762	boundaries	-0.1222821
-4.649053	boundary	-0.1222821
-4.419179	bourgeois	-0.1222821
-4.531762	bovine	-0.2435762
-4.649053	bowl	-0.1222821
-4.649053	bowser	-0.1222821
-4.649053	box	-0.1222821
-4.649053	boyden	-0.1222821
-4.649053	boys	-0.1222821
-4.649053	bq	-0.1222821
-4.649053	bradshaw	-0.1222821
-4.649053	brag	-0.1222821
-4.419179	bragg	-0.1222821
-4.649053	bragging	-0.1222821
-4.649053	bramalea	-0.1222821
-4.649053	bramley	-0.1222821
-4.531762	brampton	-0.2435762
-4.649053	branch	-0.1222821
-4.531762	branches	-0.1222821
-4.531762	brand	-0.1222821
-4.272236	brandon	-0.4145138
-4.649053	brave	-0.1222821
-4.649053	bravo	-0.1222821
-4.649053	brazil	-0.1222821
-4.002453	bre-x	-0.1222821
-4.531762	breach	-0.1222821
-4.649053	breaching	-0.1222821
-4.649053	breadth	-0.1222821
-4.16264	break	-0.1419629
-4.649053	breakfast	-0.1222821
-4.649053	breaking	-0.1222821
-4.002453	breaks	-0.1985972
-4.649053	breakthroughs	-0.1222821
-4.419179	breast	-0.289575
-4.649053	breath	-0.1222821
-4.649053	breathalyzer	-0.1222821
-4.531762	breathe	-0.1222821
-4.272236	breitkreuz	-0.1668213
-4.649053	brevity	-0.1222821
-4.531762	brian	-0.1222821
-4.531762	bridges	-0.1222821
-4.075202	brief	-0.1222821
-4.531762	briefed	-0.1222821
-4.649053	briefing	-0.1222821
-4.531762	briefings	-0.1222821
-4.075202	briefly	-0.153623
-4.649053	brigade	-0.1222821
-4.649053	brightest	-0.1222821
-4.649053	brilliant	-0.122282
-3.524603	bring	-0.2753997
-3.754193	bringing	-0.226221
-4.16264	brings	-0.1979226
-4.649053	brison	-0.1222821
-3.684466	british	-0.5172694
-4.419179	broad	-0.1222821
-4.649053	broadbent	-0.1222821
-4.649053	broaden	-0.1222821
-4.649053	broadened	-0.1222821
-4.531762	broader	-0.1222821
-4.649053	broadly	-0.1222821
-4.531762	brockhouse	-0.1222821
-4.419179	broke	-0.122282
-4.419179	broken	-0.1222821
-4.649053	brokerage	-0.1222821
-4.649053	brokerages	-0.1222821
-4.649053	brokers	-0.1222821
-4.649053	bronze	-0.1222821
-4.649053	brossard	-0.1222821
-4.531762	brother	-0.1222821
-4.649053	brothers	-0.1222821
-3.684466	brought	-0.2324772
-4.649053	broughton	-0.1222821
-4.649053	brouhaha	-0.1222821
-4.649053	brouillet	-0.1222821
-4.419179	brown	-0.1222821
-4.649053	bruce	-0.1222821
-4.649053	bruised	-0.1222821
-4.649053	brunswick	-0.1222821
-4.649053	brunt	-0.1222821
-4.649053	brutal	-0.1222821
-4.531762	bryden	-0.1222821
-4.649053	bryon	-0.1222821
-4.16264	bse	-0.177742
-4.649053	bubble	-0.1222821
-4.649053	buck	-0.1222821
-3.375199	budget	-0.3231985
-4.272236	budgetary	-0.1222821
-4.16264	budgets	-0.1874027
-4.649053	buffaloing	-0.1222821
-4.16264	build	-0.1590736
-4.649053	builder	-0.1222821
-3.940159	building	-0.1222821
-4.419179	builds	-0.1222821
-3.88569	built	-0.183509
-4.649053	built-in	-0.1222821
-4.649053	bulk	-0.1222821
-4.649053	bulletin	-0.1222821
-4.272236	bullets	-0.1222821
-4.649053	bulte	-0.1222821
-4.531762	bunch	-0.2435762
-4.649053	bundle	-0.1222821
-4.649053	bungled	-0.1222821
-4.272236	burden	-0.1720643
-4.649053	burdened	-0.1222821
-4.649053	burdening	-0.1222821
-4.649053	burdens	-0.1222821
-4.16264	bureaucracy	-0.2099322
-4.649053	bureaucrat	-0.1222821
-4.002453	bureaucratic	-0.122282
-4.272236	bureaucrats	-0.1222821
-4.531762	burlington	-0.1222821
-4.649053	burn	-0.1222821
-4.649053	burned	-0.1222821
-4.649053	burners	-0.1222821
-4.002453	burning	-0.208894
-4.649053	burns	-0.1222821
-4.649053	burrow	-0.122282
-4.649053	burst	-0.1222821
-4.272236	burton	-0.1787083
-4.649053	buses	-0.1222821
-4.419179	bush	-0.1222821
-3.344692	business	-0.1804771
-4.649053	business-as-usual	-0.1222821
-3.502867	businesses	-0.2582489
-4.419179	businessman	-0.1222821
-4.649053	businessmen	-0.1222821
-4.419179	busy	-0.1222821
-2.729756	but	-0.3051349
-4.649053	butcher	-0.1222821
-4.002453	buy	-0.1388764
-4.419179	buying	-0.122282
-4.649053	buyouts	-0.1222821
-4.649053	buzzword	-0.1222821
-2.224902	by	-0.4211031
-4.649053	byelection	-0.1222821
-4.649053	bypass	-0.1222821
-4.531762	byproduct	-0.1222821
-4.531762	byrne	-0.1992729
-4.649053	bécancour	-0.1222821
-4.531762	bélair	-0.1222821
-4.531762	bélanger	-0.2435762
-4.649053	c	-0.1222821
-4.649053	c-10a	-0.1222821
-4.649053	c-13	-0.122282
-4.649053	c-130	-0.1222821
-4.649053	c-19	-0.1222821
-4.649053	c-20	-0.1222821
-4.649053	c-206	-0.1222821
-4.649053	c-241	-0.1222821
-4.649053	c-250	-0.1222821
-4.649053	c-260	-0.1222821
-4.649053	c-28	-0.1222821
-4.649053	c-32	-0.1222821
-4.649053	c-325	-0.1222821
-4.649053	c-36	-0.1222821
-4.649053	c-37	-0.1222821
-4.649053	c-38	-0.1222821
-4.649053	c-42	-0.1222821
-4.649053	c-420	-0.1222821
-4.649053	c-45	-0.1222821
-4.649053	c-454	-0.1222821
-4.649053	c-455	-0.1222821
-4.649053	c-456	-0.1222821
-4.649053	c-457	-0.1222821
-4.649053	c-458	-0.1222821
-4.649053	c-46	-0.1222821
-4.531762	c-48	-0.1222821
-4.649053	c-49	-0.1222821
-4.649053	c-50	-0.1222821
-4.649053	c-7	-0.1222821
-4.649053	c-8	-0.1222821
-4.002453	cabinet	-0.1668213
-4.419179	caccia	-0.1222821
-4.531762	cadets	-0.1668213
-4.649053	cadman	-0.1222821
-4.531762	cake	-0.1222821
-4.531762	calculate	-0.1222821
-4.531762	calculated	-0.1222821
-4.075202	calculation	-0.1862762
-4.419179	calculations	-0.1992728
-4.419179	calder	-0.1992729
-4.649053	caldwell	-0.1222821
-4.531762	calendar	-0.1222821
-4.16264	calgary	-0.1619008
-4.419179	calibre	-0.1222821
-3.524603	call	-0.2594092
-3.289441	called	-0.3052815
-3.684466	calling	-0.4166967
-4.531762	callous	-0.1222821
-3.88569	calls	-0.2721346
-4.649053	calmly	-0.1222821
-4.531762	camagazine	-0.2435762
-4.649053	cambior	-0.1222821
-4.531762	cambridge	-0.1222821
-3.391296	came	-0.41763
-4.531762	camp	-0.1992729
-3.717932	campaign	-0.1688985
-4.531762	campaigned	-0.2435762
-4.649053	campaigning	-0.1222821
-4.419179	campaigns	-0.1668213
-4.531762	campbell	-0.1222821
-4.649053	camped	-0.1222821
-4.531762	camps	-0.1222821
-2.82982	can	-0.2665665
-4.649053	can't	-0.1222821
-3.025514	canada	-0.3512366
-4.531762	canada-wide	-0.1992729
-3.05473	canadian	-0.2135089
-2.887501	canadians	-0.3902759
-4.649053	canadien	-0.1222821
-4.649053	canales	-0.1222821
-4.272236	cancel	-0.2164557
-4.649053	cancellation	-0.1222821
-4.16264	cancelled	-0.1668213
-4.531762	cancelling	-0.1222821
-4.272236	cancer	-0.2228077
-4.649053	cancers	-0.1222821
-4.649053	candidate	-0.1222821
-4.649053	candidates	-0.1222821
-3.88569	cannabis	-0.1747269
-3.375199	cannot	-0.2603633
-4.649053	cantons	-0.1222821
-4.649053	canvas	-0.1222821
-4.649053	cap	-0.1222821
-4.649053	cap-de-la	-0.1222821
-4.649053	cap-de-la-madeleine	-0.1222821
-4.649053	capabilities	-0.1222821
-4.419179	capability	-0.1222821
-4.16264	capable	-0.3382455
-4.075202	capacity	-0.1590736
-4.649053	capita	-0.1222821
-3.359678	capital	-0.3667067
-4.649053	capital-intensive	-0.1222821
-4.649053	capitalism	-0.1222821
-4.649053	capitalist	-0.1222821
-4.531762	caplan	-0.1222821
-4.649053	capped	-0.1222821
-4.649053	capsule	-0.1222821
-4.649053	capsules	-0.1222821
-4.649053	capture	-0.1222821
-4.419179	car	-0.1222821
-3.793761	carbon	-0.320964
-4.419179	card	-0.1222821
-4.531762	cardin	-0.1222821
-4.649053	cardiology	-0.1222821
-4.649053	cards	-0.1222821
-3.524603	care	-0.2135982
-4.16264	career	-0.1222821
-4.531762	careers	-0.2435762
-4.272236	careful	-0.122282
-3.88569	carefully	-0.1625781
-4.649053	caregiver	-0.1222821
-4.649053	caregivers	-0.1222821
-4.649053	caregiving	-0.122282
-4.649053	cares	-0.1222821
-4.649053	cargill	-0.1222821
-4.649053	carignan	-0.1222821
-4.531762	caring	-0.1222821
-4.649053	carleton	-0.1222821
-4.649053	carnage	-0.1222821
-4.649053	carol	-0.1222821
-4.649053	carole-marie	-0.1222821
-4.649053	caroline	-0.1222821
-4.531762	carolyn	-0.2435762
-4.649053	carpenter	-0.1222821
-4.649053	carriage	-0.1222821
-4.16264	carried	-0.1668213
-4.419179	carries	-0.1787083
-4.531762	carroll	-0.1222821
-4.075202	carry	-0.2212975
-4.419179	carrying	-0.1992728
-4.419179	cars	-0.122282
-4.649053	carte	-0.1222821
-4.649053	cartel	-0.1222821
-3.443508	case	-0.3610177
-3.330207	cases	-0.3309378
-4.649053	casework	-0.1222821
-4.272236	casey	-0.1787083
-4.649053	casgrain	-0.1222821
-4.419179	cash	-0.1992729
-4.419179	casson	-0.1787083
-4.419179	cast	-0.122282
-4.649053	casting	-0.1222821
-4.531762	castonguay	-0.2435762
-4.649053	castor	-0.1222821
-4.419179	casualties	-0.1222821
-4.531762	cat	-0.1222821
-4.649053	cataract	-0.1222821
-4.649053	cataracts	-0.1222821
-4.531762	catastrophes	-0.1222821
-4.531762	catastrophic	-0.1222821
-4.531762	categories	-0.2435762
-4.649053	categorization	-0.1222821
-4.649053	categorize	-0.1222821
-3.837297	category	-0.185019
-4.649053	catharines	-0.1222821
-4.531762	catholic	-0.1222821
-4.649053	catholics	-0.1222821
-4.531762	catterall	-0.122282
-3.940159	cattle	-0.208894
-4.649053	cattlemen	-0.1222821
-4.419179	cauchon	-0.1222821
-4.16264	caucus	-0.1222821
-4.649053	caucuses	-0.1222821
-4.002453	caught	-0.1735092
-3.754193	cause	-0.1388764
-4.075202	caused	-0.1495794
-4.16264	causes	-0.2147707
-4.272236	causing	-0.1222821
-4.649053	cautionary	-0.1222821
-4.649053	cave	-0.1222821
-4.649053	cbc	-0.1222821
-4.649053	ccaa	-0.1222821
-4.649053	ccf	-0.1222821
-4.649053	ccra	-0.122282
-4.649053	cctb	-0.1222821
-4.419179	celebrate	-0.1787083
-4.272236	celebrated	-0.1222821
-4.649053	celebrates	-0.1222821
-4.272236	celebrating	-0.1222821
-4.531762	celebration	-0.1222821
-4.531762	cell	-0.1222821
-4.649053	cells	-0.1222821
-3.146974	census	-0.4627709
-4.649053	census-keeping	-0.1222821
-4.649053	census.	-0.122282
-3.940159	censuses	-0.1222821
-4.419179	cent	-0.1222821
-4.649053	centennial	-0.1222821
-4.531762	center	-0.1222821
-4.531762	central	-0.1222821
-4.531762	centralist	-0.1222821
-4.531762	centralization	-0.1222821
-4.649053	centralize	-0.1222821
-4.649053	centralized	-0.1222821
-4.649053	centralizing	-0.1222821
-3.653395	centre	-0.3838288
-4.419179	centres	-0.1668213
-4.649053	cents	-0.1222821
-4.272236	centuries	-0.1787083
-4.16264	century	-0.153623
-4.419179	ceo	-0.1787083
-4.649053	ceo.	-0.1222821
-4.531762	ceos	-0.2435762
-4.531762	ceremony	-0.1222821
-3.330207	certain	-0.1653429
-3.462407	certainly	-0.1827669
-4.531762	certainty	-0.1222821
-4.531762	certified	-0.1222821
-4.649053	certify	-0.1222821
-4.649053	cetera	-0.1222821
-4.649053	cf	-0.1222821
-4.649053	cf-18	-0.1222821
-4.531762	cf-18s	-0.1222821
-4.531762	cfb	-0.1222821
-4.649053	chain	-0.1222821
-4.649053	chair	-0.1222821
-4.419179	chaired	-0.1992729
-4.649053	chairman	-0.1222821
-4.649053	chalk	-0.1222821
-3.88569	challenge	-0.1619008
-4.531762	challenged	-0.1222821
-4.531762	challenger	-0.2435762
-3.754193	challenges	-0.185019
-4.649053	challenging	-0.1222821
-4.531762	chamber	-0.1222821
-4.531762	champion	-0.2435762
-4.531762	championed	-0.1222821
-4.649053	champions	-0.1222821
-4.649053	championships	-0.1222821
-4.531762	champlain	-0.1222821
-4.419179	chance	-0.1992729
-4.649053	chances	-0.1222821
-3.359678	change	-0.2659209
-3.754193	changed	-0.2097325
-3.330207	changes	-0.3446802
-4.531762	changing	-0.2435762
-4.649053	chaos	-0.1222821
-4.531762	chapais-chibougamau	-0.1222821
-4.531762	chapter	-0.1222821
-4.531762	character	-0.1222821
-4.649053	characteristics	-0.1222821
-4.649053	characterized	-0.1222821
-4.649053	characters	-0.1222821
-4.649053	charade	-0.1222821
-4.649053	charbonneau	-0.1222821
-4.531762	charest	-0.1222821
-4.531762	charge	-0.1992729
-4.16264	charged	-0.3382455
-4.16264	charges	-0.1590736
-4.531762	charging	-0.1222821
-4.649053	charitable	-0.1222821
-4.649053	charles	-0.1222821
-4.649053	charlesbourg	-0.1222821
-4.649053	charleswood	-0.1222821
-4.649053	charlie	-0.1222821
-4.649053	charlottenburgh	-0.1222821
-4.649053	charlottetown	-0.1222821
-4.272236	charter	-0.1787083
-4.531762	chartered	-0.1992729
-4.649053	charters	-0.1222821
-4.649053	chased	-0.1222821
-4.531762	chastised	-0.1222821
-4.649053	chatelaine	-0.1222821
-4.649053	chatham	-0.1222821
-4.649053	cheated	-0.1222821
-4.649053	cheats	-0.1222821
-4.531762	check	-0.1222821
-4.649053	checking	-0.1222821
-4.419179	checks	-0.2895751
-4.649053	cheered	-0.1222821
-4.649053	cheering	-0.1222821
-4.531762	cheques	-0.1222821
-4.649053	cheriam	-0.1222821
-4.649053	cherish	-0.1222821
-4.649053	cherokee	-0.1222821
-4.649053	cheryl	-0.1222821
-4.649053	chest	-0.122282
-4.649053	cheyenne	-0.1222821
-4.649053	chez	-0.1222821
-4.649053	chicken	-0.1222821
-4.531762	chickens	-0.1222821
-3.88569	chief	-0.2168023
-3.6244	child	-0.2033478
-4.649053	childhood	-0.1222821
-3.482166	children	-0.3400707
-3.793761	chilliwack	-0.2168024
-3.88569	china	-0.1868391
-4.419179	chinese	-0.1222821
-3.88569	choice	-0.2347077
-3.793761	choices	-0.2749739
-4.272236	choose	-0.1668213
-4.531762	chooses	-0.1222821
-4.419179	choosing	-0.122282
-4.649053	chop	-0.1222821
-4.649053	chopped	-0.1222821
-4.649053	chopping	-0.1222821
-4.649053	chord	-0.1222821
-4.649053	chords	-0.1222821
-4.272236	chose	-0.2413355
-4.419179	chosen	-0.1787083
-4.419179	christian	-0.1222821
-4.649053	christiane	-0.1222821
-4.531762	chromium	-0.1222821
-4.531762	chronic	-0.1222821
-4.649053	chrystine	-0.1222821
-4.649053	chrétien	-0.1222821
-4.649053	chst	-0.1222821
-4.649053	chuck	-0.1222821
-4.649053	chunks	-0.1222821
-4.531762	church	-0.1222821
-4.531762	churches	-0.1222821
-4.419179	churchill	-0.1985972
-4.649053	châteauguay	-0.1222821
-4.419179	cib	-0.1222821
-4.649053	cibc	-0.1222821
-4.649053	cida	-0.1222821
-4.16264	cigarettes	-0.1668213
-3.940159	cinar	-0.1660689
-4.531762	circle	-0.1222821
-4.531762	circles	-0.1222821
-4.649053	circulating	-0.1222821
-4.531762	circumstance	-0.1222821
-3.88569	circumstances	-0.1696428
-4.649053	cite	-0.1222821
-4.075202	cities	-0.1992728
-4.075202	citizen	-0.183509
-3.571641	citizens	-0.2430111
-4.531762	citizenship	-0.2435762
-3.940159	city	-0.1696428
-3.940159	civil	-0.1495794
-4.649053	civilian	-0.1222821
-4.419179	civilians	-0.1222821
-3.837297	claim	-0.226221
-4.649053	claimants	-0.1222821
-4.649053	claimed	-0.122282
-4.531762	claiming	-0.2435762
-3.837297	claims	-0.1909298
-4.649053	clair	-0.1222821
-4.649053	clamouring	-0.1222821
-4.272236	clarification	-0.1787083
-4.419179	clarified	-0.1222821
-4.272236	clarify	-0.1495794
-4.531762	clarifying	-0.2435762
-4.419179	clarity	-0.1992728
-4.272236	clark	-0.1787083
-4.649053	clarkson	-0.1222821
-4.531762	class	-0.1222821
-4.531762	classes	-0.1222821
-4.649053	classic	-0.1222821
-4.272236	classified	-0.2147707
-4.649053	classify	-0.1222821
-4.649053	classing	-0.1222821
-4.531762	claude	-0.1222821
-3.837297	clause	-0.1874027
-4.419179	clauses	-0.1222821
-4.649053	clawback	-0.1222821
-3.502867	clean	-0.3280353
-4.649053	clean-up	-0.1222821
-3.940159	cleaner	-0.1720643
-4.649053	cleaning	-0.1222821
-3.482166	clear	-0.2614689
-4.649053	clearcut	-0.1222821
-4.649053	cleared	-0.1222821
-4.419179	clearer	-0.1222821
-4.531762	clearing	-0.1222821
-3.547486	clearly	-0.1693722
-4.649053	clergy	-0.1222821
-4.649053	clerk	-0.1222821
-4.649053	clever	-0.1222821
-4.649053	client-run	-0.1222821
-4.272236	clients	-0.1222821
-4.531762	cliff	-0.2435762
-4.649053	clifford	-0.1222821
-3.653395	climate	-0.5362529
-4.16264	clinical	-0.2147706
-4.649053	clinton	-0.1222821
-4.649053	clock	-0.1222821
-4.649053	clogged	-0.1222821
-4.531762	cloning	-0.1222821
-3.653395	close	-0.2815318
-3.940159	closed	-0.2047445
-4.16264	closely	-0.1590736
-4.075202	closer	-0.2939519
-4.649053	closest	-0.1222821
-3.837297	closing	-0.2356571
-4.16264	closure	-0.2164557
-4.649053	cloudier	-0.1222821
-4.649053	cloudy	-0.1222821
-4.649053	clout	-0.1222821
-4.419179	club	-0.1222821
-4.531762	co-chair	-0.1222821
-4.649053	co-op	-0.1222821
-4.649053	co-operate	-0.1222821
-4.531762	co-operative	-0.1222821
-4.531762	co-ops	-0.1222821
-4.649053	co-sponsors	-0.1222821
-3.59722	coal	-0.1783215
-4.531762	coal-fired	-0.1222821
-4.419179	coalition	-0.1787083
-4.649053	coalitions	-0.1222821
-3.837297	coast	-0.2722576
-4.649053	cod-liver	-0.1222821
-4.16264	code	-0.1742791
-4.272236	coderre	-0.2413355
-4.649053	codification	-0.1222821
-4.649053	codifies	-0.1222821
-4.649053	coeducational	-0.1222821
-4.649053	coffee	-0.1222821
-4.649053	coffers	-0.1222821
-4.649053	cogeneration	-0.1222821
-4.649053	coherent	-0.1222821
-4.649053	coin	-0.1222821
-4.419179	coincidence	-0.1992729
-4.649053	colborne	-0.1222821
-4.649053	colchester	-0.1222821
-4.419179	cold	-0.1222821
-4.419179	colin	-0.289575
-4.649053	collaborative	-0.1222821
-4.419179	collapse	-0.1992728
-3.793761	colleague	-0.1890721
-3.837297	colleagues	-0.1991574
-4.531762	collect	-0.1222821
-4.16264	collected	-0.1222821
-4.531762	collecting	-0.1222821
-4.272236	collection	-0.1668213
-4.419179	collective	-0.1222821
-4.649053	collectively	-0.1222821
-4.419179	collects	-0.1222821
-4.649053	college	-0.1222821
-4.531762	collenette	-0.1222821
-4.649053	collège	-0.1222821
-4.419179	colonel	-0.1222821
-4.531762	colorado	-0.1222821
-4.649053	colossal	-0.1222821
-4.649053	colour	-0.1222821
-4.649053	colours	-0.1222821
-4.649053	colt	-0.1222821
-4.531762	columbia	-0.1349144
-4.649053	columbians	-0.1222821
-4.419179	comartin	-0.1787083
-4.649053	comb	-0.1222821
-4.272236	combat	-0.1590736
-4.649053	combating	-0.1222821
-4.649053	combination	-0.1222821
-4.16264	combined	-0.1222821
-4.649053	combining	-0.1222821
-3.302609	come	-0.4476062
-3.684466	comes	-0.1751168
-4.649053	comfort	-0.1222821
-4.649053	comfortable	-0.1222821
-4.649053	comfortably	-0.1222821
-3.462407	coming	-0.2870153
-4.272236	command	-0.1222821
-4.272236	commander	-0.1787083
-4.649053	commandment	-0.1222821
-4.649053	commands	-0.1222821
-4.649053	commemorating	-0.1222821
-4.531762	commemoration	-0.2435762
-4.531762	commend	-0.1668213
-4.649053	commendation	-0.1222821
-3.754193	comment	-0.2515966
-4.531762	commentary	-0.2435762
-4.649053	commented	-0.1222821
-4.649053	commenting	-0.1222821
-3.571641	comments	-0.3025321
-4.531762	commerce	-0.1222821
-4.272236	commercial	-0.1222821
-4.649053	commercialization	-0.1222821
-4.002453	commission	-0.1754825
-4.16264	commissioner	-0.1663196
-4.649053	commissioning	-0.1222821
-4.531762	commissions	-0.1222821
-4.16264	commit	-0.1222821
-3.408012	commitment	-0.4556286
-4.002453	commitments	-0.1590736
-4.649053	commits	-0.1222821
-3.88569	committed	-0.4191023
-3.175948	committee	-0.3649558
-4.075202	committees	-0.153623
-4.419179	committing	-0.1222821
-4.531762	committment	-0.1222821
-3.717932	common	-0.2800122
-4.649053	commoners	-0.1222821
-4.531762	commonly	-0.1222821
-4.649053	commonplace	-0.1222821
-4.649053	commons	-0.1222821
-4.649053	commonwealth	-0.1222821
-4.649053	communicable	-0.1222821
-4.419179	communicate	-0.1222821
-4.531762	communicated	-0.1222821
-4.649053	communicating	-0.1222821
-4.272236	communication	-0.1222821
-4.075202	communications	-0.1222821
-4.649053	communiqué	-0.1222821
-4.531762	communist	-0.1222821
-3.571641	communities	-0.2342745
-3.462407	community	-0.2388928
-4.649053	commute	-0.122282
-4.649053	comox	-0.1222821
-3.086053	companies	-0.3837172
-3.289441	company	-0.2615236
-4.531762	comparable	-0.1222821
-4.002453	compared	-0.4843736
-4.649053	comparing	-0.1222821
-4.649053	comparison	-0.1222821
-4.649053	comparisons	-0.1222821
-4.419179	compassion	-0.1668213
-4.531762	compel	-0.1222821
-4.531762	compelling	-0.1222821
-4.531762	compensate	-0.1222821
-4.16264	compensated	-0.2147707
-3.793761	compensation	-0.2032919
-4.531762	compete	-0.1222821
-4.649053	competed	-0.1222821
-4.649053	competent	-0.1222821
-4.419179	competing	-0.1222821
-4.075202	competition	-0.1590736
-3.754193	competitive	-0.1716411
-4.531762	competitiveness	-0.2435762
-4.649053	competitivity	-0.1222821
-4.531762	competitor	-0.1222821
-4.649053	competitors	-0.1222821
-4.649053	compiled	-0.1222821
-4.649053	complain	-0.1222821
-4.272236	complaining	-0.1787083
-4.531762	complaints	-0.1222821
-4.649053	complements	-0.1222821
-4.075202	complete	-0.1222821
-3.88569	completed	-0.1625781
-4.002453	completely	-0.1439809
-4.649053	completion	-0.1222821
-4.649053	complex	-0.1222821
-4.649053	complexity	-0.1222821
-4.16264	compliance	-0.1464603
-4.272236	complicated	-0.1222821
-4.649053	complicating	-0.1222821
-4.531762	complications	-0.1222821
-4.649053	complicit	-0.1222821
-4.272236	complied	-0.4145138
-4.649053	complies	-0.1222821
-4.531762	compliment	-0.2435762
-4.419179	complimentary	-0.1222821
-4.649053	complimented	-0.1222821
-4.419179	comply	-0.289575
-4.075202	component	-0.1979226
-4.531762	components	-0.2435762
-4.649053	composed	-0.1222821
-4.419179	comprehensive	-0.1222821
-4.649053	compress	-0.1222821
-4.419179	comprised	-0.1992729
-4.002453	compromise	-0.1901346
-4.531762	compromised	-0.1222821
-4.649053	compromises	-0.1222821
-4.649053	compton	-0.1222821
-4.649053	computation	-0.1222821
-4.531762	computer	-0.1222821
-4.419179	computers	-0.1992729
-4.419179	comrades	-0.1222821
-4.531762	comuzzi	-0.1222821
-4.649053	concede	-0.1222821
-4.649053	conceded	-0.1222821
-4.531762	concentrated	-0.2435762
-4.649053	concentrates	-0.1222821
-4.531762	concentration	-0.122282
-4.419179	concept	-0.1787083
-4.649053	conception	-0.122282
-3.408012	concern	-0.2809504
-3.653395	concerned	-0.3672496
-3.59722	concerning	-0.3148383
-3.166074	concerns	-0.3907325
-4.649053	concert	-0.1222821
-4.649053	concerted	-0.1222821
-4.272236	conclude	-0.1712182
-4.16264	concluded	-0.2147707
-4.002453	conclusion	-0.2062488
-4.531762	conclusions	-0.1222821
-4.531762	concrete	-0.1222821
-4.531762	concur	-0.1222821
-4.649053	concurred	-0.1222821
-4.272236	concurrence	-0.1222821
-4.272236	concurrent	-0.2413355
-4.531762	condemn	-0.2435762
-4.531762	condemned	-0.1222821
-4.419179	condemning	-0.122282
-4.002453	condition	-0.1983722
-4.649053	conditional	-0.1222821
-3.482166	conditions	-0.222677
-4.531762	condolences	-0.1222821
-4.649053	condone	-0.1222821
-3.88569	conduct	-0.1638997
-4.075202	conducted	-0.1720642
-4.272236	conducting	-0.1222821
-4.649053	confections	-0.1222821
-4.16264	confederation	-0.1668213
-4.16264	conference	-0.153623
-3.6244	confidence	-0.307248
-4.16264	confident	-0.1979226
-3.793761	confidential	-0.2452502
-4.075202	confidentiality	-0.208894
-4.649053	confidentially	-0.1222821
-4.649053	confine	-0.1222821
-4.649053	confines	-0.1222821
-4.002453	confirm	-0.1983722
-4.649053	confirmation	-0.1222821
-4.002453	confirmed	-0.1495794
-4.531762	confirming	-0.2435762
-4.419179	confirms	-0.122282
-4.649053	confiscated	-0.1222821
-3.940159	conflict	-0.3411782
-4.531762	conflicting	-0.1222821
-4.272236	conflicts	-0.1787083
-4.531762	confronting	-0.2435762
-4.531762	confuse	-0.1222821
-4.649053	confused	-0.1222821
-4.649053	confusing	-0.1222821
-4.649053	confusion	-0.1222821
-4.075202	congratulate	-0.244831
-4.649053	congratulated	-0.1222821
-4.649053	congratulates	-0.1222821
-4.531762	congratulating	-0.1222821
-4.272236	congratulations	-0.2413355
-4.531762	congregation	-0.1992729
-4.419179	congress	-0.1787083
-4.649053	congressional	-0.1222821
-4.649053	congressmen	-0.1222821
-4.649053	conili	-0.1222821
-4.649053	conjunction	-0.1222821
-4.649053	connected	-0.1222821
-4.16264	connection	-0.2147707
-4.649053	connors	-0.1222821
-4.531762	cons	-0.1222821
-4.531762	conscience	-0.2435762
-4.531762	conscious	-0.1222821
-4.649053	consecutive	-0.1222821
-4.649053	conseil	-0.1222821
-4.16264	consensus	-0.1222821
-3.653395	consent	-0.2235041
-4.419179	consequence	-0.1979226
-4.002453	consequences	-0.2156124
-4.531762	consequential	-0.2435761
-4.531762	consequently	-0.2435762
-4.075202	conservation	-0.177742
-4.531762	conservative	-0.2164557
-4.419179	conservatives	-0.1222821
-4.649053	conserve	-0.1222821
-3.717932	consider	-0.2502474
-4.272236	considerable	-0.1222821
-4.649053	considerably	-0.1222821
-3.547486	consideration	-0.3052776
-3.684466	considered	-0.1642369
-4.002453	considering	-0.1625782
-4.531762	considers	-0.1992729
-4.649053	consist	-0.1222821
-4.649053	consistency	-0.1222821
-4.16264	consistent	-0.1590736
-4.16264	consistently	-0.1222821
-4.531762	consolidate	-0.1222821
-4.649053	consolidated	-0.1222821
-4.419179	constant	-0.1222821
-4.16264	constantly	-0.1222821
-4.419179	constituencies	-0.1222821
-3.940159	constituency	-0.208894
-4.272236	constituent	-0.1222821
-3.88569	constituents	-0.2106825
-4.531762	constitute	-0.1222821
-4.419179	constituted	-0.122282
-4.419179	constitutes	-0.1992729
-4.649053	constitution	-0.1222821
-4.272236	constitutional	-0.1222821
-4.649053	constraints	-0.1222821
-4.649053	construct	-0.1222821
-4.649053	construction	-0.1222821
-4.075202	constructive	-0.1590736
-4.649053	consulate	-0.1222821
-4.419179	consult	-0.153623
-4.649053	consultant	-0.1222821
-3.88569	consultation	-0.1668213
-3.837297	consultations	-0.2212975
-4.649053	consultative	-0.1222821
-4.419179	consulted	-0.1668213
-4.272236	consulting	-0.1668213
-4.649053	consume	-0.1222821
-4.649053	consumed	-0.1222821
-4.272236	consumer	-0.177742
-3.653395	consumers	-0.2045538
-4.649053	consumes	-0.1222821
-4.531762	consuming	-0.1222821
-4.649053	consummated	-0.1222821
-4.002453	consumption	-0.153623
-4.075202	contact	-0.2420811
-4.419179	contacted	-0.1992729
-4.419179	contain	-0.1222821
-4.002453	contained	-0.3608987
-4.649053	container	-0.1222821
-4.649053	containing	-0.1222821
-4.075202	contains	-0.1787083
-4.649053	contaminants	-0.1222821
-4.649053	contaminated	-0.1222821
-4.419179	contamination	-0.1992729
-4.649053	contemplating	-0.1222821
-4.649053	contends	-0.1222821
-4.531762	contents	-0.1222821
-3.88569	context	-0.3020047
-4.649053	contextual	-0.1222821
-4.531762	continent	-0.2435762
-4.649053	continental	-0.1222821
-4.531762	contingent	-0.2435762
-4.419179	continually	-0.1222821
-4.649053	continuation	-0.1222821
-3.6244	continue	-0.3442592
-3.940159	continued	-0.1590736
-4.002453	continues	-0.4188906
-4.16264	continuing	-0.1668213
-4.649053	continuingg	-0.122282
-4.272236	continuous	-0.1222821
-4.649053	continuously	-0.1222821
-3.653395	contract	-0.2310995
-4.531762	contracted	-0.2435762
-4.419179	contracting	-0.1992729
-4.649053	contractor	-0.1222821
-4.649053	contractors	-0.1222821
-3.754193	contracts	-0.1988223
-4.649053	contradict	-0.1222821
-4.531762	contradiction	-0.1992729
-4.531762	contradictory	-0.1222821
-4.531762	contradicts	-0.1222821
-4.16264	contrary	-0.3382455
-4.649053	contrast	-0.1222821
-4.531762	contravention	-0.1222821
-4.531762	contraventions	-0.2435762
-4.075202	contribute	-0.2648694
-4.419179	contributed	-0.1222821
-4.649053	contributes	-0.1222821
-4.531762	contributing	-0.2435762
-3.793761	contribution	-0.1981923
-3.793761	contributions	-0.1419629
-4.272236	contributor	-0.1222821
-3.940159	contributors	-0.208894
-4.649053	contributory	-0.1222821
-3.547486	control	-0.2891983
-4.075202	controlled	-0.289575
-4.531762	controller	-0.1222821
-4.419179	controlling	-0.1992728
-4.272236	controls	-0.1668213
-4.649053	controversial	-0.1222821
-4.649053	convenience	-0.1222821
-4.649053	convenient	-0.1222821
-4.649053	convention	-0.1222821
-4.649053	conventional	-0.1222821
-4.649053	converging	-0.122282
-4.531762	conversation	-0.1992729
-4.272236	conversations	-0.1222821
-4.649053	converting	-0.1222821
-4.531762	convicted	-0.1222821
-4.649053	convicting	-0.1222821
-4.075202	conviction	-0.1495794
-4.419179	convictions	-0.1992728
-4.531762	convince	-0.1222821
-4.419179	convinced	-0.2413355
-4.419179	convincing	-0.1222821
-4.649053	convoluted	-0.1222821
-4.649053	cooked	-0.1222821
-4.649053	cool	-0.122282
-4.272236	cooperation	-0.1222821
-4.649053	cooperative	-0.1222821
-4.531762	cooperatives	-0.1222821
-4.649053	coopération	-0.1222821
-4.649053	copper	-0.1222821
-4.531762	copy	-0.1222821
-4.649053	copyright	-0.1222821
-4.649053	core	-0.1222821
-4.419179	corner	-0.1992728
-4.649053	corners	-0.1222821
-4.531762	cornerstone	-0.1992729
-4.649053	cornerstones	-0.1222821
-4.649053	corp.	-0.1222821
-4.531762	corporal	-0.1222821
-3.359678	corporate	-0.3665018
-3.837297	corporation	-0.1930387
-3.524603	corporations	-0.2498975
-4.002453	correct	-0.1222821
-4.531762	corrected	-0.1787083
-4.531762	correcting	-0.1992729
-4.531762	corrections	-0.1222821
-4.649053	corrective	-0.1222821
-4.16264	correctly	-0.1222821
-4.531762	corrects	-0.1222821
-4.531762	correspond	-0.1992729
-4.531762	correspondence	-0.1222821
-4.419179	corrupt	-0.1992728
-4.649053	corruption	-0.1222821
-3.443508	cost	-0.25338
-4.649053	costing	-0.1222821
-4.649053	costly	-0.1222821
-3.425398	costs	-0.2236935
-4.649053	cotler	-0.1222821
-4.531762	couillard	-0.1222821
-3.018508	could	-0.30011
-4.16264	council	-0.1222821
-4.531762	councillor	-0.1222821
-4.649053	counsel	-0.122282
-4.649053	counselling	-0.1222821
-4.649053	counsellor	-0.1222821
-4.419179	count	-0.1222821
-4.531762	counted	-0.1222821
-4.272236	counter	-0.2413355
-4.649053	counter-bombardment	-0.1222821
-4.419179	counterpart	-0.1992729
-4.649053	counterparts	-0.1222821
-4.649053	counterproductive	-0.1222821
-4.531762	counting	-0.1222821
-3.653395	countries	-0.2807996
-3.59722	country	-0.255335
-4.419179	counts	-0.1222821
-4.531762	county	-0.1222821
-4.272236	couple	-0.4145138
-4.649053	couples	-0.1222821
-4.272236	courage	-0.1787083
-4.649053	couriers	-0.1222821
-4.16264	course	-0.1410884
-3.837297	court	-0.1868391
-4.649053	courting	-0.1222821
-4.649053	courtrooms	-0.1222821
-4.16264	courts	-0.1625782
-4.649053	cousins	-0.1222821
-4.649053	covenant	-0.1222821
-4.002453	cover	-0.1464602
-4.16264	coverage	-0.1668213
-3.88569	covered	-0.3740138
-4.531762	covers	-0.1222821
-4.531762	cow	-0.1222821
-4.649053	cowichan	-0.1222821
-4.531762	cows	-0.1222821
-3.571641	cpp	-0.2291359
-4.531762	crack	-0.2435762
-4.649053	craft	-0.1222821
-4.649053	crafted	-0.1222821
-4.649053	craig	-0.1222821
-4.649053	cranbrook	-0.1222821
-4.649053	cranked	-0.1222821
-4.649053	crash	-0.1222821
-4.649053	crawling	-0.1222821
-4.649053	crce	-0.1222821
-3.6244	create	-0.2481274
-3.793761	created	-0.2285975
-3.793761	creates	-0.2448311
-3.717932	creating	-0.3335555
-4.272236	creation	-0.2413355
-4.649053	creative	-0.1222821
-4.649053	creators	-0.1222821
-4.649053	credibility	-0.1222821
-4.649053	credible	-0.1222821
-3.793761	credit	-0.1832526
-4.531762	creditor	-0.1222821
-3.88569	creditors	-0.1916127
-4.649053	credits	-0.1222821
-4.649053	cree	-0.1222821
-4.649053	creek	-0.1222821
-4.531762	creeks	-0.1222821
-4.419179	crew	-0.1222821
-4.531762	crews	-0.1222821
-3.940159	crime	-0.1932197
-4.16264	crimes	-0.1668213
-3.502867	criminal	-0.2441297
-4.649053	criminalized	-0.1222821
-3.940159	criminals	-0.1419629
-4.649053	criminologists	-0.1222821
-4.649053	crippling	-0.1222821
-4.419179	crises	-0.1992729
-3.754193	crisis	-0.2648694
-4.16264	criteria	-0.1222821
-3.754193	critic	-0.2779135
-3.837297	critical	-0.1536229
-4.531762	critically	-0.1992728
-4.531762	criticism	-0.1222821
-4.649053	criticize	-0.1222821
-4.419179	criticized	-0.1222821
-4.649053	critique	-0.122282
-4.649053	croatia	-0.1222821
-4.649053	croatians	-0.1222821
-4.649053	cronyism	-0.1222821
-4.531762	crop	-0.1222821
-4.649053	cross	-0.1222821
-4.531762	cross-border	-0.1222821
-4.649053	cross-listed	-0.1222821
-4.531762	crossed	-0.2435762
-4.649053	crosses	-0.1222821
-4.649053	crossings	-0.1222821
-4.649053	crowfoot	-0.1222821
-3.754193	crown	-0.2672426
-4.649053	crowning	-0.1222821
-4.649053	crucial	-0.1222821
-4.272236	cruelty	-0.2413355
-4.649053	crumb	-0.1222821
-4.649053	crunch	-0.1222821
-4.649053	crushing	-0.1222821
-4.649053	crybabies	-0.1222821
-4.649053	crying	-0.122282
-4.649053	crystals	-0.1222821
-4.531762	crête	-0.1222821
-4.531762	cs&amp;e	-0.1222821
-4.649053	cse	-0.1222821
-4.419179	csl	-0.1992729
-4.649053	csn	-0.1222821
-4.649053	csst	-0.1222821
-4.649053	ctv	-0.1222821
-4.531762	cull	-0.2435762
-4.649053	culled	-0.1222821
-4.531762	cullen	-0.1222821
-4.649053	culminating	-0.1222821
-4.649053	culmination	-0.1222821
-4.649053	culpa	-0.1222821
-4.649053	cultivate	-0.1222821
-4.272236	cultivation	-0.2413355
-4.075202	cultural	-0.1222821
-4.531762	culture	-0.1222821
-4.531762	cumberland	-0.2435762
-4.649053	cumbersome	-0.1222821
-4.419179	cummins	-0.1222821
-4.649053	cumulative	-0.1222821
-4.649053	cup	-0.1222821
-4.649053	curable	-0.1222821
-4.419179	curative	-0.289575
-4.531762	cure	-0.122282
-4.649053	cured	-0.1222821
-4.16264	cures	-0.2147706
-4.649053	curing	-0.1222821
-4.649053	curious	-0.1222821
-3.684466	current	-0.1376699
-4.649053	currentaddress	-0.1222821
-3.684466	currently	-0.1410884
-4.531762	curtain	-0.1222821
-4.649053	custody	-0.1222821
-3.940159	customs	-0.2164557
-3.793761	cut	-0.1607462
-4.419179	cutbacks	-0.1992729
-4.649053	cutler	-0.1222821
-3.88569	cuts	-0.185019
-4.002453	cutting	-0.1862762
-4.419179	cuzner	-0.1222821
-4.649053	cycle	-0.1222821
-4.649053	cypress	-0.1222821
-4.649053	czar	-0.1222821
-4.649053	côte-sud	-0.1222821
-4.649053	d	-0.1222821
-4.649053	d'histoire	-0.1222821
-4.649053	d'or	-0.1222821
-4.649053	d.	-0.1222821
-4.649053	d.c.	-0.1222821
-4.649053	dad	-0.1222821
-4.649053	dads	-0.1222821
-3.837297	daily	-0.1660689
-4.649053	daimlerchrysler	-0.1222821
-4.419179	dairy	-0.1222821
-4.649053	dalai	-0.1222821
-4.649053	dale	-0.1222821
-4.419179	dalphond-guiral	-0.1992729
-4.002453	damage	-0.1222821
-4.649053	damaged	-0.1222821
-4.649053	damaging	-0.1222821
-4.649053	damascus	-0.1222821
-4.531762	dan	-0.1222821
-4.649053	dance	-0.122282
-4.649053	danes	-0.1222821
-4.531762	danger	-0.1222821
-3.88569	dangerous	-0.1222821
-4.531762	dangers	-0.122282
-4.531762	daniel	-0.2435762
-4.649053	danyluk	-0.1222821
-4.531762	dare	-0.2435762
-4.649053	daring	-0.1222821
-4.649053	dark	-0.1222821
-4.649053	darrel	-0.1222821
-4.649053	darting	-0.1222821
-4.649053	dartmouth	-0.1222821
-3.571641	data	-0.2033478
-3.717932	date	-0.1951222
-4.16264	dated	-0.1992728
-4.531762	dates	-0.1222821
-4.649053	daughters	-0.1222821
-4.531762	dauphin	-0.2435762
-4.419179	davenport	-0.1983722
-4.075202	david	-0.1720643
-4.531762	davies	-0.1222821
-3.206994	day	-0.2832831
-4.649053	day-to-day	-0.1222821
-3.717932	days	-0.2441297
-3.88569	de	-0.2169757
-4.16264	dead	-0.1590736
-4.649053	deadlines	-0.1222821
-4.649053	deadly	-0.1222821
-4.649053	deaf-blind	-0.1222821
-3.524603	deal	-0.3240631
-3.684466	dealing	-0.9585818
-4.649053	dealings	-0.1222821
-3.88569	deals	-0.2301587
-3.88569	dealt	-0.7666963
-4.649053	deans	-0.1222821
-4.649053	dear	-0.1222821
-4.649053	dearly	-0.1222821
-4.16264	death	-0.153623
-4.16264	deaths	-0.1787083
-4.649053	debacle	-0.1222821
-4.649053	debacles	-0.1222821
-4.649053	debatable	-0.1222821
-3.344692	debate	-0.3171117
-4.075202	debated	-0.1874027
-4.075202	debates	-0.1720643
-4.002453	debating	-0.143981
-4.649053	deborah	-0.1222821
-4.272236	debt	-0.1222821
-4.649053	debts	-0.1222821
-4.531762	decade	-0.1222821
-4.075202	decades	-0.1874027
-4.531762	deceased	-0.1222821
-4.649053	deceiving	-0.1222821
-4.649053	december	-0.1222821
-4.649053	decent	-0.1222821
-4.649053	decentralized	-0.1222821
-4.649053	deceptions	-0.1222821
-4.075202	decide	-0.2169757
-3.571641	decided	-0.3998886
-4.531762	decides	-0.1222821
-4.649053	deciding	-0.1222821
-3.524603	decision	-0.2519859
-4.531762	decision-making	-0.1222821
-3.425398	decisions	-0.2349637
-4.649053	decisive	-0.1222821
-4.531762	deck	-0.1222821
-4.649053	declarable	-0.1222821
-3.940159	declaration	-0.3796382
-4.272236	declare	-0.1787083
-4.649053	declared	-0.1222821
-4.649053	declares	-0.1222821
-4.649053	declaring	-0.1222821
-4.16264	decline	-0.2939519
-4.649053	declined	-0.1222821
-4.649053	declining	-0.1222821
-4.649053	decorations	-0.1222821
-3.940159	decrease	-0.1660689
-4.649053	decreased	-0.1222821
-4.419179	decreasing	-0.1222821
-3.837297	decriminalization	-0.1740977
-4.649053	decriminalize	-0.1222821
-4.531762	decriminalized	-0.1222821
-4.272236	decriminalizing	-0.1222821
-4.002453	dedicated	-0.153623
-4.419179	dedication	-0.1668213
-4.531762	deduct	-0.1222821
-4.649053	deductibility	-0.1222821
-4.419179	deductible	-0.1222821
-4.075202	deduction	-0.2442682
-4.16264	deductions	-0.3382455
-3.754193	deemed	-0.2111448
-4.649053	deeming	-0.1222821
-4.531762	deep	-0.1222821
-4.649053	deepak	-0.1222821
-4.649053	deepest	-0.1222821
-4.531762	deeply	-0.1222821
-4.531762	deer	-0.1992728
-4.649053	default	-0.1222821
-4.419179	defeated	-0.1222821
-4.649053	defects	-0.1222821
-3.391296	defence	-0.2289409
-4.649053	defences	-0.1222821
-4.075202	defend	-0.177742
-4.531762	defended	-0.1222821
-4.075202	defending	-0.2442682
-4.075202	deferred	-0.2442682
-4.531762	deficiencies	-0.1222821
-4.649053	deficient	-0.1222821
-3.940159	deficit	-0.2570051
-4.649053	defies	-0.1222821
-4.075202	define	-0.153623
-4.002453	defined	-0.177742
-4.531762	defining	-0.1222821
-4.075202	definitely	-0.1668213
-3.940159	definition	-0.4188906
-4.419179	definitions	-0.1992728
-4.649053	deflect	-0.1222821
-4.649053	defraud	-0.1222821
-4.649053	defrauders	-0.1222821
-4.649053	defrauds	-0.1222821
-4.649053	degenerate	-0.1222821
-4.649053	degeneration	-0.1222821
-4.419179	degradation	-0.1222821
-4.075202	degree	-0.153623
-4.272236	delay	-0.1590736
-4.272236	delayed	-0.1787083
-4.649053	delays	-0.1222821
-4.649053	delegations	-0.1222821
-4.649053	deleterious	-0.1222821
-4.419179	deliberately	-0.1222821
-4.649053	deliberations	-0.1222821
-4.649053	delicate	-0.1222821
-4.419179	delighted	-0.1992729
-4.649053	delist	-0.1222821
-4.649053	deliver	-0.1222821
-4.419179	delivered	-0.122282
-4.649053	delivers	-0.1222821
-3.88569	delivery	-0.2954207
-4.649053	delta	-0.1222821
-3.793761	demand	-0.2062488
-4.16264	demanded	-0.1222821
-4.531762	demanding	-0.1222821
-4.419179	demands	-0.1222821
-4.649053	demean	-0.1222821
-4.531762	demers	-0.1590736
-4.649053	demined	-0.122282
-4.16264	democracy	-0.1222821
-4.16264	democratic	-0.1464603
-4.649053	democrats	-0.1222821
-4.419179	demonstrate	-0.1222821
-4.002453	demonstrated	-0.1222821
-4.531762	demonstrates	-0.1222821
-4.649053	demonstrating	-0.1222821
-4.531762	demonstration	-0.1222821
-4.649053	demote	-0.1222821
-4.531762	demoted	-0.1222821
-4.649053	den	-0.1222821
-4.649053	denial	-0.1222821
-4.16264	denied	-0.1222821
-4.531762	denis	-0.1222821
-4.531762	denmark	-0.1222821
-4.272236	deny	-0.1979226
-4.272236	denying	-0.2413355
-4.649053	depart	-0.1222821
-4.649053	departing	-0.1222821
-3.717932	department	-0.1872943
-4.002453	departments	-0.2074616
-4.649053	departures	-0.1222821
-3.940159	depend	-0.3319522
-4.649053	dependable	-0.1222821
-4.419179	dependants	-0.1992729
-4.531762	dependence	-0.2435762
-4.531762	dependency	-0.1222821
-4.419179	dependent	-0.1787083
-4.649053	dependents	-0.1222821
-4.419179	depending	-0.2413355
-4.16264	depends	-0.2147706
-4.649053	depicted	-0.1222821
-4.649053	depicts	-0.1222821
-4.419179	depleted	-0.1222821
-4.649053	depletes	-0.1222821
-4.649053	depleting	-0.1222821
-4.075202	depletion	-0.153623
-4.272236	deplorable	-0.1222821
-4.649053	deplore	-0.1222821
-4.531762	deploy	-0.1222821
-4.16264	deployed	-0.1590736
-4.16264	deployment	-0.1668213
-4.531762	deport	-0.1222821
-4.531762	deportation	-0.1992729
-4.649053	deported	-0.1222821
-4.649053	deposit	-0.122282
-4.531762	deposited	-0.1222821
-4.649053	depository	-0.1222821
-4.531762	depressed	-0.1222821
-4.531762	depression	-0.1222821
-4.272236	deprived	-0.4145138
-4.531762	deputy	-0.1668213
-4.649053	derail	-0.1222821
-4.649053	deregulation	-0.1222821
-4.649053	derelict	-0.1222821
-4.649053	deriding	-0.1222821
-4.649053	derived	-0.1222821
-4.649053	descent	-0.1222821
-4.419179	described	-0.1222821
-4.649053	describes	-0.1222821
-4.531762	describing	-0.2435762
-3.837297	deserve	-0.177742
-4.649053	deserved	-0.1222821
-4.531762	deserves	-0.1222821
-4.649053	design	-0.1222821
-4.531762	designated	-0.1222821
-4.272236	designed	-0.2413355
-4.531762	designing	-0.1222821
-4.419179	desirable	-0.1222821
-4.075202	desire	-0.1590736
-4.649053	desired	-0.1222821
-4.649053	desires	-0.1222821
-4.649053	desjardins	-0.1222821
-4.419179	desjarlais	-0.1992729
-4.419179	desperate	-0.1222821
-4.419179	desperately	-0.1787083
-4.649053	despicable	-0.1222821
-4.075202	despite	-0.3670199
-4.531762	desrochers	-0.1222821
-4.649053	destabilizing	-0.1222821
-4.649053	destination	-0.1222821
-4.649053	destitution	-0.1222821
-4.649053	destroy	-0.1222821
-4.649053	destroyers	-0.1222821
-4.649053	destroying	-0.1222821
-4.649053	destroys	-0.1222821
-4.531762	destruction	-0.1222821
-4.649053	destructive	-0.1222821
-4.531762	detached	-0.2435762
-4.419179	detail	-0.1979226
-4.531762	detailed	-0.1222821
-4.16264	details	-0.1862762
-4.649053	detect	-0.1222821
-4.649053	detection	-0.1222821
-4.649053	deter	-0.1222821
-4.649053	determination	-0.122282
-4.272236	determine	-0.1992729
-4.419179	determined	-0.122282
-4.419179	determining	-0.1222821
-4.272236	deterrent	-0.153623
-4.649053	deterring	-0.1222821
-4.649053	detract	-0.1222821
-4.649053	detrimental	-0.122282
-4.649053	devastated	-0.1222821
-4.419179	devastating	-0.1222821
-4.531762	devastation	-0.1222821
-4.002453	develop	-0.199606
-3.754193	developed	-0.1822236
-4.002453	developing	-0.1712182
-3.524603	development	-0.2120505
-4.16264	developments	-0.1222821
-4.649053	develops	-0.1222821
-4.649053	devil	-0.1222821
-4.419179	devillers	-0.289575
-4.649053	devising	-0.1222821
-4.649053	devote	-0.1222821
-4.272236	devoted	-0.1787083
-4.649053	devotion	-0.122282
-4.419179	dewdney	-0.289575
-4.531762	dfo	-0.1222821
-4.649053	dhaliwal	-0.1222821
-4.649053	di	-0.1222821
-4.649053	diabetes	-0.1222821
-4.649053	diagnosed	-0.1222821
-4.649053	diagnoses	-0.1222821
-4.531762	dialogue	-0.1222821
-4.272236	diamond	-0.1222821
-4.531762	diamonds	-0.1222821
-4.649053	diane	-0.1222821
-4.531762	diapers	-0.1222821
-4.649053	diavik	-0.1222821
-4.649053	dice	-0.1222821
-4.649053	dictate	-0.122282
-4.531762	dictates	-0.122282
-4.649053	dictators	-0.1222821
-3.156419	did	-0.3885303
-4.649053	didsbury	-0.1222821
-4.16264	die	-0.1590736
-4.16264	died	-0.1222821
-4.649053	dies	-0.1222821
-4.649053	dietary	-0.1222821
-4.649053	differ	-0.1222821
-4.16264	difference	-0.2273379
-4.16264	differences	-0.1992728
-3.482166	different	-0.1438381
-4.649053	differentiate	-0.1222821
-4.419179	differently	-0.1222821
-3.684466	difficult	-0.2571163
-4.075202	difficulties	-0.1590736
-4.075202	difficulty	-0.1495794
-4.649053	dig	-0.1222821
-4.16264	dignity	-0.1787083
-4.649053	digress	-0.1222821
-4.531762	dilatory	-0.1222821
-4.531762	diligence	-0.1222821
-4.649053	diligent	-0.1222821
-4.531762	diligently	-0.1222821
-4.649053	dime	-0.1222821
-4.16264	dimension	-0.2147707
-4.272236	diminish	-0.1222821
-4.531762	dinner	-0.1222821
-4.531762	dion	-0.1222821
-4.649053	dioxide	-0.1222821
-4.649053	dioxins	-0.1222821
-4.649053	dip	-0.1222821
-4.419179	dire	-0.1992729
-3.793761	direct	-0.1514617
-4.16264	directed	-0.1992729
-4.649053	directing	-0.1222821
-3.837297	direction	-0.3030026
-4.649053	directions	-0.1222821
-3.425398	directly	-0.2352229
-4.16264	director	-0.1222821
-4.272236	directorate	-0.1862763
-4.075202	directors	-0.1901346
-4.531762	dirt	-0.1222821
-4.649053	dirtiest	-0.1222821
-4.16264	dirty	-0.3382456
-4.531762	disabilities	-0.1222821
-4.002453	disability	-0.1780638
-4.075202	disabled	-0.1619008
-4.272236	disadvantage	-0.1222821
-4.649053	disadvantaged	-0.1222821
-4.272236	disagree	-0.2413355
-4.649053	disagreement	-0.1222821
-4.649053	disagrees	-0.1222821
-4.531762	disappear	-0.1222821
-4.649053	disappearance	-0.1222821
-4.649053	disappeared	-0.1222821
-4.649053	disappearing	-0.1222821
-4.531762	disappointed	-0.1222821
-4.649053	disappointing	-0.1222821
-4.531762	disappointment	-0.1222821
-4.649053	disapproval	-0.1222821
-4.649053	disarmament	-0.1222821
-3.684466	disaster	-0.2254044
-4.16264	disasters	-0.1992729
-4.649053	disastrous	-0.1222821
-4.649053	disastrously	-0.1222821
-4.649053	discepola	-0.1222821
-4.649053	discerning	-0.1222821
-4.649053	discharge	-0.1222821
-4.649053	discipline	-0.1222821
-4.531762	disclaimer	-0.1222821
-4.419179	disclose	-0.1222821
-4.531762	disclosed	-0.1222821
-4.419179	disclosing	-0.1222821
-4.16264	disclosure	-0.1862763
-4.531762	discourage	-0.1222821
-4.649053	discouraged	-0.1222821
-4.649053	discourse	-0.1222821
-4.531762	discover	-0.1222821
-4.075202	discovered	-0.1222821
-4.16264	discoveries	-0.1668213
-4.649053	discovery	-0.1222821
-4.649053	discredit	-0.122282
-4.649053	discrepancy	-0.1222821
-4.649053	discretion	-0.122282
-4.649053	discriminate	-0.1222821
-4.531762	discriminated	-0.2435762
-4.649053	discrimination	-0.1222821
-4.649053	discriminations	-0.1222821
-4.649053	discriminatory	-0.1222821
-3.837297	discuss	-0.1663195
-4.419179	discussed	-0.1983722
-4.649053	discusses	-0.1222821
-3.88569	discussing	-0.1561301
-3.940159	discussion	-0.1464603
-3.59722	discussions	-0.3222601
-4.649053	disdain	-0.1222821
-4.075202	disease	-0.153623
-4.075202	diseases	-0.1464602
-4.649053	disequilibrium	-0.1222821
-4.649053	disfavour	-0.1222821
-4.531762	disgraceful	-0.1222821
-4.649053	disgusted	-0.1222821
-4.649053	disgusting	-0.1222821
-4.649053	disheartened	-0.1222821
-4.649053	disheartening	-0.1222821
-4.531762	disingenuous	-0.1222821
-4.649053	disinterest	-0.1222821
-4.649053	dislikes	-0.1222821
-4.649053	dismal	-0.1222821
-4.649053	dismayed	-0.122282
-4.531762	dismiss	-0.1222821
-4.272236	dismissed	-0.1222821
-4.649053	disobedience	-0.1222821
-4.419179	disorder	-0.1222821
-4.649053	disorders	-0.1222821
-4.649053	dispassionate	-0.1222821
-4.649053	dispiriting	-0.122282
-4.649053	displeasure	-0.1222821
-4.649053	disposable	-0.1222821
-4.272236	disposal	-0.1668213
-4.649053	dispose	-0.1222821
-4.649053	disposed	-0.1222821
-4.649053	disposition	-0.1222821
-4.531762	dispute	-0.1222821
-4.649053	disputes	-0.1222821
-4.419179	disregard	-0.1992729
-4.649053	disregarded	-0.1222821
-4.649053	disrepair	-0.1222821
-4.649053	disseminate	-0.1222821
-4.649053	disservice	-0.122282
-4.531762	dissipate	-0.1222821
-4.649053	dissuade	-0.1222821
-4.649053	dissuasive	-0.1222821
-4.531762	distant	-0.1222821
-4.419179	distinct	-0.1222821
-4.649053	distinction	-0.1222821
-4.531762	distinguished	-0.1222821
-4.531762	distort	-0.2435762
-4.649053	distortions	-0.1222821
-4.531762	distress	-0.1222821
-4.531762	distribute	-0.1222821
-4.649053	distributed	-0.1222821
-4.649053	distributing	-0.1222821
-4.531762	distribution	-0.2435762
-4.649053	distributors	-0.1222821
-4.649053	disturbed	-0.1222821
-4.419179	disturbing	-0.1222821
-4.649053	disturbs	-0.1222821
-4.649053	disunited	-0.1222821
-4.531762	dive	-0.1222821
-4.419179	diverse	-0.1222821
-4.531762	diversity	-0.1222821
-4.649053	diverted	-0.1222821
-4.649053	divestment	-0.1222821
-4.649053	divide	-0.1222821
-4.531762	divided	-0.2435762
-4.649053	dividing	-0.1222821
-4.649053	divine	-0.1222821
-4.002453	division	-0.1716411
-4.649053	divisions	-0.1222821
-4.649053	divorce	-0.1222821
-4.649053	divulged	-0.1222821
-4.531762	dna	-0.1222821
-4.531762	dnd	-0.1222821
-2.908566	do	-0.4212382
-4.649053	doc	-0.1222821
-4.649053	docks	-0.1222821
-4.531762	doctor	-0.1222821
-4.649053	doctoring	-0.1222821
-4.531762	doctrinaire	-0.1222821
-3.793761	document	-0.1822236
-4.649053	documentation	-0.1222821
-3.717932	documents	-0.2094128
-4.649053	doer	-0.1222821
-2.948083	does	-0.5431977
-3.425398	doing	-0.2397391
-4.649053	doled	-0.1222821
-4.002453	dollar	-0.1222821
-3.653395	dollars	-0.2594092
-4.649053	dom	-0.1222821
-4.649053	domain	-0.1222821
-3.940159	domestic	-0.1402883
-4.419179	domestically	-0.122282
-4.649053	dominant	-0.1222821
-4.649053	dominated	-0.1222821
-4.649053	dominic	-0.1222821
-4.649053	don	-0.1222821
-4.649053	don't	-0.1222821
-4.531762	donate	-0.2435762
-4.272236	donations	-0.1222821
-3.482166	done	-0.2665058
-4.531762	donor	-0.1222821
-4.075202	door	-0.208894
-4.272236	doors	-0.1992729
-4.531762	dorothy	-0.1222821
-4.649053	dosage	-0.1222821
-4.649053	doses	-0.1222821
-4.649053	dotcom	-0.1222821
-4.16264	double	-0.2164557
-4.649053	doubling	-0.1222821
-4.649053	doubly	-0.1222821
-4.419179	doubt	-0.1787083
-4.531762	doubts	-0.1222821
-4.649053	douglas	-0.1222821
-3.078008	down	-0.3904215
-4.649053	downgrading	-0.1222821
-4.531762	downloading	-0.2435762
-4.649053	downright	-0.1222821
-4.531762	downtown	-0.1222821
-4.531762	downturn	-0.1222821
-4.649053	downward	-0.1222821
-4.531762	doyle	-0.1222821
-4.649053	dozy	-0.1222821
-3.940159	dr.	-0.274652
-4.419179	draft	-0.1222821
-4.531762	drafted	-0.2435762
-4.649053	drafting	-0.1222821
-4.531762	dragged	-0.1222821
-4.649053	dragging	-0.1222821
-4.531762	dramatic	-0.1222821
-4.419179	dramatically	-0.1222821
-4.272236	drastic	-0.1787083
-4.419179	drastically	-0.1222821
-4.075202	draw	-0.2441297
-4.649053	drawing	-0.1222821
-4.272236	drawn	-0.1787083
-4.649053	dreadful	-0.1222821
-4.649053	dream	-0.1222821
-4.649053	dreams	-0.1222821
-4.649053	dredged	-0.1222821
-4.419179	dredging	-0.1992729
-4.649053	dress	-0.1222821
-4.649053	dressing	-0.1222821
-4.649053	dries	-0.1222821
-4.649053	drift	-0.1222821
-4.649053	drilling	-0.1222821
-4.649053	drink	-0.1222821
-4.649053	drinking	-0.1222821
-4.649053	drinks	-0.1222821
-4.002453	drive	-0.143981
-4.419179	driven	-0.1222821
-4.649053	driver	-0.1222821
-4.419179	drivers	-0.1222821
-4.649053	drives	-0.1222821
-4.075202	driving	-0.1222821
-4.531762	dromisky	-0.2435762
-4.649053	drones	-0.1222821
-4.16264	drop	-0.1668213
-4.649053	dropout	-0.1222821
-4.272236	dropped	-0.1668213
-4.419179	dropping	-0.1222821
-4.649053	drops	-0.1222821
-4.649053	drouin	-0.1222821
-4.649053	drowning	-0.1222821
-3.330207	drug	-0.2335226
-3.547486	drugs	-0.3553182
-4.419179	drummond	-0.1495794
-4.531762	du	-0.1222821
-4.649053	dual	-0.1222821
-4.649053	duality	-0.1222821
-4.419179	duceppe	-0.1222821
-4.649053	ducharme	-0.1222821
-4.649053	duct	-0.1222821
-3.425398	due	-0.4534648
-4.649053	dug	-0.1222821
-4.531762	duly	-0.1222821
-4.649053	dumb	-0.1222821
-4.649053	dumbstruck	-0.1222821
-4.649053	dumped	-0.1222821
-4.531762	duncan	-0.1222821
-4.649053	dundas	-0.1222821
-4.419179	duplain	-0.1992729
-3.05473	during	-0.380987
-4.649053	dust	-0.1222821
-4.16264	duties	-0.1536229
-4.649053	dutka	-0.1222821
-4.075202	duty	-0.1402884
-4.649053	dwelt	-0.1222821
-4.531762	dying	-0.1222821
-4.649053	dynamic	-0.1222821
-4.649053	dépêche	-0.1222821
-4.649053	e-mail	-0.1222821
-4.531762	e.m.power+	-0.1222821
-3.462407	each	-0.2074946
-4.649053	eager	-0.122282
-4.649053	ear	-0.122282
-3.571641	earlier	-0.2833984
-4.649053	earliest	-0.1222821
-3.482166	early	-0.1803699
-4.649053	earn	-0.1222821
-4.419179	earned	-0.1787083
-4.531762	earners	-0.1222821
-4.16264	earning	-0.1668213
-3.940159	earnings	-0.1625782
-4.531762	earth	-0.1222821
-4.16264	earthquake	-0.1901346
-4.649053	ease	-0.1222821
-4.16264	easier	-0.1668213
-4.16264	easily	-0.1222821
-3.940159	east	-0.2954207
-4.419179	easter	-0.1222821
-4.419179	eastern	-0.1222821
-3.940159	easy	-0.208894
-4.649053	easygoing	-0.1222821
-4.419179	eat	-0.1222821
-4.649053	eating	-0.1222821
-3.425398	economic	-0.1899171
-4.649053	economical	-0.1222821
-4.531762	economically	-0.1222821
-4.419179	economics	-0.122282
-4.419179	economies	-0.1222821
-4.16264	economist	-0.1222821
-4.531762	economists	-0.1222821
-3.482166	economy	-0.3852749
-4.649053	ecstasy	-0.1222821
-4.649053	ed	-0.1222821
-4.649053	edge	-0.1222821
-4.531762	edited	-0.2435762
-4.649053	edition	-0.1222821
-4.649053	editor	-0.1222821
-4.649053	editor-in-chief	-0.1222821
-4.531762	editorial	-0.1222821
-4.649053	editorializing	-0.1222821
-3.88569	edmonton	-0.2600465
-4.531762	educate	-0.1222821
-4.419179	educated	-0.1222821
-3.684466	education	-0.2515298
-4.272236	educational	-0.1222821
-4.649053	edward	-0.1222821
-4.649053	edwards	-0.1222821
-3.547486	effect	-0.3088656
-3.793761	effective	-0.1818913
-4.419179	effectively	-0.1222821
-4.649053	effectiveness	-0.1222821
-4.272236	effects	-0.1720643
-4.649053	efficacy	-0.122282
-4.649053	efficective	-0.1222821
-4.075202	efficiency	-0.1668213
-3.837297	efficient	-0.2800122
-4.16264	efficiently	-0.1874027
-3.793761	effort	-0.2422944
-3.653395	efforts	-0.2073606
-4.531762	eggleton	-0.1222821
-4.649053	eglinton	-0.1222821
-4.649053	eh-101	-0.1222821
-4.649053	eh-101s	-0.1222821
-3.940159	ei	-0.1222821
-4.649053	ei.	-0.1222821
-3.717932	eight	-0.2787995
-4.649053	ein	-0.1222821
-4.649053	eira	-0.1222821
-3.547486	either	-0.1315835
-4.531762	elaborate	-0.1222821
-4.649053	elbows	-0.1222821
-4.419179	elderly	-0.1222821
-4.649053	eldest	-0.1222821
-3.940159	elected	-0.1495794
-3.717932	election	-0.214585
-4.649053	elections	-0.1222821
-4.649053	elective	-0.1222821
-4.419179	electoral	-0.1992729
-4.419179	electric	-0.1222821
-4.649053	electrical	-0.1222821
-4.16264	electricity	-0.1668213
-4.002453	element	-0.416715
-4.075202	elements	-0.1979226
-4.272236	eligibility	-0.1668213
-4.075202	eligible	-0.2600465
-4.419179	eliminate	-0.1787083
-3.940159	eliminated	-0.2413355
-4.531762	eliminates	-0.1222821
-4.075202	eliminating	-0.1862763
-4.419179	elimination	-0.2895751
-4.649053	elinor	-0.1222821
-4.419179	elite	-0.1992729
-4.531762	elk	-0.1222821
-4.531762	ellesmere	-0.2435762
-4.272236	elley	-0.2413355
-4.649053	eloquent	-0.1222821
-4.419179	eloquently	-0.1222821
-3.793761	else	-0.3217219
-4.075202	elsewhere	-0.2228077
-4.649053	elsie	-0.1222821
-4.649053	eluded	-0.1222821
-4.649053	emanation	-0.1222821
-4.649053	embark	-0.1222821
-4.531762	embarrassed	-0.1222821
-4.649053	embarrassment	-0.1222821
-4.649053	embodying	-0.1222821
-4.649053	embrace	-0.1222821
-4.531762	embraced	-0.1222821
-4.649053	embracing	-0.1222821
-4.649053	embryonic	-0.1222821
-4.649053	emerged	-0.1222821
-4.531762	emergencies	-0.1222821
-3.793761	emergency	-0.265544
-4.419179	emerging	-0.1992729
-4.649053	emily	-0.1222821
-4.649053	emission	-0.1222821
-4.075202	emissions	-0.2156124
-4.649053	emitters	-0.1222821
-4.649053	emotional	-0.1222821
-4.649053	empathy	-0.1222821
-4.272236	emphasis	-0.2413355
-4.419179	emphasize	-0.122282
-4.531762	emphasized	-0.2435762
-4.649053	emphasizing	-0.1222821
-4.531762	empire	-0.2435762
-4.649053	empirical	-0.1222821
-4.649053	empirically	-0.1222821
-4.419179	employ	-0.1222821
-4.272236	employed	-0.1222821
-4.075202	employee	-0.1419629
-3.330207	employees	-0.28154
-4.16264	employer	-0.1701845
-4.649053	employer-employee	-0.1222821
-3.754193	employers	-0.1983722
-4.419179	employing	-0.1222821
-3.375199	employment	-0.3545395
-4.419179	empty	-0.1222821
-4.649053	emptying	-0.1222821
-4.16264	enable	-0.1495794
-4.649053	enabling	-0.1222821
-4.531762	enact	-0.1222821
-4.649053	enacted	-0.1222821
-4.531762	enacting	-0.1222821
-4.419179	enactment	-0.1222821
-4.649053	encapsulate	-0.1222821
-4.649053	encoded	-0.1222821
-4.649053	encompasses	-0.1222821
-4.649053	encountered	-0.1222821
-3.88569	encourage	-0.1692969
-4.649053	encouraged	-0.1222821
-4.649053	encouragement	-0.1222821
-4.649053	encourages	-0.1222821
-4.16264	encouraging	-0.1222821
-4.531762	encroached	-0.1222821
-4.531762	encroaching	-0.1222821
-4.531762	encroachment	-0.1222821
-4.649053	encroachments	-0.1222821
-3.502867	end	-0.3311845
-4.531762	endeavour	-0.1222821
-4.649053	ended	-0.1222821
-4.531762	ending	-0.1222821
-4.531762	endless	-0.1222821
-4.531762	endorsed	-0.2435762
-4.272236	ends	-0.2413355
-4.649053	endure	-0.1222821
-4.649053	enduring	-0.1222821
-4.16264	energies	-0.177742
-4.649053	energized	-0.1222821
-3.13773	energy	-0.295626
-4.531762	enforce	-0.1222821
-4.649053	enforced	-0.1222821
-3.6244	enforcement	-0.1705887
-4.649053	enforcing	-0.1222821
-4.16264	engage	-0.4174268
-4.272236	engaged	-0.3382455
-4.419179	engagement	-0.1222821
-4.531762	engaging	-0.1222821
-4.649053	engine	-0.1222821
-4.649053	engineered	-0.1222821
-4.531762	engineering	-0.1222821
-4.649053	england	-0.1222821
-4.16264	enhance	-0.1668213
-4.531762	enhanced	-0.1222821
-4.649053	enhances	-0.1222821
-4.419179	enhancing	-0.1222821
-4.002453	enjoy	-0.1495794
-4.531762	enjoyed	-0.1222821
-4.272236	enlightened	-0.1787083
-4.531762	enlist	-0.1222821
-4.649053	enlisted	-0.1222821
-4.531762	enlisting	-0.1222821
-4.075202	enormous	-0.1419629
-3.240432	enough	-0.3503241
-4.649053	enquired	-0.1222821
-4.531762	enrich	-0.1222821
-4.531762	enriched	-0.1222821
-3.684466	enron	-0.323131
-4.649053	enslavement	-0.1222821
-3.717932	ensure	-0.3544128
-4.531762	ensured	-0.1222821
-4.419179	ensures	-0.122282
-3.6244	ensuring	-0.4428608
-4.649053	entail	-0.1222821
-4.16264	enter	-0.289575
-4.272236	entered	-0.1787083
-4.272236	entering	-0.1787083
-4.531762	enterprise	-0.1222821
-4.649053	enthusiasm	-0.1222821
-4.649053	enthusiast	-0.1222821
-4.649053	enthusiastic	-0.1222821
-4.649053	entice	-0.1222821
-4.419179	entire	-0.1342029
-4.419179	entirely	-0.1222821
-4.649053	entirety	-0.1222821
-3.88569	entitled	-0.3471967
-4.272236	entitlement	-0.2435762
-4.531762	entity	-0.1222821
-4.649053	entrepreneurs	-0.1222821
-4.649053	entrepreneurship	-0.1222821
-4.649053	entry	-0.1222821
-4.649053	enunciating	-0.1222821
-3.571641	environment	-0.2552171
-3.375199	environmental	-0.1653126
-4.531762	environmentalist	-0.1222821
-4.531762	environmentalists	-0.1222821
-4.272236	environmentally	-0.2413355
-4.649053	environments	-0.1222821
-4.649053	epitomizes	-0.1222821
-4.531762	epp	-0.1222821
-4.649053	epresentatives	-0.1222821
-4.531762	equal	-0.1222821
-4.419179	equality	-0.1668213
-3.940159	equalization	-0.1625781
-4.531762	equalize	-0.1222821
-4.649053	equalled	-0.1222821
-4.419179	equally	-0.1222821
-4.531762	equip	-0.1222821
-3.344692	equipment	-0.2821983
-4.16264	equipped	-0.153623
-4.649053	equipping	-0.1222821
-4.419179	equitable	-0.1222821
-4.649053	equitably	-0.1222821
-3.837297	equity	-0.1747269
-4.649053	equivalency	-0.1222821
-4.16264	equivalent	-0.1668213
-4.649053	eritrea	-0.1222821
-4.649053	ernst	-0.1222821
-4.649053	erosion	-0.1222821
-4.531762	error	-0.2435762
-4.649053	escort	-0.1222821
-3.837297	especially	-0.1623522
-4.649053	esquimalt	-0.1222821
-4.419179	essence	-0.122282
-3.793761	essential	-0.1696428
-4.419179	essentially	-0.1222821
-4.531762	essex	-0.1222821
-4.16264	esso	-0.2147707
-4.649053	esso-imperial	-0.1222821
-4.16264	establish	-0.1787083
-3.717932	established	-0.2198679
-4.649053	establishes	-0.1222821
-4.16264	establishing	-0.2147707
-4.649053	establishment	-0.1222821
-4.649053	esteemed	-0.1222821
-4.649053	esther	-0.1222821
-4.649053	esther-blondin	-0.1222821
-4.649053	estimate	-0.1222821
-4.419179	estimated	-0.1222821
-4.16264	estimates	-0.1495794
-4.419179	et	-0.1992729
-4.531762	etc.	-0.1222821
-4.649053	eternal	-0.1222821
-4.272236	ethical	-0.1668213
-4.075202	ethics	-0.153623
-4.649053	ethiopia	-0.1222821
-4.531762	ethnic	-0.1222821
-4.419179	etobicoke	-0.289575
-4.649053	eugene	-0.1222821
-4.272236	europe	-0.1222821
-4.649053	europeans	-0.1222821
-4.649053	euthanasia	-0.1222821
-4.649053	evacuations	-0.1222821
-4.419179	evaluated	-0.2413355
-4.419179	evaluating	-0.1222821
-4.075202	evaluation	-0.2099322
-4.649053	evaluations	-0.122282
-3.186052	even	-0.2214299
-4.531762	evening	-0.1222821
-4.649053	evenly	-0.1222821
-3.754193	event	-0.1983722
-4.16264	events	-0.1668213
-4.649053	eventual	-0.1222821
-4.002453	eventually	-0.1222821
-3.684466	ever	-0.1395536
-4.649053	ever-greening	-0.1222821
-4.649053	ever-increasing	-0.1222821
-4.649053	ever-present	-0.1222821
-4.649053	everest	-0.1222821
-4.649053	everlasting	-0.1222821
-3.289441	every	-0.2073691
-4.002453	everybody	-0.1222821
-3.524603	everyone	-0.2171429
-3.59722	everything	-0.2477262
-4.16264	everywhere	-0.1222821
-3.547486	evidence	-0.4017819
-4.531762	evidence-gathering	-0.1222821
-4.531762	evident	-0.1222821
-4.649053	evidently	-0.1222821
-4.649053	evil	-0.1222821
-4.649053	evils	-0.1222821
-4.649053	evolve	-0.1222821
-4.649053	evolved	-0.1222821
-4.649053	evolves	-0.1222821
-4.649053	ex-minister	-0.1222821
-4.649053	exacerbated	-0.1222821
-4.531762	exact	-0.1222821
-3.88569	exactly	-0.1780639
-4.649053	exaggerated	-0.1222821
-4.649053	exaggerates	-0.1222821
-4.649053	exaggerating	-0.1222821
-4.649053	exaggerations	-0.1222821
-4.272236	examination	-0.2413355
-4.16264	examine	-0.1712182
-4.419179	examined	-0.1222821
-4.531762	examining	-0.1222821
-3.684466	example	-0.3686015
-3.837297	examples	-0.3777097
-4.531762	exceed	-0.1222821
-4.649053	exceeding	-0.1222821
-4.649053	exceeds	-0.1222821
-4.531762	excellence	-0.1222821
-4.16264	excellent	-0.1222821
-4.419179	except	-0.1787083
-4.531762	exception	-0.1222821
-4.272236	exceptional	-0.1222821
-4.649053	excerpt	-0.1222821
-4.649053	excerpts	-0.1222821
-4.531762	excess	-0.1222821
-4.649053	excesses	-0.1222821
-4.649053	excessive	-0.1222821
-4.272236	exchange	-0.1787083
-4.649053	exchanges	-0.1222821
-4.531762	excise	-0.2435762
-4.649053	excited	-0.1222821
-4.531762	excitement	-0.1222821
-4.649053	exciting	-0.1222821
-4.419179	exclude	-0.1787083
-4.16264	excluded	-0.1668213
-4.531762	exclusion	-0.1222821
-4.419179	exclusive	-0.1222821
-4.649053	exclusively	-0.1222821
-4.649053	excrete	-0.1222821
-4.531762	excuse	-0.1222821
-4.075202	executive	-0.1495794
-4.002453	executives	-0.1495794
-4.649053	exemplary	-0.1222821
-4.649053	exempt	-0.1222821
-4.649053	exempted	-0.1222821
-4.419179	exemption	-0.1787083
-4.649053	exemptions	-0.122282
-4.419179	exercise	-0.122282
-4.649053	exert	-0.1222821
-4.419179	exhaust	-0.1222821
-4.649053	exhausted	-0.1222821
-4.649053	exhaustion	-0.1222821
-4.16264	exist	-0.1590736
-4.272236	existed	-0.1222821
-4.419179	existence	-0.1222821
-3.940159	existing	-0.1357163
-4.002453	exists	-0.122282
-4.649053	exits	-0.1222821
-4.419179	expand	-0.1222821
-4.649053	expanded	-0.1222821
-4.531762	expanding	-0.1222821
-4.649053	expansion	-0.1222821
-3.754193	expect	-0.1814811
-4.649053	expectancy	-0.1222821
-4.531762	expectations	-0.2435762
-4.075202	expected	-0.2442682
-4.649053	expecting	-0.1222821
-4.649053	expects	-0.1222821
-4.649053	expeditious	-0.1222821
-4.419179	expeditiously	-0.1992729
-4.649053	expelled	-0.1222821
-4.419179	expenditure	-0.1222821
-4.531762	expenditures	-0.1222821
-4.649053	expense	-0.1222821
-3.717932	expenses	-0.2442682
-4.419179	expensive	-0.1222821
-3.717932	experience	-0.2537606
-4.16264	experienced	-0.1222821
-4.419179	experiences	-0.1222821
-4.531762	experiencing	-0.1222821
-4.649053	experiment	-0.1222821
-4.531762	expert	-0.1222821
-4.075202	expertise	-0.1862763
-4.075202	experts	-0.2315272
-4.649053	expired	-0.1222821
-4.649053	expiry	-0.1222821
-3.717932	explain	-0.231201
