
\data\
ngram 1=9383
ngram 2=65147
ngram 3=18945

\1-grams:
-2.857326	$	-0.334056
-3.039496	%	-0.4584414
-4.271746	&amp	-0.4158188
-3.32982	'	-0.1507585
-2.887124	''	-0.6527683
-2.70505	's	-0.1694047
-2.582216	(	-0.2189444
-4.647435	(5)	-0.1225144
-4.418642	(a)	-0.1225144
-4.532062	(b)	-0.1225144
-4.532062	(i)	-0.2425788
-3.018128	)	-0.2915006
-4.532062	*	-0.1225144
-1.460469	,	-0.739517
-2.579676	--	-0.2382531
-1.443668	.	-1.649157
-3.717526	..	-0.1377644
-4.647435	.223	-0.1225144
-4.647435	.44	-0.1225144
-4.647435	.45	-0.1225144
-4.647435	045	-0.1225144
-4.074755	1	-0.1464738
-4.074755	1,000	-0.1225144
-4.532062	1,200	-0.1225144
-4.532062	1,500	-0.1225144
-4.647435	1,846	-0.1225144
-4.647435	1.10	-0.1225144
-4.647435	1.2	-0.1225144
-4.647435	1.22	-0.1225144
-4.647435	1.25	-0.1225144
-4.647435	1.3	-0.1225144
-4.647435	1.30	-0.1225144
-4.647435	1.4	-0.1225144
-4.647435	1.5	-0.1225144
-4.647435	1.5¢	-0.1225144
-4.647435	1.6	-0.1225144
-4.647435	1/25th	-0.1225144
-3.217473	10	-0.4996384
-4.162176	10,000	-0.1589682
-3.836881	100	-0.1859776
-4.532062	100,000	-0.1225144
-4.647435	101	-0.1225144
-4.647435	109	-0.1225144
-4.647435	10th	-0.1225144
-4.074755	11	-0.178285
-3.793348	112	-0.7194088
-4.647435	113,000	-0.1225144
-4.647435	115	-0.1225144
-4.647435	118	-0.1225144
-4.647435	118.2(2)(n)	-0.1225144
-4.647435	119	-0.1225144
-4.647435	11:06	-0.1225144
-4.647435	11th	-0.1225144
-3.753784	12	-0.1358286
-4.647435	120,000	-0.1225144
-4.647435	122	-0.1225144
-4.647435	125th	-0.1225144
-4.647435	128	-0.1225144
-4.647435	12:06	-0.1225144
-4.647435	12:30	-0.1225144
-4.162176	13	-0.1589682
-4.647435	13(5)	-0.1225144
-4.647435	13.2	-0.1225144
-4.418642	130	-0.1225144
-4.532062	131,000	-0.1225144
-4.532062	136	-0.1225144
-4.647435	137	-0.1225144
-4.532062	139	-0.1987645
-3.652994	14	-0.3498566
-4.532062	140	-0.1225144
-3.547091	15	-0.3306127
-4.532062	15,000	-0.1225144
-4.647435	15.1	-0.1225144
-4.162176	150	-0.1589682
-4.647435	150,000	-0.1225144
-4.647435	150th	-0.1225144
-4.647435	16	-0.1225144
-4.647435	160	-0.1225144
-4.647435	166	-0.1225144
-4.647435	16th	-0.1225144
-4.002017	17	-0.2093107
-4.647435	17(10)	-0.1225144
-4.647435	17(4)	-0.1225144
-4.647435	17(7)	-0.1225144
-4.647435	17(8)	-0.1225144
-4.647435	17.5	-0.1225144
-4.532062	170	-0.1225144
-4.647435	170,000	-0.1225144
-4.647435	178	-0.1225144
-3.717526	18	-0.1823382
-4.647435	180	-0.1225144
-4.647435	1800	-0.1225144
-4.647435	184	-0.1225144
-4.647435	185	-0.1225144
-4.647435	1850	-0.1225144
-4.532062	1853	-0.2425788
-4.647435	188	-0.1225144
-4.647435	1891	-0.1225144
-4.647435	18th	-0.1225144
-4.074755	19	-0.1225144
-4.418642	1901	-0.2422875
-4.647435	1906	-0.1225144
-4.647435	1909-10	-0.1225144
-4.532062	1910	-0.1225144
-4.532062	1911	-0.1784106
-4.647435	1918	-0.1225144
-4.647435	1920s	-0.1225144
-4.647435	1927	-0.1225144
-4.532062	1928	-0.2425788
-4.532062	1929	-0.1225144
-4.647435	1930s	-0.1225144
-4.647435	1934	-0.1225144
-4.647435	1942	-0.1225144
-4.647435	1946	-0.1225144
-4.532062	1950	-0.1225144
-4.647435	1960	-0.1225144
-4.647435	1962	-0.1225144
-4.647435	1966	-0.1225144
-4.647435	197	-0.1225144
-4.532062	1970	-0.1225144
-4.532062	1970s	-0.1225144
-4.647435	1972	-0.1225144
-4.647435	1973	-0.1225144
-4.647435	1974	-0.1225144
-4.647435	1976	-0.1225144
-4.532062	1977	-0.1225144
-4.532062	1979	-0.1225144
-4.647435	1980s	-0.1225144
-4.532062	1983	-0.1225144
-4.647435	1985	-0.1225144
-4.532062	1987	-0.2425787
-4.532062	1988	-0.1225144
-4.532062	1990	-0.1225144
-4.647435	1990s	-0.1225144
-4.647435	1991	-0.1225144
-4.532062	1993	-0.1987645
-4.532062	1994	-0.1225144
-4.647435	1994-95	-0.1225144
-4.647435	1995	-0.1225144
-4.271746	1996	-0.1870172
-4.418642	1997	-0.1495639
-4.074755	1998	-0.1837752
-4.647435	1998-2002	-0.1225144
-4.162176	1999	-0.1589682
-3.753784	2	-0.2169071
-4.271746	2,000	-0.1225144
-4.647435	2,136	-0.1225144
-4.647435	2,386	-0.1225144
-4.647435	2.25	-0.1225144
-4.647435	2.3	-0.1225144
-4.647435	2.6	-0.1225144
-4.647435	2.8	-0.1225144
-4.418642	2.9	-0.1225144
-3.240048	20	-0.6050436
-4.647435	20,000	-0.1225144
-4.647435	20-year	-0.1225144
-4.647435	20-year-old	-0.1225144
-4.162176	200	-0.1225144
-4.647435	200,000	-0.1225144
-3.885269	2000	-0.1870171
-3.939731	2001	-0.2440026
-3.793348	2002	-0.2197847
-4.418642	2002-03	-0.1784106
-3.652994	2003	-0.2576563
-4.271746	2004	-0.3093314
-4.532062	2005	-0.2157635
-4.074755	2006	-0.1495639
-4.271746	2007	-0.3391975
-4.647435	200th	-0.1225144
-4.647435	201	-0.1225144
-4.418642	2010	-0.1987645
-4.532062	2012	-0.1225144
-4.532062	202	-0.1225144
-4.002017	2020	-0.2294375
-4.647435	2025	-0.1225144
-4.647435	2030	-0.1225144
-4.647435	2040	-0.1225144
-4.647435	2045	-0.1225144
-4.647435	205	-0.1225144
-4.418642	2050	-0.1784106
-4.647435	2060	-0.1225144
-4.647435	2098	-0.1225144
-4.647435	20a	-0.1225144
-4.532062	20th	-0.1987645
-4.002017	21	-0.2422875
-4.162176	22	-0.166641
-4.647435	22,803	-0.1225144
-4.647435	222	-0.1225144
-4.647435	227	-0.1225144
-4.647435	22e	-0.1225144
-4.647435	22nd	-0.1225144
-3.939731	23	-0.3235277
-4.271746	23,000	-0.1784106
-4.647435	230	-0.1225144
-3.753784	24	-0.1737695
-4.647435	24(1)	-0.1225144
-4.647435	24-month	-0.1225144
-4.647435	240	-0.1225144
-4.532062	242	-0.1225144
-4.647435	243	-0.1225144
-4.647435	244	-0.1225144
-4.532062	245	-0.1225144
-4.532062	247	-0.1225144
-4.532062	249	-0.1225144
-4.647435	24th	-0.1225144
-3.390908	25	-0.5484974
-4.647435	25(4)	-0.1225144
-4.647435	25,000	-0.1225144
-4.647435	25-year	-0.1225144
-4.532062	250	-0.1225144
-4.532062	25th	-0.2425788
-4.532062	26	-0.1225144
-4.647435	26,500	-0.1225144
-4.647435	260	-0.1225144
-4.647435	27	-0.1225144
-4.647435	27,000	-0.1225144
-4.647435	270	-0.1225144
-3.684062	28	-0.3169371
-4.647435	285,000	-0.1225144
-4.162176	29	-0.2157635
-4.647435	2nd	-0.1225144
-3.885269	3	-0.1623509
-4.532062	3(1)	-0.1225144
-4.647435	3(2)	-0.1225144
-4.418642	3,000	-0.1225144
-4.647435	3,001	-0.1225144
-4.647435	3,500	-0.1225144
-4.647435	3.25	-0.1225144
-4.647435	3.36	-0.1225144
-4.647435	3.5	-0.1225144
-4.647435	3.68	-0.1225144
-4.647435	3.86	-0.1225144
-3.571245	30	-0.3034377
-4.647435	30,000	-0.1225144
-4.647435	30.1	-0.1225144
-4.532062	300	-0.1225144
-4.647435	300,000	-0.1225144
-4.647435	304	-0.1225144
-4.532062	31	-0.1225144
-4.532062	318	-0.2425788
-4.532062	319	-0.2425788
-4.647435	31s	-0.1225144
-4.647435	32	-0.1225144
-4.647435	325	-0.1225144
-4.271746	33	-0.1225144
-4.647435	34	-0.1225144
-4.647435	34(1)	-0.1225144
-4.271746	35	-0.166641
-4.418642	350	-0.1987644
-4.532062	36	-0.1225144
-4.647435	36(8)	-0.1225144
-4.647435	3675	-0.1225144
-4.647435	37th	-0.1225144
-4.532062	38	-0.1225144
-4.647435	382	-0.1225144
-4.647435	397	-0.1225144
-4.647435	3:04	-0.1225144
-4.647435	3rd	-0.1225144
-4.647435	3¢	-0.1225144
-4.162176	4	-0.2155445
-4.647435	4,000	-0.1225144
-4.647435	4,500	-0.1225144
-4.532062	4.3	-0.1225144
-4.647435	4.5	-0.1225144
-4.647435	4.7	-0.1225144
-4.647435	4.9	-0.1225144
-3.717526	40	-0.3025292
-4.647435	40.4	-0.1225144
-4.162176	400	-0.1225144
-4.532062	406	-0.1225144
-4.647435	40th	-0.1225144
-4.532062	41	-0.1225144
-4.647435	414	-0.1225144
-4.647435	417	-0.1225144
-4.647435	42.1	-0.1225144
-4.532062	43	-0.2425787
-4.647435	43.2	-0.1225144
-4.647435	430	-0.1225144
-4.418642	44	-0.1987645
-4.532062	443	-0.1225144
-4.418642	45	-0.1784106
-4.647435	45,000	-0.1225144
-4.647435	450	-0.1225144
-4.647435	455	-0.1225144
-4.647435	46	-0.1225144
-4.647435	46th	-0.1225144
-4.647435	472	-0.1225144
-4.647435	47th	-0.1225144
-4.532062	48	-0.1225144
-4.647435	487.013	-0.1225144
-4.647435	487.015	-0.1225144
-4.647435	49	-0.1225144
-4.647435	4922	-0.1225144
-4.647435	4th	-0.1225144
-3.717526	5	-0.2712648
-4.532062	5,000	-0.1225144
-4.647435	5,398	-0.1225144
-3.793348	50	-0.3583483
-4.074755	50,000	-0.1589682
-4.647435	50-50	-0.1225144
-4.647435	50-year	-0.1225144
-4.418642	500	-0.1225144
-4.647435	54	-0.1225144
-4.647435	544,000	-0.1225144
-4.532062	55	-0.1225144
-4.532062	56	-0.1225144
-4.647435	5675	-0.1225144
-4.647435	57	-0.1225144
-4.647435	59	-0.1225144
-4.647435	597	-0.1225144
-4.647435	5:24	-0.1225144
-4.418642	5:29	-0.2908801
-4.532062	5:30	-0.1225144
-3.885269	6	-0.1986767
-4.647435	6,000	-0.1225144
-4.647435	6.5	-0.1225144
-4.532062	60	-0.1987644
-4.162176	60,000	-0.166641
-4.532062	600,000	-0.1225144
-4.647435	606	-0.1225144
-4.418642	61	-0.1225144
-4.532062	64	-0.1225144
-4.647435	640	-0.1225144
-4.532062	65	-0.1225144
-4.647435	650	-0.1225144
-4.532062	66	-0.1225144
-4.532062	66.4¢	-0.1225144
-4.647435	68,000	-0.1225144
-4.647435	69	-0.1225144
-4.647435	6:22	-0.1225144
-4.647435	6:24	-0.1225144
-4.647435	6:30	-0.1225144
-4.074755	7	-0.2093107
-4.647435	7%,10	-0.1225144
-4.647435	7.5	-0.1225144
-4.647435	7.7	-0.1225144
-4.271746	70	-0.2422875
-4.532062	700	-0.1225144
-4.647435	700,000	-0.1225144
-4.647435	71	-0.1225144
-4.532062	72	-0.1225144
-4.532062	74.9¢	-0.1225144
-4.418642	75	-0.1225144
-4.647435	750,000	-0.1225144
-4.647435	75th	-0.1225144
-4.647435	7:09	-0.1225144
-4.647435	7:19	-0.1225144
-4.418642	8	-0.1987645
-4.647435	8.1	-0.1225144
-4.647435	8.7	-0.1225144
-3.939731	80	-0.3673233
-4.271746	80,000	-0.1225144
-4.418642	800	-0.1225144
-4.647435	800,000	-0.1225144
-4.532062	801	-0.1225144
-4.647435	81	-0.1225144
-4.647435	83	-0.1225144
-4.532062	84	-0.1225144
-4.647435	84,000	-0.1225144
-4.532062	85	-0.1225144
-4.647435	850,000	-0.1225144
-4.647435	88	-0.1225144
-4.647435	89	-0.1225144
-4.647435	89.4	-0.1225144
-4.074755	9	-0.2603283
-4.532062	9.95	-0.2425787
-4.532062	9/11	-0.1225144
-4.532062	90	-0.2425787
-4.647435	90,000	-0.1225144
-4.532062	900	-0.1225144
-4.647435	91,000	-0.1225144
-3.596822	92	-0.6991913
-4.647435	92-year	-0.1225144
-4.647435	93	-0.1225144
-4.647435	95	-0.1225144
-4.418642	96	-0.1225144
-4.162176	99	-0.166641
-4.647435	9:14	-0.1225144
-2.663192	:	-0.4147798
-2.751377	;	-0.3360459
-2.600424	</s>
-99	<s>	-1.113371
-2.297386	?	-1.639323
-4.162176	[	-0.2155445
-4.162176	]	-0.2157635
-3.302223	``	-0.1652227
-2.115379	a	-0.3733382
-4.532062	a.	-0.1225144
-4.162176	a.m.	-0.2908801
-4.647435	abbotsford	-0.1225144
-4.532062	abbott	-0.1225144
-4.647435	abhor	-0.1225144
-4.418642	abilities	-0.1987645
-4.002017	ability	-0.2857976
-4.271746	abitibi	-0.1985889
-4.271746	abitibi-témiscamingue	-0.162439
-3.885269	able	-0.7680014
-4.532062	ablonczy	-0.1987645
-4.647435	abolish	-0.1225144
-4.162176	aboriginal	-0.1589682
-2.555061	about	-0.4140013
-4.647435	about-face	-0.1225144
-4.162176	above	-0.1225144
-4.647435	above-mentioned	-0.1225144
-3.885269	abroad	-0.3746802
-4.647435	absence	-0.1225144
-4.647435	absences	-0.1225144
-4.418642	absent	-0.1225144
-4.418642	absolute	-0.1225144
-3.596822	absolutely	-0.1789724
-4.647435	absorb	-0.1225144
-4.647435	absurd	-0.1225144
-4.647435	abundant	-0.1225144
-3.939731	abuse	-0.178285
-4.647435	abuses	-0.1225144
-4.647435	acadie	-0.1225144
-4.647435	accede	-0.1225144
-4.162176	accelerate	-0.2655357
-4.532062	accelerated	-0.1225144
-4.647435	accelerating	-0.1225144
-4.647435	accent	-0.1225144
-3.885269	accept	-0.3145026
-3.836881	acceptable	-0.166641
-4.647435	acceptance	-0.1225144
-4.162176	accepted	-0.1225144
-4.418642	accepting	-0.1225144
-4.647435	accepts	-0.1225144
-3.276276	access	-0.5117496
-4.532062	accessible	-0.1225144
-4.418642	accident	-0.1784106
-4.647435	accidents	-0.1225144
-4.647435	acclaimed	-0.1225144
-4.647435	accolades	-0.1225144
-4.647435	accommodate	-0.1225144
-4.647435	accommodation	-0.1225144
-4.647435	accommodations	-0.1225144
-4.271746	accompanied	-0.2425788
-4.532062	accompany	-0.1225144
-4.647435	accompanying	-0.1225144
-4.647435	accompli	-0.1225144
-4.532062	accomplish	-0.1225144
-4.647435	accomplished	-0.1225144
-4.647435	accomplishments	-0.1225144
-4.418642	accord	-0.166641
-4.647435	accordance	-0.1225144
-4.162176	according	-0.5127289
-4.162176	accordingly	-0.2709104
-4.647435	accords	-0.1225144
-4.074755	account	-0.1560528
-4.074755	accountability	-0.2230984
-3.939731	accountable	-0.1905081
-4.532062	accountant	-0.1225144
-4.271746	accountants	-0.2157635
-4.647435	accounted	-0.1225144
-4.162176	accounting	-0.166641
-4.271746	accounts	-0.1985889
-4.647435	accrue	-0.1225144
-4.532062	accumulate	-0.1225144
-4.271746	accumulated	-0.1225144
-4.532062	accumulating	-0.2425788
-3.939731	accurate	-0.3145026
-4.647435	accurately	-0.1225144
-4.532062	accusations	-0.1225144
-4.271746	accused	-0.1784106
-4.074755	achieve	-0.1589682
-4.271746	achieved	-0.1225144
-4.418642	achievement	-0.1987644
-4.647435	achievements	-0.1225144
-4.647435	achieves	-0.1225144
-4.418642	achieving	-0.1987645
-4.647435	acid	-0.1225144
-4.162176	acknowledge	-0.2230984
-4.647435	acknowledged	-0.1225144
-4.647435	acknowledgement	-0.1225144
-4.532062	acknowledges	-0.2425788
-4.647435	acknowledging	-0.1225144
-4.647435	acknowledgment	-0.1225144
-4.532062	acoa	-0.1225144
-4.647435	acquiescence	-0.1225144
-4.418642	acquired	-0.1225144
-4.647435	acquiring	-0.1225144
-4.647435	acquisition	-0.1225144
-4.647435	acres	-0.1225144
-3.093869	across	-0.7426569
-3.165691	act	-0.442232
-4.074755	acted	-0.1225144
-4.074755	acting	-0.1589682
-3.793348	action	-0.2448626
-3.793348	actions	-0.1389599
-4.647435	activation	-0.1225144
-3.939731	active	-0.1225144
-4.418642	actively	-0.1225144
-4.647435	activism	-0.1225144
-4.532062	activist	-0.1225144
-3.547091	activities	-0.1904048
-3.753784	activity	-0.2603283
-4.418642	acts	-0.166641
-3.939731	actual	-0.1377644
-3.276276	actually	-0.1676569
-4.647435	actuarial	-0.1225144
-4.647435	actuary	-0.1225144
-4.647435	ad	-0.1225144
-4.647435	adam	-0.1225144
-4.271746	adams	-0.1784106
-4.647435	adapt	-0.1225144
-3.793348	add	-0.1850331
-3.836881	added	-0.1837752
-4.647435	addictions	-0.1225144
-4.271746	adding	-0.1784106
-4.532062	addition	-0.1225144
-3.462015	additional	-0.1560528
-4.647435	additionally	-0.1225144
-3.652994	address	-0.2219457
-3.684062	addressed	-0.2283937
-4.271746	addresses	-0.1225144
-4.162176	addressing	-0.2155445
-4.418642	adds	-0.1225144
-3.652994	adequate	-0.1637478
-4.162176	adequately	-0.1225144
-4.647435	adherence	-0.1225144
-4.532062	adjourn	-0.1225144
-4.532062	adjourned	-0.1225144
-4.418642	adjournment	-0.1784106
-4.647435	adjust	-0.1225144
-4.532062	adjustment	-0.1225144
-4.532062	adjustments	-0.1225144
-4.532062	administer	-0.1225144
-4.532062	administered	-0.1225144
-4.532062	administers	-0.2425788
-4.074755	administration	-0.1987645
-4.162176	administrative	-0.1225144
-4.532062	administrator	-0.1987644
-4.418642	administrators	-0.1225144
-4.532062	admirable	-0.1225144
-4.647435	admiration	-0.1225144
-4.647435	admired	-0.1225144
-4.532062	admission	-0.1225144
-3.885269	admit	-0.3831654
-4.532062	admitted	-0.1225144
-4.647435	admitting	-0.1225144
-4.532062	adolescents	-0.2425788
-4.271746	adopt	-0.3391975
-3.885269	adopted	-0.1589682
-4.532062	adopting	-0.1225144
-4.647435	adoption	-0.1225144
-4.647435	adq	-0.1225144
-4.647435	adrienne	-0.1225144
-4.074755	adult	-0.2423846
-4.532062	adults	-0.1225144
-4.271746	advance	-0.1225144
-4.647435	advanced	-0.1225144
-4.532062	advancement	-0.1225144
-4.647435	advances	-0.1225144
-4.647435	advancing	-0.1225144
-3.793348	advantage	-0.2787647
-4.532062	advantageous	-0.1225144
-4.162176	advantages	-0.2155445
-4.647435	adventure	-0.1225144
-4.647435	adverse	-0.1225144
-4.647435	adversely	-0.1225144
-4.532062	advertise	-0.1225144
-4.647435	advertisement	-0.1225144
-4.647435	advertisements	-0.1225144
-4.074755	advertising	-0.1868707
-3.939731	advice	-0.1986767
-4.271746	advise	-0.2422875
-4.162176	advised	-0.166641
-4.647435	advisement	-0.1225144
-4.647435	advising	-0.1225144
-4.074755	advisory	-0.1589682
-4.647435	advocacy	-0.1225144
-4.532062	advocate	-0.1225144
-4.271746	advocated	-0.1225144
-4.647435	advocates	-0.1225144
-4.647435	advocating	-0.1225144
-4.647435	aerospace	-0.1225144
-4.418642	affair	-0.2157635
-3.793348	affairs	-0.2338966
-3.939731	affect	-0.3522912
-3.684062	affected	-0.2372507
-3.836881	affecting	-0.3043481
-4.271746	affects	-0.1225144
-4.647435	affirmatively	-0.1225144
-4.162176	afford	-0.1535694
-4.418642	affordable	-0.1987645
-4.532062	afforded	-0.1225144
-4.647435	affords	-0.1225144
-4.074755	afghanistan	-0.2197847
-4.647435	aficionado	-0.1225144
-4.647435	afloat	-0.1225144
-4.647435	afoot	-0.1225144
-4.532062	afraid	-0.1225144
-4.418642	africa	-0.1225144
-3.011233	after	-0.3194774
-4.532062	afternoon	-0.1225144
-4.532062	afterward	-0.1225144
-4.647435	afterwards	-0.1225144
-3.228614	again	-0.3508623
-3.156037	against	-0.2921562
-3.836881	age	-0.2215638
-4.271746	agencies	-0.1225144
-3.717526	agency	-0.2084575
-4.418642	agenda	-0.1225144
-4.647435	agents	-0.1225144
-4.418642	ages	-0.1225144
-4.418642	aggravated	-0.2908801
-4.162176	aggravating	-0.2422875
-4.418642	aging	-0.1987645
-4.532062	agitated	-0.1225144
-3.836881	ago	-0.2876954
-3.547091	agree	-0.5295293
-3.571245	agreed	-0.397231
-4.532062	agreeing	-0.2425787
-3.652994	agreement	-0.3435154
-4.074755	agreements	-0.1225144
-4.271746	agrees	-0.1784106
-4.647435	agri-food	-0.1225144
-4.418642	agricultural	-0.1784106
-4.074755	agriculture	-0.1535694
-3.717526	ahead	-0.2868817
-4.647435	ahmad	-0.1225144
-4.074755	aid	-0.1225144
-4.532062	aids	-0.1225144
-4.532062	aim	-0.1225144
-4.532062	aimed	-0.2425787
-4.647435	aims	-0.1225144
-3.596822	air	-0.4386827
-4.647435	airborne	-0.1225144
-4.647435	airbus	-0.1225144
-3.885269	aircraft	-0.173846
-4.647435	airframe	-0.1225144
-4.647435	airframes	-0.1225144
-4.647435	airlift	-0.1225144
-4.418642	airline	-0.1784106
-4.647435	airlines	-0.1225144
-4.647435	airplane	-0.1225144
-4.418642	airport	-0.1225144
-4.271746	airports	-0.1225144
-4.647435	ajax	-0.1225144
-4.647435	al	-0.1225144
-4.647435	alan	-0.1225144
-4.647435	alarm	-0.1225144
-4.418642	alaska	-0.1225144
-4.532062	alberni	-0.1535694
-4.647435	albert	-0.1225144
-3.885269	alberta	-0.3194963
-4.162176	albertans	-0.166641
-4.647435	albino	-0.1225144
-4.647435	alcock	-0.1225144
-3.793348	alcohol	-0.1389599
-4.647435	alcoholic	-0.1225144
-4.647435	aldershot	-0.1225144
-4.647435	alexa	-0.1225144
-4.647435	alice	-0.1225144
-4.647435	align	-0.1225144
-4.647435	alike	-0.1225144
-4.418642	alive	-0.1225144
-2.70505	all	-0.374297
-4.647435	allan	-0.1225144
-4.532062	allard	-0.1225144
-4.647435	allay	-0.1225144
-4.532062	allegation	-0.1225144
-4.271746	allegations	-0.1225144
-4.532062	alleged	-0.1225144
-4.647435	allegorically	-0.1225144
-4.647435	alleviate	-0.1225144
-4.647435	alleviating	-0.1225144
-4.647435	alley	-0.1225144
-4.418642	alliance	-0.1838678
-4.532062	allies	-0.1589682
-4.532062	allocate	-0.1784106
-4.418642	allocated	-0.2908801
-4.647435	allocating	-0.1225144
-4.532062	allocation	-0.2425788
-4.647435	allocations	-0.1225144
-4.647435	allotted	-0.1225144
-3.753784	allow	-0.2165661
-4.532062	allowable	-0.1225144
-4.074755	allowance	-0.1589148
-4.271746	allowances	-0.166641
-3.885269	allowed	-0.2001395
-4.074755	allowing	-0.1589682
-3.939731	allows	-0.1718326
-4.532062	alluded	-0.2425787
-4.647435	alludes	-0.1225144
-4.647435	ally	-0.1225144
-3.547091	almost	-0.1225144
-3.836881	alone	-0.2334388
-3.547091	along	-0.4193134
-4.647435	alouette	-0.1225144
-4.647435	alpha	-0.1225144
-3.359291	already	-0.1614189
-3.039496	also	-0.1735596
-4.162176	alternative	-0.1589682
-4.532062	alternatives	-0.1225144
-4.532062	alters	-0.1225144
-4.532062	although	-0.1637478
-4.532062	altogether	-0.1225144
-3.462015	always	-0.1710438
-4.074755	am	-0.1303549
-4.647435	am.	-0.1225144
-4.647435	amateur	-0.1225144
-4.647435	amazement	-0.1225144
-4.647435	amazing	-0.1225144
-4.647435	ambassador	-0.1225144
-4.647435	ambassadors	-0.1225144
-4.647435	ambiguities	-0.1225144
-4.647435	ambiguity	-0.1225144
-4.647435	ambiguous	-0.1225144
-4.162176	amend	-0.178285
-4.162176	amended	-0.1904047
-4.532062	amending	-0.2425788
-3.836881	amendment	-0.1589682
-3.276276	amendments	-0.2959408
-4.271746	amends	-0.2422875
-4.162176	america	-0.1589682
-3.885269	american	-0.1473863
-4.532062	americans	-0.1225144
-4.647435	amidst	-0.1225144
-4.532062	ammunition	-0.2425788
-4.532062	amnesty	-0.1225144
-3.652994	among	-0.1747984
-3.524209	amount	-0.47089
-4.532062	amounted	-0.2425787
-3.684062	amounts	-0.2752369
-4.647435	amused	-0.1225144
-2.587341	an	-0.2958159
-4.418642	analyses	-0.1225144
-4.002017	analysis	-0.1535694
-4.647435	analysts	-0.1225144
-4.532062	analyze	-0.2425788
-4.532062	analyzed	-0.1225144
-4.647435	analyzing	-0.1225144
-4.532062	ancaster	-0.2425787
-1.623154	and	-0.4008184
-4.418642	and/or	-0.1225144
-4.647435	anders	-0.1225144
-4.162176	anderson	-0.5127288
-4.647435	andrew	-0.1225144
-4.647435	andré	-0.1225144
-4.647435	andtwelve	-0.1225144
-4.532062	andy	-0.1225144
-4.647435	anecdotal	-0.1225144
-4.532062	angle	-0.1225144
-4.271746	animal	-0.1225144
-4.647435	animals	-0.1225144
-4.647435	anita	-0.1225144
-4.532062	anne	-0.1225144
-3.885269	anniversary	-0.3060858
-4.532062	announce	-0.1225144
-3.596822	announced	-0.1737695
-4.271746	announcement	-0.1535694
-4.647435	announces	-0.1225144
-4.418642	annual	-0.1225144
-4.532062	annually	-0.1225144
-4.647435	annum	-0.1225144
-4.418642	anomaly	-0.1225144
-3.263861	another	-0.1745025
-3.596822	answer	-0.2711555
-3.836881	answered	-0.1823382
-4.532062	answering	-0.1225144
-4.271746	answers	-0.166641
-4.647435	antarctic	-0.1225144
-4.647435	anti-ballistic	-0.1225144
-4.647435	anti-depressant	-0.1225144
-4.647435	anti-poverty	-0.1225144
-4.647435	anti-scab	-0.1225144
-4.532062	anti-semitic	-0.1225144
-4.647435	anti-semitism	-0.1225144
-4.647435	anti-terrorist	-0.1225144
-4.647435	anti-tobacco	-0.1225144
-4.647435	antibiotics	-0.1225144
-4.647435	anticipate	-0.1225144
-4.532062	anticipated	-0.1225144
-4.647435	antigonish	-0.1225144
-4.532062	antiquated	-0.2425788
-4.532062	anxiety	-0.2425788
-4.647435	anxious	-0.1225144
-2.965807	any	-0.1898684
-3.885269	anybody	-0.2857976
-4.647435	anymore	-0.1225144
-3.547091	anyone	-0.2674479
-3.481773	anything	-0.2557724
-4.271746	anyway	-0.1784106
-3.836881	anywhere	-0.1904048
-4.532062	apart	-0.1225144
-4.647435	apathy	-0.1225144
-4.647435	apf	-0.1225144
-4.647435	apollo	-0.1225144
-4.647435	apologies	-0.1225144
-4.647435	apologist	-0.1225144
-4.532062	apologize	-0.1225144
-4.647435	apoplectic	-0.1225144
-4.647435	apostle	-0.1225144
-4.647435	appalled	-0.1225144
-4.647435	appalling	-0.1225144
-4.418642	apparent	-0.1225144
-4.418642	apparently	-0.1225144
-3.793348	appeal	-0.2231779
-4.647435	appealed	-0.1225144
-4.647435	appeals	-0.1225144
-4.162176	appear	-0.1535694
-4.074755	appeared	-0.2655357
-4.647435	appearing	-0.1225144
-4.074755	appears	-0.2655357
-4.418642	applaud	-0.1225144
-4.647435	applauded	-0.1225144
-4.647435	apples	-0.1225144
-3.939731	applicable	-0.2448627
-4.647435	applicants	-0.1225144
-4.271746	application	-0.1535694
-4.532062	applications	-0.1225144
-4.162176	applied	-0.1718326
-4.532062	applies	-0.1225144
-3.836881	apply	-0.2563259
-4.532062	applying	-0.2425787
-4.647435	appoint	-0.1225144
-4.162176	appointed	-0.1870172
-4.647435	appointing	-0.1225144
-4.002017	appreciate	-0.1986474
-4.647435	appreciated	-0.1225144
-4.647435	apprehended	-0.1225144
-4.647435	apprised	-0.1225144
-3.571245	approach	-0.3051028
-4.532062	approached	-0.1225144
-4.647435	approaches	-0.1225144
-4.532062	approaching	-0.1225144
-3.652994	appropriate	-0.1529717
-4.532062	appropriately	-0.1225144
-4.647435	appropriateness	-0.1225144
-3.885269	approval	-0.166641
-4.647435	approvals	-0.1225144
-4.418642	approve	-0.1225144
-4.271746	approved	-0.1589682
-3.652994	approximately	-0.2241387
-4.162176	april	-0.1225144
-4.002017	arar	-0.2436461
-4.532062	arbitrarily	-0.1225144
-4.532062	arbitrary	-0.1225144
-4.647435	archipelago	-0.1225144
-4.418642	archives	-0.166641
-4.532062	archivist	-0.1225144
-4.418642	archivists	-0.1225144
-4.532062	arctic	-0.1784106
-4.647435	ardent	-0.1225144
-2.358318	are	-0.296516
-3.359291	area	-0.3939176
-3.571245	areas	-0.3449683
-4.647435	argentina	-0.1225144
-4.002017	argue	-0.1717226
-4.532062	argued	-0.2425788
-4.647435	arguing	-0.1225144
-3.939731	argument	-0.1665758
-4.074755	arguments	-0.1225144
-4.647435	arid	-0.1225144
-4.418642	arise	-0.1987645
-4.647435	arisen	-0.1225144
-4.647435	arises	-0.1225144
-4.418642	arising	-0.1987645
-4.532062	arm	-0.2425788
-4.647435	armchair	-0.1225144
-4.271746	armed	-0.3391975
-4.647435	arming	-0.1225144
-4.647435	armour	-0.1225144
-4.271746	armoured	-0.2422875
-4.074755	arms	-0.1870172
-4.162176	army	-0.1403589
-3.102224	around	-0.3757719
-4.418642	arrangement	-0.1225144
-4.002017	arrangements	-0.1868707
-4.647435	arranging	-0.1225144
-4.162176	arrest	-0.1225144
-4.418642	arrested	-0.1225144
-4.532062	arresting	-0.1225144
-4.647435	arrival	-0.1225144
-4.647435	arrivals	-0.1225144
-4.532062	arrive	-0.2425788
-4.532062	arrived	-0.1225144
-4.647435	arriving	-0.1225144
-4.532062	arrogance	-0.1225144
-4.647435	art	-0.1225144
-4.647435	arthritis	-0.1225144
-3.836881	article	-0.2046832
-4.532062	articles	-0.1225144
-4.647435	articulated	-0.1225144
-4.647435	artificially	-0.1225144
-4.647435	artistic	-0.1225144
-4.647435	arts	-0.1225144
-4.647435	artworks	-0.1225144
-2.27926	as	-0.4866558
-4.647435	ascribe	-0.1225144
-4.271746	ashamed	-0.1784106
-4.647435	asian	-0.1225144
-4.002017	aside	-0.1464738
-3.571245	ask	-0.2667518
-3.344306	asked	-0.3091397
-3.793348	asking	-0.2276983
-4.271746	asks	-0.1225144
-3.624001	aspect	-0.3372325
-3.793348	aspects	-0.3235862
-4.418642	asper	-0.1495639
-4.647435	assad	-0.1225144
-4.271746	assadourian	-0.166641
-4.647435	assault	-0.1225144
-4.532062	asselin	-0.1225144
-4.647435	assembled	-0.1225144
-4.532062	assembly	-0.1225144
-4.647435	assent	-0.1225144
-4.647435	assented	-0.1225144
-4.162176	assess	-0.2655357
-4.532062	assessed	-0.1225144
-4.647435	assessing	-0.1225144
-4.271746	assessment	-0.1225144
-4.647435	assessments	-0.1225144
-4.647435	asset	-0.1225144
-3.571245	assets	-0.2634906
-4.418642	assigned	-0.1987645
-4.647435	assiniboia	-0.1225144
-4.162176	assist	-0.1923197
-3.596822	assistance	-0.2309386
-4.647435	assistant	-0.1225144
-4.418642	assisted	-0.1987645
-4.418642	assisting	-0.1225144
-4.647435	associate	-0.1225144
-3.939731	associated	-0.7168489
-3.836881	association	-0.2125064
-4.418642	associations	-0.166641
-4.162176	assume	-0.2423846
-4.647435	assumes	-0.1225144
-4.647435	assuming	-0.1225144
-4.647435	assumption	-0.1225144
-4.647435	assurance	-0.1225144
-4.271746	assurances	-0.1784106
-4.418642	assure	-0.1985889
-4.271746	assured	-0.2422875
-4.647435	assuring	-0.1225144
-4.647435	asthma	-0.1225144
-4.647435	astounded	-0.1225144
-4.647435	astounding	-0.1225144
-4.647435	astray	-0.1225144
-4.647435	astronauts	-0.1225144
-4.647435	astrophysicist	-0.1225144
-4.647435	asylum	-0.1225144
-2.362906	at	-0.5293038
-4.647435	ate	-0.1225144
-4.647435	athena	-0.1225144
-4.002017	atlantic	-0.2444049
-4.532062	atmosphere	-0.2425788
-4.647435	atmospheric	-0.1225144
-4.647435	atomic	-0.1225144
-4.532062	attached	-0.1225144
-4.647435	attaches	-0.1225144
-4.647435	attaching	-0.1225144
-4.418642	attack	-0.1225144
-4.647435	attacked	-0.1225144
-4.647435	attacking	-0.1225144
-4.074755	attacks	-0.1535694
-4.162176	attempt	-0.5127289
-4.647435	attempted	-0.1225144
-4.647435	attempting	-0.1225144
-4.271746	attempts	-0.2155445
-4.647435	attend	-0.1225144
-4.647435	attendance	-0.1225144
-4.162176	attended	-0.1535694
-4.647435	attending	-0.1225144
-4.647435	attends	-0.1225144
-3.652994	attention	-0.2602608
-4.647435	attentive	-0.1225144
-4.647435	attest	-0.1225144
-3.939731	attitude	-0.1718326
-4.647435	attitudes	-0.1225144
-4.271746	attorney	-0.1784106
-4.418642	attract	-0.1225144
-4.647435	attracted	-0.1225144
-4.647435	attractive	-0.1225144
-4.647435	attributed	-0.1225144
-4.647435	attributes	-0.1225144
-4.647435	attributing	-0.1225144
-4.647435	auberge	-0.1225144
-4.532062	auction	-0.1225144
-3.885269	audit	-0.1665432
-4.647435	audited	-0.1225144
-4.418642	auditing	-0.1225144
-3.885269	auditor	-0.3165877
-4.162176	auditors	-0.166641
-4.647435	audits	-0.1225144
-4.418642	august	-0.1225144
-4.647435	augustine	-0.1225144
-4.647435	aurora	-0.1225144
-4.418642	australia	-0.166641
-4.532062	australian	-0.1225144
-4.647435	authored	-0.1225144
-3.836881	authorities	-0.1514285
-4.002017	authority	-0.2444049
-4.162176	authorization	-0.1225144
-4.647435	authorize	-0.1225144
-4.532062	authorized	-0.1225144
-4.647435	authorizing	-0.1225144
-4.418642	auto	-0.1225144
-4.647435	autographed	-0.1225144
-4.647435	automatically	-0.1225144
-4.647435	automobiles	-0.1225144
-4.647435	automotive	-0.1225144
-4.647435	auxiliary	-0.1225144
-4.647435	availability	-0.1225144
-3.481773	available	-0.3054004
-4.647435	availablemay	-0.1225144
-4.647435	avalanches	-0.1225144
-4.647435	avenue	-0.1225144
-4.002017	average	-0.1440175
-4.647435	averages	-0.1225144
-4.647435	avionics	-0.1225144
-4.162176	avoid	-0.1718326
-4.418642	avoidable	-0.1225144
-4.647435	avoided	-0.1225144
-4.647435	avoiding	-0.1225144
-4.647435	awaits	-0.1225144
-4.002017	award	-0.1225144
-4.074755	awarded	-0.1440175
-4.418642	awards	-0.1225144
-3.624001	aware	-0.5753452
-3.793348	awareness	-0.2837384
-3.481773	away	-0.2860492
-4.647435	awe	-0.1225144
-4.532062	awful	-0.1225144
-4.647435	awfully	-0.1225144
-4.647435	axis	-0.1225144
-4.647435	aylwin	-0.1225144
-4.074755	b.c.	-0.173846
-4.532062	babs	-0.1225144
-4.647435	baby	-0.1225144
-4.271746	bachand	-0.2422875
-3.102224	back	-0.3670301
-4.647435	backbench	-0.1225144
-4.647435	backbencher	-0.1225144
-4.647435	backbone	-0.1225144
-4.647435	backed	-0.1225144
-4.418642	background	-0.1225144
-4.647435	backing	-0.1225144
-4.647435	backlog	-0.1225144
-4.647435	backs	-0.1225144
-3.939731	bad	-0.1495639
-4.532062	badly	-0.1225144
-4.647435	bag	-0.1225144
-4.271746	bagnell	-0.2155445
-4.418642	bagotville	-0.1784106
-4.647435	bahamas	-0.1225144
-4.647435	baie-comeau	-0.1225144
-4.647435	baie-james	-0.1225144
-4.271746	bailey	-0.1589682
-4.647435	baker	-0.1225144
-4.271746	bakopanos	-0.2422875
-3.939731	balance	-0.1889461
-4.532062	balanced	-0.1225144
-4.532062	balances	-0.1225144
-4.532062	balancing	-0.1225144
-4.647435	baling	-0.1225144
-4.647435	ball	-0.1225144
-4.647435	ballard	-0.1225144
-4.532062	ballistic	-0.1987645
-4.647435	balloons	-0.1225144
-4.647435	ban	-0.1225144
-4.647435	band	-0.1225144
-4.647435	band-aid	-0.1225144
-4.271746	bank	-0.162351
-4.271746	banking	-0.1784106
-4.271746	bankrupt	-0.1717226
-4.418642	bankruptcies	-0.1225144
-3.624001	bankruptcy	-0.3356224
-4.074755	banks	-0.2317975
-4.647435	banned	-0.1225144
-4.532062	banning	-0.1225144
-4.647435	barachois	-0.1225144
-4.532062	barbados	-0.1225144
-4.647435	barbara	-0.1225144
-4.647435	bargain	-0.1225144
-4.532062	bargaining	-0.1225144
-4.647435	bargains	-0.1225144
-4.647435	barging	-0.1225144
-4.647435	barley	-0.1225144
-4.532062	barnes	-0.2425788
-4.647435	barracks	-0.1225144
-4.647435	barrel	-0.1225144
-4.532062	barrette	-0.1225144
-4.647435	barrier	-0.1225144
-4.647435	barring	-0.1225144
-4.647435	bars	-0.1225144
-4.647435	bas-richelieu	-0.1225144
-3.462015	base	-0.2115799
-3.596822	based	-0.4646019
-3.885269	bases	-0.166641
-3.885269	basic	-0.1225144
-4.002017	basically	-0.1464738
-4.647435	basics	-0.1225144
-4.647435	basing	-0.1225144
-3.684062	basis	-0.2518151
-4.647435	basques	-0.1225144
-4.647435	bastions	-0.1225144
-4.532062	bat	-0.1225144
-4.647435	batch	-0.1225144
-4.647435	bathrooms	-0.1225144
-4.647435	bathurst	-0.1225144
-4.532062	battalion	-0.1225144
-4.647435	battalions	-0.1225144
-4.647435	battered	-0.1225144
-4.532062	battle	-0.1225144
-4.647435	battles	-0.1225144
-4.647435	battling	-0.1225144
-4.647435	bavarian	-0.1225144
-4.162176	bay	-0.1225144
-4.532062	bdc	-0.1225144
-2.919117	be	-0.2665473
-4.418642	beach	-0.1225144
-4.002017	bear	-0.1718326
-4.647435	bearing	-0.1225144
-4.647435	beat	-0.1225144
-4.647435	beatified	-0.1225144
-4.532062	beating	-0.1225144
-4.647435	beaulieu	-0.1225144
-4.647435	beauséjour	-0.1225144
-4.532062	beautiful	-0.1225144
-4.418642	beauty	-0.1225144
-3.836881	became	-0.2116977
-2.557461	because	-0.6783667
-3.624001	become	-0.1637767
-4.002017	becomes	-0.1464738
-4.162176	becoming	-0.1535694
-4.647435	bed	-0.1225144
-4.647435	bedrock	-0.1225144
-4.418642	beef	-0.166641
-4.647435	beefed	-0.1225144
-3.425008	been	-0.1672905
-4.532062	beerenfenger	-0.2425788
-4.647435	beexamined	-0.1225144
-4.647435	befallen	-0.1225144
-2.902826	before	-0.4589411
-4.647435	beforehand	-0.1225144
-4.532062	began	-0.1225144
-4.647435	begging	-0.1225144
-3.939731	begin	-0.1986767
-4.002017	beginning	-0.206214
-4.647435	begins	-0.1225144
-4.647435	begs	-0.1225144
-4.532062	begun	-0.2425787
-4.271746	behalf	-0.1225144
-4.647435	behave	-0.1225144
-4.647435	behaved	-0.1225144
-4.532062	behaves	-0.1225144
-4.532062	behaving	-0.1225144
-3.885269	behaviour	-0.1838678
-3.462015	behind	-0.276297
-4.647435	behold	-0.1225144
-4.647435	beholden	-0.1225144
-4.647435	beijing	-0.1225144
-2.984696	being	-0.1882333
-4.647435	beings	-0.1225144
-4.647435	beiseker	-0.1225144
-4.647435	belabour	-0.1225144
-4.532062	belatedly	-0.1225144
-4.647435	beleaguered	-0.1225144
-4.271746	belief	-0.1784106
-4.418642	beliefs	-0.1784106
-3.502473	believe	-0.3268883
-4.647435	believed	-0.1225144
-3.939731	believes	-0.3165877
-4.532062	believing	-0.2425788
-4.647435	belittle	-0.1225144
-4.647435	belledune	-0.1225144
-4.647435	bellemare	-0.1225144
-4.532062	bells	-0.1225144
-4.647435	belonged	-0.1225144
-4.532062	belonging	-0.1225144
-4.532062	belongs	-0.2425787
-4.647435	beloved	-0.1225144
-4.271746	below	-0.1985889
-4.647435	belt	-0.1225144
-4.532062	benches	-0.1225144
-4.532062	beneficial	-0.1225144
-4.532062	beneficiaries	-0.1225144
-4.647435	beneficiary	-0.1225144
-3.344306	benefit	-0.2978096
-4.418642	benefited	-0.1784106
-4.532062	benefiting	-0.1225144
-3.217473	benefits	-0.345115
-4.647435	benevolence	-0.1225144
-4.532062	benign	-0.1225144
-4.162176	bennett	-0.1535694
-4.418642	benoit	-0.1225144
-4.647435	benoît	-0.1225144
-4.647435	bent	-0.1225144
-4.271746	bergeron	-0.1784106
-4.647435	berlin	-0.1225144
-4.647435	bernard	-0.1225144
-4.647435	berthier	-0.1225144
-4.532062	bertram	-0.2425787
-4.418642	bertrand	-0.2422875
-4.647435	beside	-0.1225144
-3.717526	best	-0.1792849
-4.647435	bestowed	-0.1225144
-4.532062	betrayal	-0.2425788
-4.647435	betrayed	-0.1225144
-3.240048	better	-0.2142282
-4.647435	betty	-0.1225144
-3.102224	between	-0.2601264
-4.647435	bev	-0.1225144
-4.647435	beverages	-0.1225144
-4.647435	bevilacqua	-0.1225144
-3.596822	beyond	-0.2442386
-4.647435	bia	-0.1225144
-4.647435	bias	-0.1225144
-4.647435	bid	-0.1225144
-4.647435	bidding	-0.1225144
-4.647435	bids	-0.1225144
-3.939731	big	-0.1419761
-4.647435	biggar	-0.1225144
-4.532062	bigger	-0.1225144
-4.647435	biggest	-0.1225144
-4.532062	bigotry	-0.1225144
-4.418642	bigras	-0.1987645
-4.532062	bike	-0.1225144
-2.876962	bill	-0.3732399
-3.146592	billion	-0.3510464
-4.647435	billion-plus	-0.1225144
-3.793348	billions	-0.385267
-3.836881	bills	-0.1589682
-4.647435	binder	-0.1225144
-4.647435	binding	-0.1225144
-4.418642	binet	-0.1225144
-4.647435	bio-fuels	-0.1225144
-4.162176	biochem	-0.1868707
-4.647435	biological	-0.1225144
-4.647435	biomass	-0.1225144
-4.647435	biometric	-0.1225144
-4.647435	biometrics	-0.1225144
-4.532062	biotechnology	-0.1225144
-4.647435	bipolar	-0.1225144
-4.271746	birth	-0.2422875
-4.074755	bit	-0.1419761
-4.532062	bits	-0.1225144
-4.647435	bivouacked	-0.1225144
-4.271746	black	-0.1784106
-4.647435	blacked	-0.1225144
-4.647435	blackest	-0.1225144
-4.647435	blacklisted	-0.1225144
-4.647435	blackmailing	-0.1225144
-4.418642	blackout	-0.1987644
-4.647435	blackstrap	-0.1225144
-4.532062	blaikie	-0.1225144
-4.647435	blainville	-0.1225144
-4.647435	blame	-0.1225144
-4.647435	blameworthy	-0.1225144
-4.647435	blaming	-0.1225144
-4.647435	blanche	-0.1225144
-4.532062	blanchette	-0.1987644
-4.647435	blanket	-0.1225144
-4.647435	blatant	-0.1225144
-4.532062	blatantly	-0.1225144
-4.647435	bled	-0.1225144
-4.647435	blessed	-0.1225144
-4.647435	blew	-0.1225144
-3.939731	blind	-0.1923197
-4.074755	blindness	-0.1225144
-4.647435	blink	-0.1225144
-4.647435	blithely	-0.1225144
-4.418642	bloc	-0.1309883
-4.532062	block	-0.1225144
-4.532062	blocked	-0.1225144
-4.647435	blocks	-0.1225144
-4.647435	blondin	-0.1225144
-4.647435	blondin-andrew	-0.1225144
-4.418642	blood	-0.1225144
-4.532062	bloom	-0.1225144
-4.647435	blossoming	-0.1225144
-4.418642	blow	-0.2908801
-4.647435	blowers	-0.1225144
-4.271746	bmo	-0.2422875
-3.652994	board	-0.189511
-4.647435	boarding	-0.1225144
-4.532062	boards	-0.1225144
-4.647435	boasts	-0.1225144
-4.647435	bob	-0.1225144
-4.647435	bode	-0.1225144
-4.418642	bodies	-0.1225144
-4.002017	body	-0.1784106
-4.647435	bogeyman	-0.1225144
-4.647435	bogus	-0.1225144
-4.647435	boils	-0.1225144
-4.647435	bold	-0.1225144
-4.271746	bombardier	-0.1225144
-4.647435	bombing	-0.1225144
-4.647435	bonavista	-0.1225144
-4.647435	bonds	-0.1225144
-4.647435	bone	-0.1225144
-4.647435	bones	-0.1225144
-4.418642	bonin	-0.1784106
-4.532062	bonnie	-0.1225144
-4.532062	bonuses	-0.1225144
-4.647435	bonwick	-0.1225144
-4.271746	book	-0.1784106
-4.532062	books	-0.166641
-4.418642	boondoggles	-0.1225144
-4.647435	boost	-0.1225144
-4.647435	borden	-0.1225144
-3.793348	border	-0.1535694
-4.418642	borders	-0.1784106
-4.647435	borja	-0.1225144
-4.418642	born	-0.1225144
-4.532062	borne	-0.1225144
-4.418642	borotsik	-0.1225144
-4.418642	bosnia	-0.166641
-4.647435	bosnians	-0.1225144
-3.374811	both	-0.2238584
-4.647435	bother	-0.1225144
-4.532062	bothers	-0.2425788
-4.647435	bottle	-0.1225144
-4.532062	bottom	-0.166641
-4.271746	boudria	-0.1589682
-4.418642	bought	-0.1225144
-4.647435	bound	-0.1225144
-4.532062	boundaries	-0.1225144
-4.647435	boundary	-0.1225144
-4.418642	bourgeois	-0.1225144
-4.532062	bovine	-0.2425787
-4.647435	bowl	-0.1225144
-4.647435	bowser	-0.1225144
-4.647435	box	-0.1225144
-4.647435	boyden	-0.1225144
-4.647435	boys	-0.1225144
-4.647435	bq	-0.1225144
-4.647435	bradshaw	-0.1225144
-4.647435	brag	-0.1225144
-4.418642	bragg	-0.1225144
-4.647435	bragging	-0.1225144
-4.647435	bramalea	-0.1225144
-4.532062	bramley	-0.1225144
-4.532062	brampton	-0.2425787
-4.647435	branch	-0.1225144
-4.532062	branches	-0.1225144
-4.532062	brand	-0.1225144
-4.271746	brandon	-0.4158188
-4.647435	brave	-0.1225144
-4.647435	bravo	-0.1225144
-4.647435	brazil	-0.1225144
-4.002017	bre-x	-0.1225144
-4.532062	breach	-0.1225144
-4.647435	breaching	-0.1225144
-4.647435	breadth	-0.1225144
-4.162176	break	-0.1420181
-4.647435	breakfast	-0.1225144
-4.647435	breaking	-0.1225144
-4.002017	breaks	-0.1986767
-4.647435	breakthroughs	-0.1225144
-4.418642	breast	-0.2908801
-4.647435	breath	-0.1225144
-4.647435	breathalyzer	-0.1225144
-4.532062	breathe	-0.1225144
-4.271746	breitkreuz	-0.166641
-4.647435	brevity	-0.1225144
-4.532062	brian	-0.1225144
-4.532062	bridges	-0.1225144
-4.074755	brief	-0.1225144
-4.532062	briefed	-0.1225144
-4.647435	briefing	-0.1225144
-4.532062	briefings	-0.1225144
-4.074755	briefly	-0.1535694
-4.647435	brigade	-0.1225144
-4.647435	brightest	-0.1225144
-4.647435	brilliant	-0.1225144
-3.524209	bring	-0.2753561
-3.753784	bringing	-0.2266527
-4.162176	brings	-0.1985889
-4.647435	brison	-0.1225144
-3.684062	british	-0.5178639
-4.418642	broad	-0.1225144
-4.647435	broadbent	-0.1225144
-4.647435	broaden	-0.1225144
-4.647435	broadened	-0.1225144
-4.532062	broader	-0.1225144
-4.647435	broadly	-0.1225144
-4.532062	brockhouse	-0.1225144
-4.418642	broke	-0.1225144
-4.418642	broken	-0.1225144
-4.647435	brokerage	-0.1225144
-4.647435	brokerages	-0.1225144
-4.647435	brokers	-0.1225144
-4.647435	bronze	-0.1225144
-4.647435	brossard	-0.1225144
-4.532062	brother	-0.1225144
-4.647435	brothers	-0.1225144
-3.684062	brought	-0.2326654
-4.647435	broughton	-0.1225144
-4.647435	brouhaha	-0.1225144
-4.647435	brouillet	-0.1225144
-4.418642	brown	-0.1225144
-4.647435	bruce	-0.1225144
-4.647435	bruised	-0.1225144
-4.647435	brunswick	-0.1225144
-4.647435	brunt	-0.1225144
-4.647435	brutal	-0.1225144
-4.532062	bryden	-0.1225144
-4.647435	bryon	-0.1225144
-4.162176	bse	-0.178285
-4.647435	bubble	-0.1225144
-4.647435	buck	-0.1225144
-3.374811	budget	-0.3235715
-4.271746	budgetary	-0.1225144
-4.162176	budgets	-0.1870172
-4.647435	buffaloing	-0.1225144
-4.162176	build	-0.1589682
-4.647435	builder	-0.1225144
-3.939731	building	-0.1225144
-4.418642	builds	-0.1225144
-3.885269	built	-0.1837752
-4.647435	built-in	-0.1225144
-4.647435	bulk	-0.1225144
-4.647435	bulletin	-0.1225144
-4.271746	bullets	-0.1225144
-4.647435	bulte	-0.1225144
-4.532062	bunch	-0.2425788
-4.647435	bundle	-0.1225144
-4.647435	bungled	-0.1225144
-4.271746	burden	-0.1718326
-4.647435	burdened	-0.1225144
-4.647435	burdening	-0.1225144
-4.647435	burdens	-0.1225144
-4.162176	bureaucracy	-0.2093107
-4.647435	bureaucrat	-0.1225144
-4.002017	bureaucratic	-0.1225144
-4.271746	bureaucrats	-0.1225144
-4.532062	burlington	-0.1225144
-4.647435	burn	-0.1225144
-4.647435	burned	-0.1225144
-4.647435	burners	-0.1225144
-4.002017	burning	-0.2091757
-4.647435	burns	-0.1225144
-4.647435	burrow	-0.1225144
-4.647435	burst	-0.1225144
-4.271746	burton	-0.1784106
-4.647435	buses	-0.1225144
-4.418642	bush	-0.1225144
-3.344306	business	-0.1805497
-4.647435	business-as-usual	-0.1225144
-3.502473	businesses	-0.2589971
-4.418642	businessman	-0.1225144
-4.647435	businessmen	-0.1225144
-4.418642	busy	-0.1225144
-2.72938	but	-0.3055106
-4.647435	butcher	-0.1225144
-4.002017	buy	-0.1389599
-4.418642	buying	-0.1225144
-4.647435	buyouts	-0.1225144
-4.647435	buzzword	-0.1225144
-2.224527	by	-0.4214783
-4.647435	byelection	-0.1225144
-4.647435	bypass	-0.1225144
-4.532062	byproduct	-0.1225144
-4.532062	byrne	-0.1987645
-4.647435	bécancour	-0.1225144
-4.532062	bélair	-0.1225144
-4.532062	bélanger	-0.2425788
-4.647435	c	-0.1225144
-4.647435	c-10a	-0.1225144
-4.647435	c-13	-0.1225144
-4.647435	c-130	-0.1225144
-4.647435	c-19	-0.1225144
-4.647435	c-20	-0.1225144
-4.647435	c-206	-0.1225144
-4.647435	c-241	-0.1225144
-4.647435	c-250	-0.1225144
-4.647435	c-260	-0.1225144
-4.647435	c-28	-0.1225144
-4.647435	c-32	-0.1225144
-4.647435	c-325	-0.1225144
-4.647435	c-36	-0.1225144
-4.647435	c-37	-0.1225144
-4.647435	c-38	-0.1225144
-4.647435	c-42	-0.1225144
-4.647435	c-420	-0.1225144
-4.647435	c-45	-0.1225144
-4.647435	c-454	-0.1225144
-4.647435	c-455	-0.1225144
-4.647435	c-456	-0.1225144
-4.647435	c-457	-0.1225144
-4.647435	c-458	-0.1225144
-4.647435	c-46	-0.1225144
-4.532062	c-48	-0.1225144
-4.647435	c-49	-0.1225144
-4.647435	c-50	-0.1225144
-4.647435	c-7	-0.1225144
-4.647435	c-8	-0.1225144
-4.002017	cabinet	-0.166641
-4.418642	caccia	-0.1225144
-4.532062	cadets	-0.166641
-4.647435	cadman	-0.1225144
-4.532062	cake	-0.1225144
-4.532062	calculate	-0.1225144
-4.532062	calculated	-0.1225144
-4.074755	calculation	-0.1868707
-4.418642	calculations	-0.1987644
-4.418642	calder	-0.1987645
-4.647435	caldwell	-0.1225144
-4.532062	calendar	-0.1225144
-4.162176	calgary	-0.162351
-4.418642	calibre	-0.1225144
-3.524209	call	-0.2597756
-3.289056	called	-0.3055597
-3.684062	calling	-0.4177374
-4.532062	callous	-0.1225144
-3.885269	calls	-0.2729849
-4.647435	calmly	-0.1225144
-4.532062	camagazine	-0.2425788
-4.647435	cambior	-0.1225144
-4.532062	cambridge	-0.1225144
-3.390908	came	-0.4184052
-4.532062	camp	-0.1987644
-3.717526	campaign	-0.1690407
-4.532062	campaigned	-0.2425788
-4.647435	campaigning	-0.1225144
-4.418642	campaigns	-0.166641
-4.532062	campbell	-0.1225144
-4.647435	camped	-0.1225144
-4.532062	camps	-0.1225144
-2.829443	can	-0.2668976
-4.647435	can't	-0.1225144
-3.025135	canada	-0.3516392
-4.532062	canada-wide	-0.1987645
-3.054349	canadian	-0.2137535
-2.887124	canadians	-0.3904567
-4.647435	canadien	-0.1225144
-4.647435	canales	-0.1225144
-4.271746	cancel	-0.2157635
-4.647435	cancellation	-0.1225144
-4.162176	cancelled	-0.166641
-4.532062	cancelling	-0.1225144
-4.271746	cancer	-0.2230984
-4.647435	cancers	-0.1225144
-4.647435	candidate	-0.1225144
-4.647435	candidates	-0.1225144
-3.885269	cannabis	-0.1748571
-3.374811	cannot	-0.2606925
-4.647435	cantons	-0.1225144
-4.647435	canvas	-0.1225144
-4.647435	cap	-0.1225144
-4.647435	cap-de-la	-0.1225144
-4.647435	cap-de-la-madeleine	-0.1225144
-4.647435	capabilities	-0.1225144
-4.418642	capability	-0.1225144
-4.162176	capable	-0.3391975
-4.074755	capacity	-0.1589682
-4.647435	capita	-0.1225144
-3.359291	capital	-0.3667109
-4.647435	capital-intensive	-0.1225144
-4.647435	capitalism	-0.1225144
-4.647435	capitalist	-0.1225144
-4.532062	caplan	-0.1225144
-4.647435	capped	-0.1225144
-4.647435	capsule	-0.1225144
-4.647435	capsules	-0.1225144
-4.647435	capture	-0.1225144
-4.418642	car	-0.1225144
-3.793348	carbon	-0.321527
-4.418642	card	-0.1225144
-4.532062	cardin	-0.1225144
-4.647435	cardiology	-0.1225144
-4.647435	cards	-0.1225144
-3.524209	care	-0.2138
-4.162176	career	-0.1225144
-4.532062	careers	-0.2425788
-4.271746	careful	-0.1225144
-3.885269	carefully	-0.162439
-4.647435	caregiver	-0.1225144
-4.647435	caregivers	-0.1225144
-4.647435	caregiving	-0.1225144
-4.647435	cares	-0.1225144
-4.647435	cargill	-0.1225144
-4.647435	carignan	-0.1225144
-4.532062	caring	-0.1225144
-4.647435	carleton	-0.1225144
-4.647435	carnage	-0.1225144
-4.647435	carol	-0.1225144
-4.647435	carole-marie	-0.1225144
-4.647435	caroline	-0.1225144
-4.532062	carolyn	-0.2425788
-4.647435	carpenter	-0.1225144
-4.647435	carriage	-0.1225144
-4.162176	carried	-0.166641
-4.418642	carries	-0.1784106
-4.532062	carroll	-0.1225144
-4.074755	carry	-0.2215638
-4.418642	carrying	-0.1987645
-4.418642	cars	-0.1225144
-4.647435	carte	-0.1225144
-4.647435	cartel	-0.1225144
-3.443118	case	-0.3613641
-3.32982	cases	-0.3312177
-4.647435	casework	-0.1225144
-4.271746	casey	-0.1784106
-4.647435	casgrain	-0.1225144
-4.418642	cash	-0.1987645
-4.418642	casson	-0.1784106
-4.418642	cast	-0.1225144
-4.647435	casting	-0.1225144
-4.532062	castonguay	-0.2425787
-4.647435	castor	-0.1225144
-4.418642	casualties	-0.1225144
-4.532062	cat	-0.1225144
-4.647435	cataract	-0.1225144
-4.647435	cataracts	-0.1225144
-4.532062	catastrophes	-0.1225144
-4.532062	catastrophic	-0.1225144
-4.532062	categories	-0.2425788
-4.647435	categorization	-0.1225144
-4.647435	categorize	-0.1225144
-3.836881	category	-0.1850331
-4.647435	catharines	-0.1225144
-4.532062	catholic	-0.1225144
-4.647435	catholics	-0.1225144
-4.532062	catterall	-0.1225144
-3.939731	cattle	-0.2091757
-4.647435	cattlemen	-0.1225144
-4.418642	cauchon	-0.1225144
-4.162176	caucus	-0.1225144
-4.647435	caucuses	-0.1225144
-4.002017	caught	-0.1737695
-3.753784	cause	-0.1389599
-4.074755	caused	-0.1495639
-4.162176	causes	-0.2155445
-4.271746	causing	-0.1225144
-4.647435	cautionary	-0.1225144
-4.647435	cave	-0.1225144
-4.647435	cbc	-0.1225144
-4.647435	ccaa	-0.1225144
-4.647435	ccf	-0.1225144
-4.647435	ccra	-0.1225144
-4.647435	cctb	-0.1225144
-4.418642	celebrate	-0.1784106
-4.271746	celebrated	-0.1225144
-4.647435	celebrates	-0.1225144
-4.271746	celebrating	-0.1225144
-4.532062	celebration	-0.1225144
-4.532062	cell	-0.1225144
-4.647435	cells	-0.1225144
-3.146592	census	-0.4681809
-4.647435	census-keeping	-0.1225144
-4.647435	census.	-0.1225144
-3.939731	censuses	-0.1225144
-4.418642	cent	-0.1225144
-4.647435	centennial	-0.1225144
-4.532062	center	-0.1225144
-4.532062	central	-0.1225144
-4.532062	centralist	-0.1225144
-4.532062	centralization	-0.1225144
-4.647435	centralize	-0.1225144
-4.647435	centralized	-0.1225144
-4.647435	centralizing	-0.1225144
-3.652994	centre	-0.3842606
-4.418642	centres	-0.166641
-4.647435	cents	-0.1225144
-4.271746	centuries	-0.1784106
-4.162176	century	-0.1535694
-4.418642	ceo	-0.1784106
-4.647435	ceo.	-0.1225144
-4.532062	ceos	-0.2425788
-4.532062	ceremony	-0.1225144
-3.32982	certain	-0.1654635
-3.462015	certainly	-0.1829456
-4.532062	certainty	-0.1225144
-4.532062	certified	-0.1225144
-4.647435	certify	-0.1225144
-4.647435	cetera	-0.1225144
-4.647435	cf	-0.1225144
-4.647435	cf-18	-0.1225144
-4.532062	cf-18s	-0.1225144
-4.532062	cfb	-0.1225144
-4.647435	chain	-0.1225144
-4.647435	chair	-0.1225144
-4.418642	chaired	-0.1987645
-4.647435	chairman	-0.1225144
-4.647435	chalk	-0.1225144
-3.885269	challenge	-0.162351
-4.532062	challenged	-0.1225144
-4.532062	challenger	-0.2425788
-3.753784	challenges	-0.1850331
-4.647435	challenging	-0.1225144
-4.532062	chamber	-0.1225144
-4.532062	champion	-0.2425788
-4.532062	championed	-0.1225144
-4.647435	champions	-0.1225144
-4.647435	championships	-0.1225144
-4.532062	champlain	-0.1225144
-4.418642	chance	-0.1987645
-4.647435	chances	-0.1225144
-3.359291	change	-0.2660989
-3.753784	changed	-0.2102993
-3.32982	changes	-0.3447988
-4.532062	changing	-0.2425788
-4.647435	chaos	-0.1225144
-4.532062	chapais-chibougamau	-0.1225144
-4.532062	chapter	-0.1225144
-4.532062	character	-0.1225144
-4.647435	characteristics	-0.1225144
-4.647435	characterized	-0.1225144
-4.647435	characters	-0.1225144
-4.647435	charade	-0.1225144
-4.647435	charbonneau	-0.1225144
-4.532062	charest	-0.1225144
-4.532062	charge	-0.1987645
-4.162176	charged	-0.3391975
-4.162176	charges	-0.1589682
-4.532062	charging	-0.1225144
-4.647435	charitable	-0.1225144
-4.647435	charles	-0.1225144
-4.647435	charlesbourg	-0.1225144
-4.647435	charleswood	-0.1225144
-4.647435	charlie	-0.1225144
-4.647435	charlottenburgh	-0.1225144
-4.647435	charlottetown	-0.1225144
-4.271746	charter	-0.1784106
-4.532062	chartered	-0.1987644
-4.647435	charters	-0.1225144
-4.647435	chased	-0.1225144
-4.532062	chastised	-0.1225144
-4.647435	chatelaine	-0.1225144
-4.647435	chatham	-0.1225144
-4.647435	cheated	-0.1225144
-4.647435	cheats	-0.1225144
-4.532062	check	-0.1225144
-4.647435	checking	-0.1225144
-4.418642	checks	-0.2908801
-4.647435	cheered	-0.1225144
-4.647435	cheering	-0.1225144
-4.532062	cheques	-0.1225144
-4.647435	cheriam	-0.1225144
-4.647435	cherish	-0.1225144
-4.647435	cherokee	-0.1225144
-4.647435	cheryl	-0.1225144
-4.647435	chest	-0.1225144
-4.647435	cheyenne	-0.1225144
-4.647435	chez	-0.1225144
-4.647435	chicken	-0.1225144
-4.532062	chickens	-0.1225144
-3.885269	chief	-0.2169072
-3.624001	child	-0.2037315
-4.647435	childhood	-0.1225144
-3.481773	children	-0.3402516
-3.793348	chilliwack	-0.2169072
-3.885269	china	-0.1869439
-4.418642	chinese	-0.1225144
-3.885269	choice	-0.2346464
-3.793348	choices	-0.2752369
-4.271746	choose	-0.166641
-4.532062	chooses	-0.1225144
-4.418642	choosing	-0.1225144
-4.647435	chop	-0.1225144
-4.647435	chopped	-0.1225144
-4.647435	chopping	-0.1225144
-4.647435	chord	-0.1225144
-4.647435	chords	-0.1225144
-4.271746	chose	-0.2422875
-4.418642	chosen	-0.1784106
-4.418642	christian	-0.1225144
-4.647435	christiane	-0.1225144
-4.532062	chromium	-0.1225144
-4.532062	chronic	-0.1225144
-4.647435	chrystine	-0.1225144
-4.647435	chrétien	-0.1225144
-4.647435	chst	-0.1225144
-4.647435	chuck	-0.1225144
-4.647435	chunks	-0.1225144
-4.532062	church	-0.1225144
-4.532062	churches	-0.1225144
-4.418642	churchill	-0.1986767
-4.647435	châteauguay	-0.1225144
-4.418642	cib	-0.1225144
-4.647435	cibc	-0.1225144
-4.647435	cida	-0.1225144
-4.162176	cigarettes	-0.166641
-3.939731	cinar	-0.1665432
-4.532062	circle	-0.1225144
-4.532062	circles	-0.1225144
-4.647435	circulating	-0.1225144
-4.532062	circumstance	-0.1225144
-3.885269	circumstances	-0.1699009
-4.647435	cite	-0.1225144
-4.074755	cities	-0.1987645
-4.074755	citizen	-0.1837752
-3.571245	citizens	-0.2433018
-4.532062	citizenship	-0.2425788
-3.939731	city	-0.1699009
-3.939731	civil	-0.1495639
-4.647435	civilian	-0.1225144
-4.418642	civilians	-0.1225144
-3.836881	claim	-0.2266527
-4.647435	claimants	-0.1225144
-4.647435	claimed	-0.1225144
-4.532062	claiming	-0.2425788
-3.836881	claims	-0.1905081
-4.647435	clair	-0.1225144
-4.647435	clamouring	-0.1225144
-4.271746	clarification	-0.1784106
-4.418642	clarified	-0.1225144
-4.271746	clarify	-0.1495639
-4.532062	clarifying	-0.2425788
-4.418642	clarity	-0.1987645
-4.271746	clark	-0.1784106
-4.647435	clarkson	-0.1225144
-4.532062	class	-0.1225144
-4.532062	classes	-0.1225144
-4.647435	classic	-0.1225144
-4.271746	classified	-0.2155445
-4.647435	classify	-0.1225144
-4.647435	classing	-0.1225144
-4.532062	claude	-0.1225144
-3.836881	clause	-0.1870172
-4.418642	clauses	-0.1225144
-4.647435	clawback	-0.1225144
-3.502473	clean	-0.3285778
-4.647435	clean-up	-0.1225144
-3.939731	cleaner	-0.1718326
-4.647435	cleaning	-0.1225144
-3.481773	clear	-0.261731
-4.647435	clearcut	-0.1225144
-4.647435	cleared	-0.1225144
-4.418642	clearer	-0.1225144
-4.532062	clearing	-0.1225144
-3.547091	clearly	-0.1698657
-4.647435	clergy	-0.1225144
-4.647435	clerk	-0.1225144
-4.647435	clever	-0.1225144
-4.647435	client-run	-0.1225144
-4.271746	clients	-0.1225144
-4.532062	cliff	-0.2425787
-4.647435	clifford	-0.1225144
-3.652994	climate	-0.5365347
-4.162176	clinical	-0.2155444
-4.647435	clinton	-0.1225144
-4.647435	clock	-0.1225144
-4.647435	clogged	-0.1225144
-4.532062	cloning	-0.1225144
-3.652994	close	-0.2817864
-3.939731	closed	-0.2046832
-4.162176	closely	-0.1589682
-4.074755	closer	-0.2947257
-4.647435	closest	-0.1225144
-3.836881	closing	-0.2359174
-4.162176	closure	-0.2157635
-4.647435	cloudier	-0.1225144
-4.647435	cloudy	-0.1225144
-4.647435	clout	-0.1225144
-4.418642	club	-0.1225144
-4.532062	co-chair	-0.1225144
-4.647435	co-op	-0.1225144
-4.647435	co-operate	-0.1225144
-4.532062	co-operative	-0.1225144
-4.532062	co-ops	-0.1225144
-4.647435	co-sponsors	-0.1225144
-3.596822	coal	-0.1783604
-4.532062	coal-fired	-0.1225144
-4.418642	coalition	-0.1784106
-4.647435	coalitions	-0.1225144
-3.836881	coast	-0.2723755
-4.647435	cod-liver	-0.1225144
-4.162176	code	-0.1744448
-4.271746	coderre	-0.2422875
-4.647435	codification	-0.1225144
-4.647435	codifies	-0.1225144
-4.647435	coeducational	-0.1225144
-4.647435	coffee	-0.1225144
-4.647435	coffers	-0.1225144
-4.647435	cogeneration	-0.1225144
-4.647435	coherent	-0.1225144
-4.647435	coin	-0.1225144
-4.418642	coincidence	-0.1987644
-4.647435	colborne	-0.1225144
-4.647435	colchester	-0.1225144
-4.418642	cold	-0.1225144
-4.418642	colin	-0.2908801
-4.647435	collaborative	-0.1225144
-4.418642	collapse	-0.1987645
-3.793348	colleague	-0.1891392
-3.836881	colleagues	-0.199336
-4.532062	collect	-0.1225144
-4.162176	collected	-0.1225144
-4.532062	collecting	-0.1225144
-4.271746	collection	-0.166641
-4.418642	collective	-0.1225144
-4.647435	collectively	-0.1225144
-4.418642	collects	-0.1225144
-4.647435	college	-0.1225144
-4.532062	collenette	-0.1225144
-4.647435	collège	-0.1225144
-4.418642	colonel	-0.1225144
-4.532062	colorado	-0.1225144
-4.647435	colossal	-0.1225144
-4.647435	colour	-0.1225144
-4.647435	colours	-0.1225144
-4.647435	colt	-0.1225144
-4.532062	columbia	-0.135034
-4.647435	columbians	-0.1225144
-4.418642	comartin	-0.1784106
-4.647435	comb	-0.1225144
-4.271746	combat	-0.1589682
-4.647435	combating	-0.1225144
-4.647435	combination	-0.1225144
-4.162176	combined	-0.1225144
-4.647435	combining	-0.1225144
-3.302223	come	-0.4482452
-3.684062	comes	-0.1754842
-4.647435	comfort	-0.1225144
-4.647435	comfortable	-0.1225144
-4.647435	comfortably	-0.1225144
-3.462015	coming	-0.2873087
-4.271746	command	-0.1225144
-4.271746	commander	-0.1784106
-4.647435	commandment	-0.1225144
-4.647435	commands	-0.1225144
-4.647435	commemorating	-0.1225144
-4.532062	commemoration	-0.2425788
-4.532062	commend	-0.166641
-4.647435	commendation	-0.1225144
-3.753784	comment	-0.2518748
-4.532062	commentary	-0.2425788
-4.647435	commented	-0.1225144
-4.647435	commenting	-0.1225144
-3.571245	comments	-0.3025978
-4.532062	commerce	-0.1225144
-4.271746	commercial	-0.1225144
-4.647435	commercialization	-0.1225144
-4.002017	commission	-0.1755317
-4.162176	commissioner	-0.1665758
-4.647435	commissioning	-0.1225144
-4.532062	commissions	-0.1225144
-4.162176	commit	-0.1225144
-3.407623	commitment	-0.4558091
-4.002017	commitments	-0.1589682
-4.647435	commits	-0.1225144
-3.885269	committed	-0.419393
-3.175565	committee	-0.3653466
-4.074755	committees	-0.1535694
-4.418642	committing	-0.1225144
-4.532062	committment	-0.1225144
-3.717526	common	-0.2804866
-4.647435	commoners	-0.1225144
-4.532062	commonly	-0.1225144
-4.647435	commonplace	-0.1225144
-4.647435	commons	-0.1225144
-4.647435	commonwealth	-0.1225144
-4.647435	communicable	-0.1225144
-4.418642	communicate	-0.1225144
-4.532062	communicated	-0.1225144
-4.647435	communicating	-0.1225144
-4.271746	communication	-0.1225144
-4.074755	communications	-0.1225144
-4.647435	communiqué	-0.1225144
-4.532062	communist	-0.1225144
-3.571245	communities	-0.234724
-3.462015	community	-0.239546
-4.647435	commute	-0.1225144
-4.647435	comox	-0.1225144
-3.085672	companies	-0.3840963
-3.289056	company	-0.2620206
-4.532062	comparable	-0.1225144
-4.002017	compared	-0.4853256
-4.647435	comparing	-0.1225144
-4.647435	comparison	-0.1225144
-4.647435	comparisons	-0.1225144
-4.418642	compassion	-0.166641
-4.532062	compel	-0.1225144
-4.532062	compelling	-0.1225144
-4.532062	compensate	-0.1225144
-4.162176	compensated	-0.2155444
-3.793348	compensation	-0.2035702
-4.532062	compete	-0.1225144
-4.647435	competed	-0.1225144
-4.647435	competent	-0.1225144
-4.418642	competing	-0.1225144
-4.074755	competition	-0.1589682
-3.753784	competitive	-0.1717776
-4.532062	competitiveness	-0.2425788
-4.647435	competitivity	-0.1225144
-4.532062	competitor	-0.1225144
-4.647435	competitors	-0.1225144
-4.647435	compiled	-0.1225144
-4.647435	complain	-0.1225144
-4.271746	complaining	-0.1784106
-4.532062	complaints	-0.1225144
-4.647435	complements	-0.1225144
-4.074755	complete	-0.1225144
-3.885269	completed	-0.162439
-4.002017	completely	-0.1440175
-4.647435	completion	-0.1225144
-4.647435	complex	-0.1225144
-4.647435	complexity	-0.1225144
-4.162176	compliance	-0.1464738
-4.271746	complicated	-0.1225144
-4.647435	complicating	-0.1225144
-4.532062	complications	-0.1225144
-4.647435	complicit	-0.1225144
-4.271746	complied	-0.4158188
-4.647435	complies	-0.1225144
-4.532062	compliment	-0.2425788
-4.418642	complimentary	-0.1225144
-4.647435	complimented	-0.1225144
-4.418642	comply	-0.2908801
-4.074755	component	-0.1985889
-4.532062	components	-0.2425788
-4.647435	composed	-0.1225144
-4.418642	comprehensive	-0.1225144
-4.647435	compress	-0.1225144
-4.418642	comprised	-0.1987645
-4.002017	compromise	-0.1904048
-4.532062	compromised	-0.1225144
-4.647435	compromises	-0.1225144
-4.647435	compton	-0.1225144
-4.647435	computation	-0.1225144
-4.532062	computer	-0.1225144
-4.418642	computers	-0.1987645
-4.418642	comrades	-0.1225144
-4.532062	comuzzi	-0.1225144
-4.647435	concede	-0.1225144
-4.647435	conceded	-0.1225144
-4.532062	concentrated	-0.2425787
-4.647435	concentrates	-0.1225144
-4.532062	concentration	-0.1225144
-4.418642	concept	-0.1784106
-4.647435	conception	-0.1225144
-3.407623	concern	-0.2815884
-3.652994	concerned	-0.3680829
-3.596822	concerning	-0.3150987
-3.165691	concerns	-0.3912078
-4.647435	concert	-0.1225144
-4.647435	concerted	-0.1225144
-4.271746	conclude	-0.1717226
-4.162176	concluded	-0.2155444
-4.002017	conclusion	-0.2063114
-4.532062	conclusions	-0.1225144
-4.532062	concrete	-0.1225144
-4.532062	concur	-0.1225144
-4.647435	concurred	-0.1225144
-4.271746	concurrence	-0.1225144
-4.271746	concurrent	-0.2422875
-4.532062	condemn	-0.2425788
-4.532062	condemned	-0.1225144
-4.418642	condemning	-0.1225144
-4.002017	condition	-0.1986474
-4.647435	conditional	-0.1225144
-3.481773	conditions	-0.2231011
-4.532062	condolences	-0.1225144
-4.647435	condone	-0.1225144
-3.885269	conduct	-0.1637478
-4.074755	conducted	-0.1718326
-4.271746	conducting	-0.1225144
-4.647435	confections	-0.1225144
-4.162176	confederation	-0.166641
-4.162176	conference	-0.1535694
-3.624001	confidence	-0.3079197
-4.162176	confident	-0.1985889
-3.793348	confidential	-0.2457244
-4.074755	confidentiality	-0.2091757
-4.647435	confidentially	-0.1225144
-4.647435	confine	-0.1225144
-4.647435	confines	-0.1225144
-4.002017	confirm	-0.1986474
-4.647435	confirmation	-0.1225144
-4.002017	confirmed	-0.1495639
-4.532062	confirming	-0.2425788
-4.418642	confirms	-0.1225144
-4.647435	confiscated	-0.1225144
-3.939731	conflict	-0.3417726
-4.532062	conflicting	-0.1225144
-4.271746	conflicts	-0.1784106
-4.532062	confronting	-0.2425788
-4.532062	confuse	-0.1225144
-4.647435	confused	-0.1225144
-4.647435	confusing	-0.1225144
-4.647435	confusion	-0.1225144
-4.074755	congratulate	-0.2449359
-4.647435	congratulated	-0.1225144
-4.647435	congratulates	-0.1225144
-4.532062	congratulating	-0.1225144
-4.271746	congratulations	-0.2422875
-4.532062	congregation	-0.1987645
-4.418642	congress	-0.1784106
-4.647435	congressional	-0.1225144
-4.647435	congressmen	-0.1225144
-4.647435	conili	-0.1225144
-4.647435	conjunction	-0.1225144
-4.647435	connected	-0.1225144
-4.162176	connection	-0.2155445
-4.647435	connors	-0.1225144
-4.532062	cons	-0.1225144
-4.532062	conscience	-0.2425788
-4.532062	conscious	-0.1225144
-4.647435	consecutive	-0.1225144
-4.647435	conseil	-0.1225144
-4.162176	consensus	-0.1225144
-3.652994	consent	-0.2238584
-4.418642	consequence	-0.1985889
-4.002017	consequences	-0.215654
-4.532062	consequential	-0.2425788
-4.532062	consequently	-0.2425788
-4.074755	conservation	-0.178285
-4.532062	conservative	-0.2157635
-4.418642	conservatives	-0.1225144
-4.647435	conserve	-0.1225144
-3.717526	consider	-0.2504145
-4.271746	considerable	-0.1225144
-4.647435	considerably	-0.1225144
-3.547091	consideration	-0.3051613
-3.684062	considered	-0.1643886
-4.002017	considering	-0.162439
-4.532062	considers	-0.1987644
-4.647435	consist	-0.1225144
-4.647435	consistency	-0.1225144
-4.162176	consistent	-0.1589682
-4.162176	consistently	-0.1225144
-4.532062	consolidate	-0.1225144
-4.647435	consolidated	-0.1225144
-4.418642	constant	-0.1225144
-4.162176	constantly	-0.1225144
-4.418642	constituencies	-0.1225144
-3.939731	constituency	-0.2091758
-4.271746	constituent	-0.1225144
-3.885269	constituents	-0.2107352
-4.532062	constitute	-0.1225144
-4.418642	constituted	-0.1225144
-4.418642	constitutes	-0.1987645
-4.647435	constitution	-0.1225144
-4.271746	constitutional	-0.1225144
-4.647435	constraints	-0.1225144
-4.647435	construct	-0.1225144
-4.647435	construction	-0.1225144
-4.074755	constructive	-0.1589682
-4.647435	consulate	-0.1225144
-4.418642	consult	-0.1535694
-4.647435	consultant	-0.1225144
-3.885269	consultation	-0.166641
-3.836881	consultations	-0.2215638
-4.647435	consultative	-0.1225144
-4.418642	consulted	-0.166641
-4.271746	consulting	-0.166641
-4.647435	consume	-0.1225144
-4.647435	consumed	-0.1225144
-4.271746	consumer	-0.178285
-3.652994	consumers	-0.2046767
-4.647435	consumes	-0.1225144
-4.532062	consuming	-0.1225144
-4.647435	consummated	-0.1225144
-4.002017	consumption	-0.1535694
-4.074755	contact	-0.2423846
-4.418642	contacted	-0.1987645
-4.418642	contain	-0.1225144
-4.002017	contained	-0.3616725
-4.647435	container	-0.1225144
-4.647435	containing	-0.1225144
-4.074755	contains	-0.1784106
-4.647435	contaminants	-0.1225144
-4.647435	contaminated	-0.1225144
-4.418642	contamination	-0.1987645
-4.647435	contemplating	-0.1225144
-4.647435	contends	-0.1225144
-4.532062	contents	-0.1225144
-3.885269	context	-0.3025292
-4.647435	contextual	-0.1225144
-4.532062	continent	-0.2425788
-4.647435	continental	-0.1225144
-4.532062	contingent	-0.2425788
-4.418642	continually	-0.1225144
-4.647435	continuation	-0.1225144
-3.624001	continue	-0.3446265
-3.939731	continued	-0.1589682
-4.002017	continues	-0.4196645
-4.162176	continuing	-0.166641
-4.647435	continuingg	-0.1225144
-4.271746	continuous	-0.1225144
-4.647435	continuously	-0.1225144
-3.652994	contract	-0.2312247
-4.532062	contracted	-0.2425788
-4.418642	contracting	-0.1987645
-4.647435	contractor	-0.1225144
-4.647435	contractors	-0.1225144
-3.753784	contracts	-0.1987059
-4.647435	contradict	-0.1225144
-4.532062	contradiction	-0.1987645
-4.532062	contradictory	-0.1225144
-4.532062	contradicts	-0.1225144
-4.162176	contrary	-0.3391975
-4.647435	contrast	-0.1225144
-4.532062	contravention	-0.1225144
-4.532062	contraventions	-0.2425787
-4.074755	contribute	-0.2655357
-4.418642	contributed	-0.1225144
-4.647435	contributes	-0.1225144
-4.532062	contributing	-0.2425787
-3.793348	contribution	-0.198624
-3.793348	contributions	-0.1420181
-4.271746	contributor	-0.1225144
-3.939731	contributors	-0.2091757
-4.647435	contributory	-0.1225144
-3.547091	control	-0.2894927
-4.074755	controlled	-0.2908801
-4.532062	controller	-0.1225144
-4.418642	controlling	-0.1987644
-4.271746	controls	-0.166641
-4.647435	controversial	-0.1225144
-4.647435	convenience	-0.1225144
-4.647435	convenient	-0.1225144
-4.647435	convention	-0.1225144
-4.647435	conventional	-0.1225144
-4.647435	converging	-0.1225144
-4.532062	conversation	-0.1987645
-4.271746	conversations	-0.1225144
-4.647435	converting	-0.1225144
-4.532062	convicted	-0.1225144
-4.647435	convicting	-0.1225144
-4.074755	conviction	-0.1495639
-4.418642	convictions	-0.1987645
-4.532062	convince	-0.1225144
-4.418642	convinced	-0.2422875
-4.418642	convincing	-0.1225144
-4.647435	convoluted	-0.1225144
-4.647435	cooked	-0.1225144
-4.647435	cool	-0.1225144
-4.271746	cooperation	-0.1225144
-4.647435	cooperative	-0.1225144
-4.532062	cooperatives	-0.1225144
-4.647435	coopération	-0.1225144
-4.647435	copper	-0.1225144
-4.532062	copy	-0.1225144
-4.647435	copyright	-0.1225144
-4.647435	core	-0.1225144
-4.418642	corner	-0.1987644
-4.647435	corners	-0.1225144
-4.532062	cornerstone	-0.1987644
-4.647435	cornerstones	-0.1225144
-4.647435	corp.	-0.1225144
-4.532062	corporal	-0.1225144
-3.359291	corporate	-0.3667836
-3.836881	corporation	-0.1934558
-3.524209	corporations	-0.2501579
-4.002017	correct	-0.1225144
-4.532062	corrected	-0.1784106
-4.532062	correcting	-0.1987645
-4.532062	corrections	-0.1225144
-4.647435	corrective	-0.1225144
-4.162176	correctly	-0.1225144
-4.532062	corrects	-0.1225144
-4.532062	correspond	-0.1987645
-4.532062	correspondence	-0.1225144
-4.418642	corrupt	-0.1987645
-4.647435	corruption	-0.1225144
-3.443118	cost	-0.2535667
-4.647435	costing	-0.1225144
-4.647435	costly	-0.1225144
-3.425008	costs	-0.2236921
-4.647435	cotler	-0.1225144
-4.532062	couillard	-0.1225144
-3.018128	could	-0.3003379
-4.162176	council	-0.1225144
-4.532062	councillor	-0.1225144
-4.647435	counsel	-0.1225144
-4.647435	counselling	-0.1225144
-4.647435	counsellor	-0.1225144
-4.418642	count	-0.1225144
-4.532062	counted	-0.1225144
-4.271746	counter	-0.2422875
-4.647435	counter-bombardment	-0.1225144
-4.418642	counterpart	-0.1987645
-4.647435	counterparts	-0.1225144
-4.647435	counterproductive	-0.1225144
-4.532062	counting	-0.1225144
-3.652994	countries	-0.2810903
-3.596822	country	-0.2553776
-4.418642	counts	-0.1225144
-4.532062	county	-0.1225144
-4.271746	couple	-0.4158188
-4.647435	couples	-0.1225144
-4.271746	courage	-0.1784106
-4.647435	couriers	-0.1225144
-4.162176	course	-0.1411517
-3.836881	court	-0.1869439
-4.647435	courting	-0.1225144
-4.647435	courtrooms	-0.1225144
-4.162176	courts	-0.162439
-4.647435	cousins	-0.1225144
-4.647435	covenant	-0.1225144
-4.002017	cover	-0.1464738
-4.162176	coverage	-0.166641
-3.885269	covered	-0.3746802
-4.532062	covers	-0.1225144
-4.532062	cow	-0.1225144
-4.647435	cowichan	-0.1225144
-4.532062	cows	-0.1225144
-3.571245	cpp	-0.2294689
-4.532062	crack	-0.2425788
-4.647435	craft	-0.1225144
-4.647435	crafted	-0.1225144
-4.647435	craig	-0.1225144
-4.647435	cranbrook	-0.1225144
-4.647435	cranked	-0.1225144
-4.647435	crash	-0.1225144
-4.647435	crawling	-0.1225144
-4.647435	crce	-0.1225144
-3.624001	create	-0.2485318
-3.793348	created	-0.2284564
-3.793348	creates	-0.2449359
-3.717526	creating	-0.3336488
-4.271746	creation	-0.2422875
-4.647435	creative	-0.1225144
-4.647435	creators	-0.1225144
-4.647435	credibility	-0.1225144
-4.647435	credible	-0.1225144
-3.793348	credit	-0.1835961
-4.532062	creditor	-0.1225144
-3.885269	creditors	-0.1922399
-4.647435	credits	-0.1225144
-4.647435	cree	-0.1225144
-4.647435	creek	-0.1225144
-4.532062	creeks	-0.1225144
-4.418642	crew	-0.1225144
-4.532062	crews	-0.1225144
-3.939731	crime	-0.1936502
-4.162176	crimes	-0.166641
-3.502473	criminal	-0.2444049
-4.647435	criminalized	-0.1225144
-3.939731	criminals	-0.1420181
-4.647435	criminologists	-0.1225144
-4.647435	crippling	-0.1225144
-4.418642	crises	-0.1987644
-3.753784	crisis	-0.2655357
-4.162176	criteria	-0.1225144
-3.753784	critic	-0.2778755
-3.836881	critical	-0.1535694
-4.532062	critically	-0.1987645
-4.532062	criticism	-0.1225144
-4.647435	criticize	-0.1225144
-4.418642	criticized	-0.1225144
-4.647435	critique	-0.1225144
-4.647435	croatia	-0.1225144
-4.647435	croatians	-0.1225144
-4.647435	cronyism	-0.1225144
-4.532062	crop	-0.1225144
-4.647435	cross	-0.1225144
-4.532062	cross-border	-0.1225144
-4.647435	cross-listed	-0.1225144
-4.532062	crossed	-0.2425788
-4.647435	crosses	-0.1225144
-4.647435	crossings	-0.1225144
-4.647435	crowfoot	-0.1225144
-3.753784	crown	-0.2677671
-4.647435	crowning	-0.1225144
-4.647435	crucial	-0.1225144
-4.271746	cruelty	-0.2422875
-4.647435	crumb	-0.1225144
-4.647435	crunch	-0.1225144
-4.647435	crushing	-0.1225144
-4.647435	crybabies	-0.1225144
-4.647435	crying	-0.1225144
-4.647435	crystals	-0.1225144
-4.532062	crête	-0.1225144
-4.532062	cs&amp;e	-0.1225144
-4.647435	cse	-0.1225144
-4.418642	csl	-0.1987645
-4.647435	csn	-0.1225144
-4.647435	csst	-0.1225144
-4.647435	ctv	-0.1225144
-4.532062	cull	-0.2425788
-4.647435	culled	-0.1225144
-4.532062	cullen	-0.1225144
-4.647435	culminating	-0.1225144
-4.647435	culmination	-0.1225144
-4.647435	culpa	-0.1225144
-4.647435	cultivate	-0.1225144
-4.271746	cultivation	-0.2422875
-4.074755	cultural	-0.1225144
-4.532062	culture	-0.1225144
-4.532062	cumberland	-0.2425787
-4.647435	cumbersome	-0.1225144
-4.418642	cummins	-0.1225144
-4.647435	cumulative	-0.1225144
-4.647435	cup	-0.1225144
-4.647435	curable	-0.1225144
-4.418642	curative	-0.2908801
-4.532062	cure	-0.1225144
-4.647435	cured	-0.1225144
-4.162176	cures	-0.2155445
-4.647435	curing	-0.1225144
-4.647435	curious	-0.1225144
-3.684062	current	-0.1377644
-4.647435	currentaddress	-0.1225144
-3.684062	currently	-0.1411517
-4.532062	curtain	-0.1225144
-4.647435	custody	-0.1225144
-3.939731	customs	-0.2157635
-3.793348	cut	-0.1606247
-4.418642	cutbacks	-0.1987645
-4.647435	cutler	-0.1225144
-3.885269	cuts	-0.1850331
-4.002017	cutting	-0.1868707
-4.418642	cuzner	-0.1225144
-4.647435	cycle	-0.1225144
-4.647435	cypress	-0.1225144
-4.647435	czar	-0.1225144
-4.647435	côte-sud	-0.1225144
-4.647435	d	-0.1225144
-4.647435	d'histoire	-0.1225144
-4.647435	d'or	-0.1225144
-4.647435	d.	-0.1225144
-4.647435	d.c.	-0.1225144
-4.647435	dad	-0.1225144
-4.647435	dads	-0.1225144
-3.836881	daily	-0.1665432
-4.647435	daimlerchrysler	-0.1225144
-4.418642	dairy	-0.1225144
-4.647435	dalai	-0.1225144
-4.647435	dale	-0.1225144
-4.418642	dalphond-guiral	-0.1987645
-4.002017	damage	-0.1225144
-4.647435	damaged	-0.1225144
-4.647435	damaging	-0.1225144
-4.647435	damascus	-0.1225144
-4.532062	dan	-0.1225144
-4.647435	dance	-0.1225144
-4.647435	danes	-0.1225144
-4.532062	danger	-0.1225144
-3.885269	dangerous	-0.1225144
-4.532062	dangers	-0.1225144
-4.532062	daniel	-0.2425787
-4.647435	danyluk	-0.1225144
-4.532062	dare	-0.2425787
-4.647435	daring	-0.1225144
-4.647435	dark	-0.1225144
-4.647435	darrel	-0.1225144
-4.647435	darting	-0.1225144
-4.647435	dartmouth	-0.1225144
-3.571245	data	-0.2037315
-3.717526	date	-0.1952587
-4.162176	dated	-0.1987645
-4.532062	dates	-0.1225144
-4.647435	daughters	-0.1225144
-4.532062	dauphin	-0.2425787
-4.418642	davenport	-0.1986474
-4.074755	david	-0.1718326
-4.532062	davies	-0.1225144
-3.206611	day	-0.2835467
-4.647435	day-to-day	-0.1225144
-3.717526	days	-0.2444049
-3.885269	de	-0.2174801
-4.162176	dead	-0.1589682
-4.647435	deadlines	-0.1225144
-4.647435	deadly	-0.1225144
-4.647435	deaf-blind	-0.1225144
-3.524209	deal	-0.3244382
-3.684062	dealing	-0.9598868
-4.647435	dealings	-0.1225144
-3.885269	deals	-0.2305468
-3.885269	dealt	-0.7680014
-4.647435	deans	-0.1225144
-4.647435	dear	-0.1225144
-4.647435	dearly	-0.1225144
-4.162176	death	-0.1535694
-4.162176	deaths	-0.1784106
-4.647435	debacle	-0.1225144
-4.647435	debacles	-0.1225144
-4.647435	debatable	-0.1225144
-3.344306	debate	-0.3176258
-4.074755	debated	-0.1870172
-4.074755	debates	-0.1718326
-4.002017	debating	-0.1440175
-4.647435	deborah	-0.1225144
-4.271746	debt	-0.1225144
-4.647435	debts	-0.1225144
-4.532062	decade	-0.1225144
-4.074755	decades	-0.1870172
-4.532062	deceased	-0.1225144
-4.647435	deceiving	-0.1225144
-4.647435	december	-0.1225144
-4.647435	decent	-0.1225144
-4.647435	decentralized	-0.1225144
-4.647435	deceptions	-0.1225144
-4.074755	decide	-0.2174801
-3.571245	decided	-0.4005158
-4.532062	decides	-0.1225144
-4.647435	deciding	-0.1225144
-3.524209	decision	-0.2523964
-4.532062	decision-making	-0.1225144
-3.425008	decisions	-0.235471
-4.647435	decisive	-0.1225144
-4.532062	deck	-0.1225144
-4.647435	declarable	-0.1225144
-3.939731	declaration	-0.3805902
-4.271746	declare	-0.1784106
-4.647435	declared	-0.1225144
-4.647435	declares	-0.1225144
-4.647435	declaring	-0.1225144
-4.162176	decline	-0.2947257
-4.647435	declined	-0.1225144
-4.647435	declining	-0.1225144
-4.647435	decorations	-0.1225144
-3.939731	decrease	-0.1665432
-4.647435	decreased	-0.1225144
-4.418642	decreasing	-0.1225144
-3.836881	decriminalization	-0.173846
-4.647435	decriminalize	-0.1225144
-4.532062	decriminalized	-0.1225144
-4.271746	decriminalizing	-0.1225144
-4.002017	dedicated	-0.1535694
-4.418642	dedication	-0.166641
-4.532062	deduct	-0.1225144
-4.647435	deductibility	-0.1225144
-4.418642	deductible	-0.1225144
-4.074755	deduction	-0.2448627
-4.162176	deductions	-0.3391975
-3.753784	deemed	-0.2116142
-4.647435	deeming	-0.1225144
-4.532062	deep	-0.1225144
-4.647435	deepak	-0.1225144
-4.647435	deepest	-0.1225144
-4.532062	deeply	-0.1225144
-4.532062	deer	-0.1987645
-4.647435	default	-0.1225144
-4.418642	defeated	-0.1225144
-4.647435	defects	-0.1225144
-3.390908	defence	-0.2292077
-4.647435	defences	-0.1225144
-4.074755	defend	-0.178285
-4.532062	defended	-0.1225144
-4.074755	defending	-0.2448627
-4.074755	deferred	-0.2448627
-4.532062	deficiencies	-0.1225144
-4.647435	deficient	-0.1225144
-3.939731	deficit	-0.2570466
-4.647435	defies	-0.1225144
-4.074755	define	-0.1535694
-4.002017	defined	-0.178285
-4.532062	defining	-0.1225144
-4.074755	definitely	-0.166641
-3.939731	definition	-0.4196644
-4.418642	definitions	-0.1987645
-4.647435	deflect	-0.1225144
-4.647435	defraud	-0.1225144
-4.647435	defrauders	-0.1225144
-4.647435	defrauds	-0.1225144
-4.647435	degenerate	-0.1225144
-4.647435	degeneration	-0.1225144
-4.418642	degradation	-0.1225144
-4.074755	degree	-0.1535694
-4.271746	delay	-0.1589682
-4.271746	delayed	-0.1784106
-4.647435	delays	-0.1225144
-4.647435	delegations	-0.1225144
-4.647435	deleterious	-0.1225144
-4.418642	deliberately	-0.1225144
-4.647435	deliberations	-0.1225144
-4.647435	delicate	-0.1225144
-4.418642	delighted	-0.1987645
-4.647435	delist	-0.1225144
-4.647435	deliver	-0.1225144
-4.418642	delivered	-0.1225144
-4.647435	delivers	-0.1225144
-3.885269	delivery	-0.2960151
-4.647435	delta	-0.1225144
-3.793348	demand	-0.2063115
-4.162176	demanded	-0.1225144
-4.532062	demanding	-0.1225144
-4.418642	demands	-0.1225144
-4.647435	demean	-0.1225144
-4.532062	demers	-0.1589682
-4.647435	demined	-0.1225144
-4.162176	democracy	-0.1225144
-4.162176	democratic	-0.1464738
-4.647435	democrats	-0.1225144
-4.418642	demonstrate	-0.1225144
-4.002017	demonstrated	-0.1225144
-4.532062	demonstrates	-0.1225144
-4.647435	demonstrating	-0.1225144
-4.532062	demonstration	-0.1225144
-4.647435	demote	-0.1225144
-4.532062	demoted	-0.1225144
-4.647435	den	-0.1225144
-4.647435	denial	-0.1225144
-4.162176	denied	-0.1225144
-4.532062	denis	-0.1225144
-4.532062	denmark	-0.1225144
-4.271746	deny	-0.1985889
-4.271746	denying	-0.2422875
-4.647435	depart	-0.1225144
-4.647435	departing	-0.1225144
-3.717526	department	-0.1875536
-4.002017	departments	-0.2079359
-4.647435	departures	-0.1225144
-3.939731	depend	-0.3322428
-4.647435	dependable	-0.1225144
-4.418642	dependants	-0.1987645
-4.532062	dependence	-0.2425788
-4.532062	dependency	-0.1225144
-4.418642	dependent	-0.1784106
-4.647435	dependents	-0.1225144
-4.418642	depending	-0.2422875
-4.162176	depends	-0.2155445
-4.647435	depicted	-0.1225144
-4.647435	depicts	-0.1225144
-4.418642	depleted	-0.1225144
-4.647435	depletes	-0.1225144
-4.647435	depleting	-0.1225144
-4.074755	depletion	-0.1535694
-4.271746	deplorable	-0.1225144
-4.647435	deplore	-0.1225144
-4.532062	deploy	-0.1225144
-4.162176	deployed	-0.1589682
-4.162176	deployment	-0.166641
-4.532062	deport	-0.1225144
-4.532062	deportation	-0.1987645
-4.647435	deported	-0.1225144
-4.647435	deposit	-0.1225144
-4.532062	deposited	-0.1225144
-4.647435	depository	-0.1225144
-4.532062	depressed	-0.1225144
-4.532062	depression	-0.1225144
-4.271746	deprived	-0.4158188
-4.532062	deputy	-0.166641
-4.647435	derail	-0.1225144
-4.647435	deregulation	-0.1225144
-4.647435	derelict	-0.1225144
-4.647435	deriding	-0.1225144
-4.647435	derived	-0.1225144
-4.647435	descent	-0.1225144
-4.418642	described	-0.1225144
-4.647435	describes	-0.1225144
-4.532062	describing	-0.2425788
-3.836881	deserve	-0.178285
-4.647435	deserved	-0.1225144
-4.532062	deserves	-0.1225144
-4.647435	design	-0.1225144
-4.532062	designated	-0.1225144
-4.271746	designed	-0.2422875
-4.532062	designing	-0.1225144
-4.418642	desirable	-0.1225144
-4.074755	desire	-0.1589682
-4.647435	desired	-0.1225144
-4.647435	desires	-0.1225144
-4.647435	desjardins	-0.1225144
-4.418642	desjarlais	-0.1987645
-4.418642	desperate	-0.1225144
-4.418642	desperately	-0.1784106
-4.647435	despicable	-0.1225144
-4.074755	despite	-0.3673233
-4.532062	desrochers	-0.1225144
-4.647435	destabilizing	-0.1225144
-4.647435	destination	-0.1225144
-4.647435	destitution	-0.1225144
-4.647435	destroy	-0.1225144
-4.647435	destroyers	-0.1225144
-4.647435	destroying	-0.1225144
-4.647435	destroys	-0.1225144
-4.532062	destruction	-0.1225144
-4.647435	destructive	-0.1225144
-4.532062	detached	-0.2425788
-4.418642	detail	-0.1985889
-4.532062	detailed	-0.1225144
-4.162176	details	-0.1868707
-4.647435	detect	-0.1225144
-4.647435	detection	-0.1225144
-4.647435	deter	-0.1225144
-4.647435	determination	-0.1225144
-4.271746	determine	-0.1987645
-4.418642	determined	-0.1225144
-4.418642	determining	-0.1225144
-4.271746	deterrent	-0.1535694
-4.647435	deterring	-0.1225144
-4.647435	detract	-0.1225144
-4.647435	detrimental	-0.1225144
-4.647435	devastated	-0.1225144
-4.418642	devastating	-0.1225144
-4.532062	devastation	-0.1225144
-4.002017	develop	-0.1998641
-3.753784	developed	-0.1823382
-4.002017	developing	-0.1717226
-3.524209	development	-0.2125689
-4.162176	developments	-0.1225144
-4.647435	develops	-0.1225144
-4.647435	devil	-0.1225144
-4.418642	devillers	-0.2908801
-4.647435	devising	-0.1225144
-4.647435	devote	-0.1225144
-4.271746	devoted	-0.1784106
-4.647435	devotion	-0.1225144
-4.418642	dewdney	-0.2908801
-4.532062	dfo	-0.1225144
-4.647435	dhaliwal	-0.1225144
-4.647435	di	-0.1225144
-4.647435	diabetes	-0.1225144
-4.647435	diagnosed	-0.1225144
-4.647435	diagnoses	-0.1225144
-4.532062	dialogue	-0.1225144
-4.271746	diamond	-0.1225144
-4.532062	diamonds	-0.1225144
-4.647435	diane	-0.1225144
-4.532062	diapers	-0.1225144
-4.647435	diavik	-0.1225144
-4.647435	dice	-0.1225144
-4.647435	dictate	-0.1225144
-4.532062	dictates	-0.1225144
-4.647435	dictators	-0.1225144
-3.156037	did	-0.3886745
-4.647435	didsbury	-0.1225144
-4.162176	die	-0.1589682
-4.162176	died	-0.1225144
-4.647435	dies	-0.1225144
-4.647435	dietary	-0.1225144
-4.647435	differ	-0.1225144
-4.162176	difference	-0.2273525
-4.162176	differences	-0.1987645
-3.481773	different	-0.143999
-4.647435	differentiate	-0.1225144
-4.418642	differently	-0.1225144
-3.684062	difficult	-0.2574914
-4.074755	difficulties	-0.1589682
-4.074755	difficulty	-0.1495639
-4.647435	dig	-0.1225144
-4.162176	dignity	-0.1784106
-4.647435	digress	-0.1225144
-4.532062	dilatory	-0.1225144
-4.532062	diligence	-0.1225144
-4.647435	diligent	-0.1225144
-4.532062	diligently	-0.1225144
-4.647435	dime	-0.1225144
-4.162176	dimension	-0.2155445
-4.271746	diminish	-0.1225144
-4.532062	dinner	-0.1225144
-4.532062	dion	-0.1225144
-4.647435	dioxide	-0.1225144
-4.647435	dioxins	-0.1225144
-4.647435	dip	-0.1225144
-4.418642	dire	-0.1987645
-3.793348	direct	-0.1514285
-4.162176	directed	-0.1987645
-4.647435	directing	-0.1225144
-3.836881	direction	-0.3032656
-4.647435	directions	-0.1225144
-3.425008	directly	-0.2355047
-4.162176	director	-0.1225144
-4.271746	directorate	-0.1868707
-4.074755	directors	-0.1904048
-4.532062	dirt	-0.1225144
-4.647435	dirtiest	-0.1225144
-4.162176	dirty	-0.3391975
-4.532062	disabilities	-0.1225144
-4.002017	disability	-0.1783269
-4.074755	disabled	-0.1623509
-4.271746	disadvantage	-0.1225144
-4.647435	disadvantaged	-0.1225144
-4.271746	disagree	-0.2422875
-4.647435	disagreement	-0.1225144
-4.647435	disagrees	-0.1225144
-4.532062	disappear	-0.1225144
-4.647435	disappearance	-0.1225144
-4.647435	disappeared	-0.1225144
-4.647435	disappearing	-0.1225144
-4.532062	disappointed	-0.1225144
-4.647435	disappointing	-0.1225144
-4.532062	disappointment	-0.1225144
-4.647435	disapproval	-0.1225144
-4.647435	disarmament	-0.1225144
-3.684062	disaster	-0.2258349
-4.162176	disasters	-0.1987645
-4.647435	disastrous	-0.1225144
-4.647435	disastrously	-0.1225144
-4.647435	discepola	-0.1225144
-4.647435	discerning	-0.1225144
-4.647435	discharge	-0.1225144
-4.647435	discipline	-0.1225144
-4.532062	disclaimer	-0.1225144
-4.418642	disclose	-0.1225144
-4.532062	disclosed	-0.1225144
-4.418642	disclosing	-0.1225144
-4.162176	disclosure	-0.1868707
-4.532062	discourage	-0.1225144
-4.647435	discouraged	-0.1225144
-4.647435	discourse	-0.1225144
-4.532062	discover	-0.1225144
-4.074755	discovered	-0.1225144
-4.162176	discoveries	-0.166641
-4.647435	discovery	-0.1225144
-4.647435	discredit	-0.1225144
-4.647435	discrepancy	-0.1225144
-4.647435	discretion	-0.1225144
-4.647435	discriminate	-0.1225144
-4.532062	discriminated	-0.2425788
-4.647435	discrimination	-0.1225144
-4.647435	discriminations	-0.1225144
-4.647435	discriminatory	-0.1225144
-3.836881	discuss	-0.1665758
-4.418642	discussed	-0.1986474
-4.647435	discusses	-0.1225144
-3.885269	discussing	-0.1560528
-3.939731	discussion	-0.1464738
-3.596822	discussions	-0.3223962
-4.647435	disdain	-0.1225144
-4.074755	disease	-0.1535694
-4.074755	diseases	-0.1464738
-4.647435	disequilibrium	-0.1225144
-4.647435	disfavour	-0.1225144
-4.532062	disgraceful	-0.1225144
-4.647435	disgusted	-0.1225144
-4.647435	disgusting	-0.1225144
-4.647435	disheartened	-0.1225144
-4.647435	disheartening	-0.1225144
-4.532062	disingenuous	-0.1225144
-4.647435	disinterest	-0.1225144
-4.647435	dislikes	-0.1225144
-4.647435	dismal	-0.1225144
-4.647435	dismayed	-0.1225144
-4.532062	dismiss	-0.1225144
-4.271746	dismissed	-0.1225144
-4.647435	disobedience	-0.1225144
-4.418642	disorder	-0.1225144
-4.647435	disorders	-0.1225144
-4.647435	dispassionate	-0.1225144
-4.647435	dispiriting	-0.1225144
-4.647435	displeasure	-0.1225144
-4.647435	disposable	-0.1225144
-4.271746	disposal	-0.166641
-4.647435	dispose	-0.1225144
-4.647435	disposed	-0.1225144
-4.647435	disposition	-0.1225144
-4.532062	dispute	-0.1225144
-4.647435	disputes	-0.1225144
-4.418642	disregard	-0.1987645
-4.647435	disregarded	-0.1225144
-4.647435	disrepair	-0.1225144
-4.647435	disseminate	-0.1225144
-4.647435	disservice	-0.1225144
-4.532062	dissipate	-0.1225144
-4.647435	dissuade	-0.1225144
-4.647435	dissuasive	-0.1225144
-4.532062	distant	-0.1225144
-4.418642	distinct	-0.1225144
-4.647435	distinction	-0.1225144
-4.532062	distinguished	-0.1225144
-4.532062	distort	-0.2425788
-4.647435	distortions	-0.1225144
-4.532062	distress	-0.1225144
-4.532062	distribute	-0.1225144
-4.647435	distributed	-0.1225144
-4.647435	distributing	-0.1225144
-4.532062	distribution	-0.2425788
-4.647435	distributors	-0.1225144
-4.647435	disturbed	-0.1225144
-4.418642	disturbing	-0.1225144
-4.647435	disturbs	-0.1225144
-4.647435	disunited	-0.1225144
-4.532062	dive	-0.1225144
-4.418642	diverse	-0.1225144
-4.532062	diversity	-0.1225144
-4.647435	diverted	-0.1225144
-4.647435	divestment	-0.1225144
-4.647435	divide	-0.1225144
-4.532062	divided	-0.2425788
-4.647435	dividing	-0.1225144
-4.647435	divine	-0.1225144
-4.002017	division	-0.1717776
-4.647435	divisions	-0.1225144
-4.647435	divorce	-0.1225144
-4.647435	divulged	-0.1225144
-4.532062	dna	-0.1225144
-4.532062	dnd	-0.1225144
-2.908188	do	-0.4216721
-4.647435	doc	-0.1225144
-4.647435	docks	-0.1225144
-4.532062	doctor	-0.1225144
-4.647435	doctoring	-0.1225144
-4.532062	doctrinaire	-0.1225144
-3.793348	document	-0.1823382
-4.647435	documentation	-0.1225144
-3.717526	documents	-0.2092432
-4.647435	doer	-0.1225144
-2.947705	does	-0.5434663
-3.425008	doing	-0.2399731
-4.647435	doled	-0.1225144
-4.002017	dollar	-0.1225144
-3.652994	dollars	-0.2597756
-4.647435	dom	-0.1225144
-4.647435	domain	-0.1225144
-3.939731	domestic	-0.1403589
-4.418642	domestically	-0.1225144
-4.647435	dominant	-0.1225144
-4.647435	dominated	-0.1225144
-4.647435	dominic	-0.1225144
-4.647435	don	-0.1225144
-4.647435	don't	-0.1225144
-4.532062	donate	-0.2425788
-4.271746	donations	-0.1225144
-3.481773	done	-0.266633
-4.532062	donor	-0.1225144
-4.074755	door	-0.2091757
-4.271746	doors	-0.1987645
-4.532062	dorothy	-0.1225144
-4.647435	dosage	-0.1225144
-4.647435	doses	-0.1225144
-4.647435	dotcom	-0.1225144
-4.162176	double	-0.2157635
-4.647435	doubling	-0.1225144
-4.647435	doubly	-0.1225144
-4.418642	doubt	-0.1784106
-4.532062	doubts	-0.1225144
-4.647435	douglas	-0.1225144
-3.077627	down	-0.3906886
-4.647435	downgrading	-0.1225144
-4.532062	downloading	-0.2425788
-4.647435	downright	-0.1225144
-4.532062	downtown	-0.1225144
-4.532062	downturn	-0.1225144
-4.647435	downward	-0.1225144
-4.532062	doyle	-0.1225144
-4.647435	dozy	-0.1225144
-3.939731	dr.	-0.275195
-4.418642	draft	-0.1225144
-4.532062	drafted	-0.2425788
-4.647435	drafting	-0.1225144
-4.532062	dragged	-0.1225144
-4.647435	dragging	-0.1225144
-4.532062	dramatic	-0.1225144
-4.418642	dramatically	-0.1225144
-4.271746	drastic	-0.1784106
-4.418642	drastically	-0.1225144
-4.074755	draw	-0.2444049
-4.647435	drawing	-0.1225144
-4.271746	drawn	-0.1784106
-4.647435	dreadful	-0.1225144
-4.647435	dream	-0.1225144
-4.647435	dreams	-0.1225144
-4.647435	dredged	-0.1225144
-4.418642	dredging	-0.1987645
-4.647435	dress	-0.1225144
-4.647435	dressing	-0.1225144
-4.647435	dries	-0.1225144
-4.647435	drift	-0.1225144
-4.647435	drilling	-0.1225144
-4.647435	drink	-0.1225144
-4.647435	drinking	-0.1225144
-4.647435	drinks	-0.1225144
-4.002017	drive	-0.1440175
-4.418642	driven	-0.1225144
-4.647435	driver	-0.1225144
-4.418642	drivers	-0.1225144
-4.647435	drives	-0.1225144
-4.074755	driving	-0.1225144
-4.532062	dromisky	-0.2425788
-4.647435	drones	-0.1225144
-4.162176	drop	-0.166641
-4.647435	dropout	-0.1225144
-4.271746	dropped	-0.166641
-4.418642	dropping	-0.1225144
-4.647435	drops	-0.1225144
-4.647435	drouin	-0.1225144
-4.647435	drowning	-0.1225144
-3.32982	drug	-0.2338366
-3.547091	drugs	-0.3557677
-4.418642	drummond	-0.1495639
-4.532062	du	-0.1225144
-4.647435	dual	-0.1225144
-4.647435	duality	-0.1225144
-4.418642	duceppe	-0.1225144
-4.647435	ducharme	-0.1225144
-4.647435	duct	-0.1225144
-3.425008	due	-0.4538965
-4.647435	dug	-0.1225144
-4.532062	duly	-0.1225144
-4.647435	dumb	-0.1225144
-4.647435	dumbstruck	-0.1225144
-4.647435	dumped	-0.1225144
-4.532062	duncan	-0.1225144
-4.647435	dundas	-0.1225144
-4.418642	duplain	-0.1784106
-3.054349	during	-0.3814956
-4.647435	dust	-0.1225144
-4.162176	duties	-0.1535694
-4.647435	dutka	-0.1225144
-4.074755	duty	-0.1403589
-4.647435	dwelt	-0.1225144
-4.532062	dying	-0.1225144
-4.647435	dynamic	-0.1225144
-4.647435	dépêche	-0.1225144
-4.647435	e-mail	-0.1225144
-4.532062	e.m.power+	-0.1225144
-3.462015	each	-0.2079578
-4.647435	eager	-0.1225144
-4.647435	ear	-0.1225144
-3.571245	earlier	-0.2837834
-4.647435	earliest	-0.1225144
-3.481773	early	-0.1805508
-4.647435	earn	-0.1225144
-4.418642	earned	-0.1784106
-4.532062	earners	-0.1225144
-4.162176	earning	-0.166641
-3.939731	earnings	-0.162439
-4.532062	earth	-0.1225144
-4.162176	earthquake	-0.1904048
-4.647435	ease	-0.1225144
-4.162176	easier	-0.166641
-4.162176	easily	-0.1225144
-3.939731	east	-0.2960152
-4.418642	easter	-0.1225144
-4.418642	eastern	-0.1225144
-3.939731	easy	-0.2091758
-4.647435	easygoing	-0.1225144
-4.418642	eat	-0.1225144
-4.647435	eating	-0.1225144
-3.425008	economic	-0.1900362
-4.647435	economical	-0.1225144
-4.532062	economically	-0.1225144
-4.418642	economics	-0.1225144
-4.418642	economies	-0.1225144
-4.162176	economist	-0.1225144
-4.532062	economists	-0.1225144
-3.481773	economy	-0.3857071
-4.647435	ecstasy	-0.1225144
-4.647435	ed	-0.1225144
-4.647435	edge	-0.1225144
-4.532062	edited	-0.2425788
-4.647435	edition	-0.1225144
-4.647435	editor	-0.1225144
-4.647435	editor-in-chief	-0.1225144
-4.532062	editorial	-0.1225144
-4.647435	editorializing	-0.1225144
-3.885269	edmonton	-0.2603283
-4.532062	educate	-0.1225144
-4.418642	educated	-0.1225144
-3.684062	education	-0.2519232
-4.271746	educational	-0.1225144
-4.647435	edward	-0.1225144
-4.647435	edwards	-0.1225144
-3.547091	effect	-0.3090538
-3.793348	effective	-0.1815616
-4.418642	effectively	-0.1225144
-4.647435	effectiveness	-0.1225144
-4.271746	effects	-0.1718326
-4.647435	efficacy	-0.1225144
-4.647435	efficective	-0.1225144
-4.074755	efficiency	-0.166641
-3.836881	efficient	-0.2804866
-4.162176	efficiently	-0.1870172
-3.793348	effort	-0.2424123
-3.652994	efforts	-0.2075152
-4.532062	eggleton	-0.1225144
-4.647435	eglinton	-0.1225144
-4.647435	eh-101	-0.1225144
-4.647435	eh-101s	-0.1225144
-3.939731	ei	-0.1225144
-4.647435	ei.	-0.1225144
-3.717526	eight	-0.2788621
-4.647435	ein	-0.1225144
-4.647435	eira	-0.1225144
-3.547091	either	-0.1317331
-4.532062	elaborate	-0.1225144
-4.647435	elbows	-0.1225144
-4.418642	elderly	-0.1225144
-4.647435	eldest	-0.1225144
-3.939731	elected	-0.1495639
-3.717526	election	-0.2148396
-4.647435	elections	-0.1225144
-4.647435	elective	-0.1225144
-4.418642	electoral	-0.1987645
-4.418642	electric	-0.1225144
-4.647435	electrical	-0.1225144
-4.162176	electricity	-0.166641
-4.002017	element	-0.4170385
-4.074755	elements	-0.1985889
-4.271746	eligibility	-0.166641
-4.074755	eligible	-0.2603283
-4.418642	eliminate	-0.1784106
-3.939731	eliminated	-0.2422875
-4.532062	eliminates	-0.1225144
-4.074755	eliminating	-0.1868707
-4.418642	elimination	-0.2908801
-4.647435	elinor	-0.1225144
-4.418642	elite	-0.1987644
-4.532062	elk	-0.1225144
-4.532062	ellesmere	-0.2425788
-4.271746	elley	-0.2422875
-4.647435	eloquent	-0.1225144
-4.418642	eloquently	-0.1225144
-3.793348	else	-0.3223262
-4.074755	elsewhere	-0.2230984
-4.647435	elsie	-0.1225144
-4.647435	eluded	-0.1225144
-4.647435	emanation	-0.1225144
-4.647435	embark	-0.1225144
-4.532062	embarrassed	-0.1225144
-4.647435	embarrassment	-0.1225144
-4.647435	embodying	-0.1225144
-4.647435	embrace	-0.1225144
-4.532062	embraced	-0.1225144
-4.647435	embracing	-0.1225144
-4.647435	embryonic	-0.1225144
-4.647435	emerged	-0.1225144
-4.532062	emergencies	-0.1225144
-3.793348	emergency	-0.2656235
-4.418642	emerging	-0.1987645
-4.647435	emily	-0.1225144
-4.647435	emission	-0.1225144
-4.074755	emissions	-0.215654
-4.647435	emitters	-0.1225144
-4.647435	emotional	-0.1225144
-4.647435	empathy	-0.1225144
-4.271746	emphasis	-0.2422875
-4.418642	emphasize	-0.1225144
-4.532062	emphasized	-0.2425788
-4.647435	emphasizing	-0.1225144
-4.532062	empire	-0.2425788
-4.647435	empirical	-0.1225144
-4.647435	empirically	-0.1225144
-4.418642	employ	-0.1225144
-4.271746	employed	-0.1225144
-4.074755	employee	-0.1420181
-3.32982	employees	-0.2818704
-4.162176	employer	-0.1699713
-4.647435	employer-employee	-0.1225144
-3.753784	employers	-0.1986474
-4.418642	employing	-0.1225144
-3.374811	employment	-0.3549712
-4.418642	empty	-0.1225144
-4.647435	emptying	-0.1225144
-4.162176	enable	-0.1495639
-4.647435	enabling	-0.1225144
-4.532062	enact	-0.1225144
-4.647435	enacted	-0.1225144
-4.532062	enacting	-0.1225144
-4.418642	enactment	-0.1225144
-4.647435	encapsulate	-0.1225144
-4.647435	encoded	-0.1225144
-4.647435	encompasses	-0.1225144
-4.647435	encountered	-0.1225144
-3.885269	encourage	-0.1690925
-4.647435	encouraged	-0.1225144
-4.647435	encouragement	-0.1225144
-4.647435	encourages	-0.1225144
-4.162176	encouraging	-0.1225144
-4.532062	encroached	-0.1225144
-4.532062	encroaching	-0.1225144
-4.532062	encroachment	-0.1225144
-4.647435	encroachments	-0.1225144
-3.502473	end	-0.331634
-4.532062	endeavour	-0.1225144
-4.647435	ended	-0.1225144
-4.532062	ending	-0.1225144
-4.532062	endless	-0.1225144
-4.532062	endorsed	-0.2425788
-4.271746	ends	-0.2422875
-4.647435	endure	-0.1225144
-4.647435	enduring	-0.1225144
-4.162176	energies	-0.178285
-4.647435	energized	-0.1225144
-3.137348	energy	-0.2959791
-4.532062	enforce	-0.1225144
-4.647435	enforced	-0.1225144
-3.624001	enforcement	-0.1706558
-4.647435	enforcing	-0.1225144
-4.162176	engage	-0.4183788
-4.271746	engaged	-0.3391975
-4.418642	engagement	-0.1225144
-4.532062	engaging	-0.1225144
-4.647435	engine	-0.1225144
-4.647435	engineered	-0.1225144
-4.532062	engineering	-0.1225144
-4.647435	england	-0.1225144
-4.162176	enhance	-0.166641
-4.532062	enhanced	-0.1225144
-4.647435	enhances	-0.1225144
-4.418642	enhancing	-0.1225144
-4.002017	enjoy	-0.1495639
-4.532062	enjoyed	-0.1225144
-4.271746	enlightened	-0.1784106
-4.532062	enlist	-0.1225144
-4.647435	enlisted	-0.1225144
-4.532062	enlisting	-0.1225144
-4.074755	enormous	-0.1420181
-3.240048	enough	-0.3509226
-4.647435	enquired	-0.1225144
-4.532062	enrich	-0.1225144
-4.532062	enriched	-0.1225144
-3.684062	enron	-0.3235628
-4.647435	enslavement	-0.1225144
-3.717526	ensure	-0.3544516
-4.532062	ensured	-0.1225144
-4.418642	ensures	-0.1225144
-3.624001	ensuring	-0.4435749
-4.647435	entail	-0.1225144
-4.162176	enter	-0.2908801
-4.271746	entered	-0.1784106
-4.271746	entering	-0.1784106
-4.532062	enterprise	-0.1225144
-4.647435	enthusiasm	-0.1225144
-4.647435	enthusiast	-0.1225144
-4.647435	enthusiastic	-0.1225144
-4.647435	entice	-0.1225144
-4.418642	entire	-0.1343289
-4.418642	entirely	-0.1225144
-4.647435	entirety	-0.1225144
-3.885269	entitled	-0.3474784
-4.271746	entitlement	-0.2425788
-4.532062	entity	-0.1225144
-4.647435	entrepreneurs	-0.1225144
-4.647435	entrepreneurship	-0.1225144
-4.647435	entry	-0.1225144
-4.647435	enunciating	-0.1225144
-3.571245	environment	-0.2556158
-3.374811	environmental	-0.1654621
-4.532062	environmentalist	-0.1225144
-4.532062	environmentalists	-0.1225144
-4.271746	environmentally	-0.2422875
-4.647435	environments	-0.1225144
-4.647435	epitomizes	-0.1225144
-4.532062	epp	-0.1225144
-4.647435	epresentatives	-0.1225144
-4.532062	equal	-0.1225144
-4.418642	equality	-0.166641
-3.939731	equalization	-0.162439
-4.532062	equalize	-0.1225144
-4.647435	equalled	-0.1225144
-4.418642	equally	-0.1225144
-4.532062	equip	-0.1225144
-3.344306	equipment	-0.2824697
-4.162176	equipped	-0.1535694
-4.647435	equipping	-0.1225144
-4.418642	equitable	-0.1225144
-4.647435	equitably	-0.1225144
-3.836881	equity	-0.1748571
-4.647435	equivalency	-0.1225144
-4.162176	equivalent	-0.166641
-4.647435	eritrea	-0.1225144
-4.647435	ernst	-0.1225144
-4.647435	erosion	-0.1225144
-4.532062	error	-0.2425787
-4.647435	escort	-0.1225144
-3.836881	especially	-0.1624097
-4.647435	esquimalt	-0.1225144
-4.418642	essence	-0.1225144
-3.793348	essential	-0.1699009
-4.418642	essentially	-0.1225144
-4.532062	essex	-0.1225144
-4.162176	esso	-0.2155445
-4.647435	esso-imperial	-0.1225144
-4.162176	establish	-0.1784106
-3.717526	established	-0.2198498
-4.647435	establishes	-0.1225144
-4.162176	establishing	-0.2155445
-4.647435	establishment	-0.1225144
-4.647435	esteemed	-0.1225144
-4.647435	esther	-0.1225144
-4.647435	esther-blondin	-0.1225144
-4.647435	estimate	-0.1225144
-4.418642	estimated	-0.1225144
-4.162176	estimates	-0.1495639
-4.418642	et	-0.1987645
-4.532062	etc.	-0.1225144
-4.647435	eternal	-0.1225144
-4.271746	ethical	-0.166641
-4.074755	ethics	-0.1535694
-4.647435	ethiopia	-0.1225144
-4.532062	ethnic	-0.1225144
-4.418642	etobicoke	-0.2908801
-4.647435	eugene	-0.1225144
-4.271746	europe	-0.1225144
-4.647435	europeans	-0.1225144
-4.647435	euthanasia	-0.1225144
-4.647435	evacuations	-0.1225144
-4.418642	evaluated	-0.2422875
-4.418642	evaluating	-0.1225144
-4.074755	evaluation	-0.2093107
-4.647435	evaluations	-0.1225144
-3.185669	even	-0.2216633
-4.532062	evening	-0.1225144
-4.647435	evenly	-0.1225144
-3.753784	event	-0.1986474
-4.162176	events	-0.166641
-4.647435	eventual	-0.1225144
-4.002017	eventually	-0.1225144
-3.684062	ever	-0.1396309
-4.647435	ever-greening	-0.1225144
-4.647435	ever-increasing	-0.1225144
-4.647435	ever-present	-0.1225144
-4.647435	everest	-0.1225144
-4.647435	everlasting	-0.1225144
-3.289056	every	-0.2076301
-4.002017	everybody	-0.1225144
-3.524209	everyone	-0.2172659
-3.596822	everything	-0.2483771
-4.162176	everywhere	-0.1225144
-3.547091	evidence	-0.4020854
-4.532062	evidence-gathering	-0.1225144
-4.532062	evident	-0.1225144
-4.647435	evidently	-0.1225144
-4.647435	evil	-0.1225144
-4.647435	evils	-0.1225144
-4.647435	evolve	-0.1225144
-4.647435	evolved	-0.1225144
-4.647435	evolves	-0.1225144
-4.647435	ex-minister	-0.1225144
-4.647435	exacerbated	-0.1225144
-4.532062	exact	-0.1225144
-3.885269	exactly	-0.1783269
-4.647435	exaggerated	-0.1225144
-4.647435	exaggerates	-0.1225144
-4.647435	exaggerating	-0.1225144
-4.647435	exaggerations	-0.1225144
-4.271746	examination	-0.2422875
-4.162176	examine	-0.1717226
-4.418642	examined	-0.1225144
-4.532062	examining	-0.1225144
-3.684062	example	-0.36899
-3.836881	examples	-0.3780003
-4.532062	exceed	-0.1225144
-4.647435	exceeding	-0.1225144
-4.647435	exceeds	-0.1225144
-4.532062	excellence	-0.1225144
-4.162176	excellent	-0.1225144
-4.418642	except	-0.1784106
-4.532062	exception	-0.1225144
-4.271746	exceptional	-0.1225144
-4.647435	excerpt	-0.1225144
-4.647435	excerpts	-0.1225144
-4.532062	excess	-0.1225144
-4.647435	excesses	-0.1225144
-4.647435	excessive	-0.1225144
-4.271746	exchange	-0.1784106
-4.647435	exchanges	-0.1225144
-4.532062	excise	-0.2425787
-4.647435	excited	-0.1225144
-4.532062	excitement	-0.1225144
-4.647435	exciting	-0.1225144
-4.418642	exclude	-0.1784106
-4.162176	excluded	-0.166641
-4.532062	exclusion	-0.1225144
-4.418642	exclusive	-0.1225144
-4.647435	exclusively	-0.1225144
-4.647435	excrete	-0.1225144
-4.532062	excuse	-0.1225144
-4.074755	executive	-0.1495639
-4.002017	executives	-0.1495639
-4.647435	exemplary	-0.1225144
-4.647435	exempt	-0.1225144
-4.647435	exempted	-0.1225144
-4.418642	exemption	-0.1784106
-4.647435	exemptions	-0.1225144
-4.418642	exercise	-0.1225144
-4.647435	exert	-0.1225144
-4.418642	exhaust	-0.1225144
-4.647435	exhausted	-0.1225144
-4.647435	exhaustion	-0.1225144
-4.162176	exist	-0.1589682
-4.271746	existed	-0.1225144
-4.418642	existence	-0.1225144
-3.939731	existing	-0.1358286
-4.002017	exists	-0.1225144
-4.647435	exits	-0.1225144
-4.418642	expand	-0.1225144
-4.647435	expanded	-0.1225144
-4.532062	expanding	-0.1225144
-4.647435	expansion	-0.1225144
-3.753784	expect	-0.1815084
-4.647435	expectancy	-0.1225144
-4.532062	expectations	-0.2425788
-4.074755	expected	-0.2448626
-4.647435	expecting	-0.1225144
-4.647435	expects	-0.1225144
-4.647435	expeditious	-0.1225144
-4.418642	expeditiously	-0.1987645
-4.647435	expelled	-0.1225144
-4.418642	expenditure	-0.1225144
-4.532062	expenditures	-0.1225144
-4.647435	expense	-0.1225144
-3.717526	expenses	-0.2448627
-4.418642	expensive	-0.1225144
-3.717526	experience	-0.2543878
-4.162176	experienced	-0.1225144
-4.418642	experiences	-0.1225144
-4.532062	experiencing	-0.1225144
-4.647435	experiment	-0.1225144
-4.532062	expert	-0.1225144
-4.074755	expertise	-0.1868707
-4.074755	experts	-0.2317974
-4.647435	expired	-0.1225144
-4.647435	expiry	-0.1225144
-3.717526	explain	-0.231802
-4.532062	explained	-0.1225144
-4.647435	explaining	-0.1225144
-4.647435	explains	-0.1225144
-4.271746	explanation	-0.1784106
-4.647435	explaning	-0.1225144
-4.647435	exploit	-0.1225144
-4.418642	exploitation	-0.1987644
-4.647435	exploited	-0.1225144
-4.647435	exploiting	-0.1225144
-3.502473	exploration	-0.261122
-4.418642	explore	-0.1225144
-4.647435	explored	-0.1225144
-4.532062	export	-0.1225144
-4.647435	exported	-0.1225144
-4.647435	exporters	-0.1225144
