
\data\
ngram 1=11

\1-grams:
-6.17073	<unk>
-2.788276	!	-1.755106
-2.992016	"	-0.4695309
-6.02073	'	-0.1524439
-6.02073	a	-0.1524439
-6.02073	b	-0.1524439
-99	c	-0.1524439
-inf	(	-0.2197705
-3.453544	)	-0.719145
-2.934429	</s>
-79	<s>	-1.906752

\end\
