
\data\
ngram 1=6
ngram 2=5
ngram 3=4

\1-grams:
-0.698970	</s>
-99	<s>	0.000000
-0.698970	A
-0.698970	B
-0.698970	C
-0.698970	D

\2-grams:
-0.698970	<s> A
-0.698970	A B
-0.698970	B C
-0.698970	C D
-0.698970	D </s>

\3-grams:
-0.698970	<s> A B
-0.698970	A B C
-0.698970	B C D
-0.698970	C D </s>

\end\
