
\data\
ngram 1=11
ngram 2=11
ngram 3=0

\1-grams:
-0.7917241	.	-0.4006044
-0.7917241	</s>
-99	<s>	-0.3966016
-1.072551	Québec	-0.2245131
-1.072551	This	-0.2626336
-1.072551	a	-0.2626336
-1.072551	in	-0.2626336
-1.072551	is	-0.2626336
-1.072551	lives	-0.2626336
-1.072551	test	-0.2245131
-1.072551	Éric	-0.2626336

\2-grams:
-0.1760913	. </s>
-0.4771213	<s> This
-0.4771213	<s> Éric
-0.30103	Québec .
-0.30103	This is
-0.30103	a test
-0.30103	in Québec
-0.30103	is a
-0.30103	lives in
-0.30103	test .
-0.30103	Éric lives

\3-grams:

\end\
