
\data\
ngram 1=5
ngram 2=4
ngram 3=3

\1-grams:
-0.602060	</s>
-99	<s>	0.000000
-0.602060	x
-0.602060	y
-0.602060	z

\2-grams:
-0.602060	<s> x
-0.602060	x y
-0.602060	y z
-0.602060	z </s>

\3-grams:
-0.602060	<s> x y
-0.602060	x y z
-0.602060	y z </s>

\end\
