
\data\
ngram 1=4
ngram 2=4
ngram 3=2

\1-grams:
-0.602060	</s>
-99	<s>	0.000000
-0.425969	x
-0.425969	y

\2-grams:
-0.425969	<s> x
-0.425969	<s> y
-0.602060	x </s>
-0.602060	y </s>

\3-grams:
-0.602060	<s> x </s>
-0.602060	<s> y </s>

\end\
