
\data\
ngram 1=3
ngram 2=3
ngram 3=2

\1-grams:
-0.301030	</s>
-99	<s>	-99
0.000000	__DUMMY__	-99

\2-grams:
0.000000	<s> __DUMMY__	-99
-0.301030	__DUMMY__ </s>	-99
-0.301030	__DUMMY__ __DUMMY__	-99

\3-grams:
0.000000	<s> __DUMMY__ __DUMMY__
0.000000	__DUMMY__ __DUMMY__ </s>
\end\
