
\data\
ngram 1=11
ngram 2=14
ngram 3=8

\1-grams:
-2.788276	!	-1.755106
-2.992016	"	-0.4695309
-6.02073	'	-0.1524439
-6.02073	a	-0.1524439
-6.02073	b	-0.1524439
-6.02073	c	-0.1524439
-4.571874	(	-0.2197705
-3.453544	)	-0.719145
-2.934429	</s>
-99	<unk>
-99	<s>	-1.906752

\2-grams:
-3.811583	! !	-0.3517647
-2.809237	! "
-2.202916	! '	-0.1731295
-3.830131	! (
-2.468737	" (	-0.03130097
-2.827435	" )
-2.764953	' !	-1.272583
-3.556476	' "	0.0
-4.499653	<s> !	0.4322762
-3.226264	<s> "	-0.4808773
-0.2370138	! </s>
-0.2270138	" !	0.2
-0.2170138	( !	0.1
-1.6422117	) "	0.0

\3-grams:
-0.008060176	! ! </s>
-0.002670138	" ! </s>
-0.0009593597	' ! </s>
-0.002870138	( ! </s>
-0.02	! ! !
-0.04	<s> ! !
-0.6422117	) " (
-2.06363	' " (

\end\
